digraph Tree {
node [shape=box, style="filled, rounded", color="black", fontname=helvetica] ;
edge [fontname=helvetica] ;
0 [label=<int_rate &le; 0.14<br/>gini = 0.258<br/>samples = 41292<br/>value = [35006, 6286]>, fillcolor="#ea985d"] ;
1 [label=<int_rate &le; 0.093<br/>gini = 0.2<br/>samples = 28907<br/>value = [25648, 3259]>, fillcolor="#e89152"] ;
0 -> 1 [labeldistance=2.5, labelangle=45, headlabel="True"] ;
2 [label=<annual_inc &le; 54036.0<br/>gini = 0.113<br/>samples = 10244<br/>value = [9629, 615]>, fillcolor="#e78946"] ;
1 -> 2 ;
3 [label=<annual_inc &le; 15252.0<br/>gini = 0.154<br/>samples = 4684<br/>value = [4290, 394]>, fillcolor="#e78d4b"] ;
2 -> 3 ;
4 [label=<addr_state_IL &le; 0.5<br/>gini = 0.302<br/>samples = 140<br/>value = [114, 26]>, fillcolor="#eb9e66"] ;
3 -> 4 ;
5 [label=<inq_last_6mths &le; 3.5<br/>gini = 0.268<br/>samples = 132<br/>value = [111, 21]>, fillcolor="#ea995e"] ;
4 -> 5 ;
6 [label=<annual_inc &le; 15087.5<br/>gini = 0.25<br/>samples = 130<br/>value = [111, 19]>, fillcolor="#e9975b"] ;
5 -> 6 ;
7 [label=<dti &le; 1.245<br/>gini = 0.232<br/>samples = 127<br/>value = [110, 17]>, fillcolor="#e99458"] ;
6 -> 7 ;
8 [label=<int_rate &le; 0.075<br/>gini = 0.48<br/>samples = 10<br/>value = [6, 4]>, fillcolor="#f6d5bd"] ;
7 -> 8 ;
9 [label=<gini = 0.0<br/>samples = 3<br/>value = [0, 3]>, fillcolor="#399de5"] ;
8 -> 9 ;
10 [label=<open_acc &le; 7.5<br/>gini = 0.245<br/>samples = 7<br/>value = [6, 1]>, fillcolor="#e9965a"] ;
8 -> 10 ;
11 [label=<gini = 0.0<br/>samples = 6<br/>value = [6, 0]>, fillcolor="#e58139"] ;
10 -> 11 ;
12 [label=<gini = 0.0<br/>samples = 1<br/>value = [0, 1]>, fillcolor="#399de5"] ;
10 -> 12 ;
13 [label=<total_acc &le; 26.5<br/>gini = 0.198<br/>samples = 117<br/>value = [104, 13]>, fillcolor="#e89152"] ;
7 -> 13 ;
14 [label=<loan_amnt &le; 6662.5<br/>gini = 0.168<br/>samples = 108<br/>value = [98, 10]>, fillcolor="#e88e4d"] ;
13 -> 14 ;
15 [label=<gini = 0.145<br/>samples = 102<br/>value = [94, 8]>, fillcolor="#e78c4a"] ;
14 -> 15 ;
16 [label=<gini = 0.444<br/>samples = 6<br/>value = [4, 2]>, fillcolor="#f2c09c"] ;
14 -> 16 ;
17 [label=<inq_last_6mths &le; 1.5<br/>gini = 0.444<br/>samples = 9<br/>value = [6, 3]>, fillcolor="#f2c09c"] ;
13 -> 17 ;
18 [label=<gini = 0.0<br/>samples = 6<br/>value = [6, 0]>, fillcolor="#e58139"] ;
17 -> 18 ;
19 [label=<gini = 0.0<br/>samples = 3<br/>value = [0, 3]>, fillcolor="#399de5"] ;
17 -> 19 ;
20 [label=<sub_grade_A5 &le; 0.5<br/>gini = 0.444<br/>samples = 3<br/>value = [1, 2]>, fillcolor="#9ccef2"] ;
6 -> 20 ;
21 [label=<gini = 0.0<br/>samples = 1<br/>value = [1, 0]>, fillcolor="#e58139"] ;
20 -> 21 ;
22 [label=<gini = 0.0<br/>samples = 2<br/>value = [0, 2]>, fillcolor="#399de5"] ;
20 -> 22 ;
23 [label=<gini = 0.0<br/>samples = 2<br/>value = [0, 2]>, fillcolor="#399de5"] ;
5 -> 23 ;
24 [label=<dti &le; 7.69<br/>gini = 0.469<br/>samples = 8<br/>value = [3, 5]>, fillcolor="#b0d8f5"] ;
4 -> 24 ;
25 [label=<gini = 0.0<br/>samples = 2<br/>value = [2, 0]>, fillcolor="#e58139"] ;
24 -> 25 ;
26 [label=<loan_amnt &le; 4000.0<br/>gini = 0.278<br/>samples = 6<br/>value = [1, 5]>, fillcolor="#61b1ea"] ;
24 -> 26 ;
27 [label=<gini = 0.0<br/>samples = 4<br/>value = [0, 4]>, fillcolor="#399de5"] ;
26 -> 27 ;
28 [label=<sub_grade_A4 &le; 0.5<br/>gini = 0.5<br/>samples = 2<br/>value = [1, 1]>, fillcolor="#ffffff"] ;
26 -> 28 ;
29 [label=<gini = 0.0<br/>samples = 1<br/>value = [0, 1]>, fillcolor="#399de5"] ;
28 -> 29 ;
30 [label=<gini = 0.0<br/>samples = 1<br/>value = [1, 0]>, fillcolor="#e58139"] ;
28 -> 30 ;
31 [label=<int_rate &le; 0.065<br/>gini = 0.149<br/>samples = 4544<br/>value = [4176, 368]>, fillcolor="#e78c4a"] ;
3 -> 31 ;
32 [label=<inq_last_6mths &le; 1.5<br/>gini = 0.096<br/>samples = 886<br/>value = [841, 45]>, fillcolor="#e68844"] ;
31 -> 32 ;
33 [label=<addr_state_WA &le; 0.5<br/>gini = 0.078<br/>samples = 788<br/>value = [756, 32]>, fillcolor="#e68641"] ;
32 -> 33 ;
34 [label=<int_rate &le; 0.06<br/>gini = 0.07<br/>samples = 772<br/>value = [744, 28]>, fillcolor="#e68640"] ;
33 -> 34 ;
35 [label=<loan_amnt &le; 11750.0<br/>gini = 0.095<br/>samples = 501<br/>value = [476, 25]>, fillcolor="#e68843"] ;
34 -> 35 ;
36 [label=<purpose_small_business &le; 0.5<br/>gini = 0.082<br/>samples = 464<br/>value = [444, 20]>, fillcolor="#e68742"] ;
35 -> 36 ;
37 [label=<gini = 0.076<br/>samples = 452<br/>value = [434, 18]>, fillcolor="#e68641"] ;
36 -> 37 ;
38 [label=<gini = 0.278<br/>samples = 12<br/>value = [10, 2]>, fillcolor="#ea9a61"] ;
36 -> 38 ;
39 [label=<total_acc &le; 12.5<br/>gini = 0.234<br/>samples = 37<br/>value = [32, 5]>, fillcolor="#e99558"] ;
35 -> 39 ;
40 [label=<gini = 0.5<br/>samples = 4<br/>value = [2, 2]>, fillcolor="#ffffff"] ;
39 -> 40 ;
41 [label=<gini = 0.165<br/>samples = 33<br/>value = [30, 3]>, fillcolor="#e88e4d"] ;
39 -> 41 ;
42 [label=<addr_state_NM &le; 0.5<br/>gini = 0.022<br/>samples = 271<br/>value = [268, 3]>, fillcolor="#e5823b"] ;
34 -> 42 ;
43 [label=<total_acc &le; 44.5<br/>gini = 0.015<br/>samples = 269<br/>value = [267, 2]>, fillcolor="#e5823a"] ;
42 -> 43 ;
44 [label=<gini = 0.008<br/>samples = 263<br/>value = [262, 1]>, fillcolor="#e5813a"] ;
43 -> 44 ;
45 [label=<gini = 0.278<br/>samples = 6<br/>value = [5, 1]>, fillcolor="#ea9a61"] ;
43 -> 45 ;
46 [label=<open_acc &le; 8.0<br/>gini = 0.5<br/>samples = 2<br/>value = [1, 1]>, fillcolor="#ffffff"] ;
42 -> 46 ;
47 [label=<gini = 0.0<br/>samples = 1<br/>value = [0, 1]>, fillcolor="#399de5"] ;
46 -> 47 ;
48 [label=<gini = 0.0<br/>samples = 1<br/>value = [1, 0]>, fillcolor="#e58139"] ;
46 -> 48 ;
49 [label=<total_acc &le; 15.0<br/>gini = 0.375<br/>samples = 16<br/>value = [12, 4]>, fillcolor="#eeab7b"] ;
33 -> 49 ;
50 [label=<total_acc &le; 12.0<br/>gini = 0.444<br/>samples = 6<br/>value = [2, 4]>, fillcolor="#9ccef2"] ;
49 -> 50 ;
51 [label=<gini = 0.0<br/>samples = 2<br/>value = [2, 0]>, fillcolor="#e58139"] ;
50 -> 51 ;
52 [label=<gini = 0.0<br/>samples = 4<br/>value = [0, 4]>, fillcolor="#399de5"] ;
50 -> 52 ;
53 [label=<gini = 0.0<br/>samples = 10<br/>value = [10, 0]>, fillcolor="#e58139"] ;
49 -> 53 ;
54 [label=<annual_inc &le; 53700.0<br/>gini = 0.23<br/>samples = 98<br/>value = [85, 13]>, fillcolor="#e99457"] ;
32 -> 54 ;
55 [label=<addr_state_WV &le; 0.5<br/>gini = 0.203<br/>samples = 96<br/>value = [85, 11]>, fillcolor="#e89153"] ;
54 -> 55 ;
56 [label=<addr_state_LA &le; 0.5<br/>gini = 0.188<br/>samples = 95<br/>value = [85, 10]>, fillcolor="#e89050"] ;
55 -> 56 ;
57 [label=<addr_state_MA &le; 0.5<br/>gini = 0.173<br/>samples = 94<br/>value = [85, 9]>, fillcolor="#e88e4e"] ;
56 -> 57 ;
58 [label=<gini = 0.143<br/>samples = 90<br/>value = [83, 7]>, fillcolor="#e78c4a"] ;
57 -> 58 ;
59 [label=<gini = 0.5<br/>samples = 4<br/>value = [2, 2]>, fillcolor="#ffffff"] ;
57 -> 59 ;
60 [label=<gini = 0.0<br/>samples = 1<br/>value = [0, 1]>, fillcolor="#399de5"] ;
56 -> 60 ;
61 [label=<gini = 0.0<br/>samples = 1<br/>value = [0, 1]>, fillcolor="#399de5"] ;
55 -> 61 ;
62 [label=<gini = 0.0<br/>samples = 2<br/>value = [0, 2]>, fillcolor="#399de5"] ;
54 -> 62 ;
63 [label=<dti &le; 15.065<br/>gini = 0.161<br/>samples = 3658<br/>value = [3335, 323]>, fillcolor="#e88d4c"] ;
31 -> 63 ;
64 [label=<loan_amnt &le; 21750.0<br/>gini = 0.138<br/>samples = 2148<br/>value = [1988, 160]>, fillcolor="#e78b49"] ;
63 -> 64 ;
65 [label=<inq_last_6mths &le; 3.5<br/>gini = 0.136<br/>samples = 2142<br/>value = [1985, 157]>, fillcolor="#e78b49"] ;
64 -> 65 ;
66 [label=<addr_state_FL &le; 0.5<br/>gini = 0.131<br/>samples = 2098<br/>value = [1950, 148]>, fillcolor="#e78b48"] ;
65 -> 66 ;
67 [label=<sub_grade_A5 &le; 0.5<br/>gini = 0.122<br/>samples = 1903<br/>value = [1779, 124]>, fillcolor="#e78a47"] ;
66 -> 67 ;
68 [label=<gini = 0.099<br/>samples = 1336<br/>value = [1266, 70]>, fillcolor="#e68844"] ;
67 -> 68 ;
69 [label=<gini = 0.172<br/>samples = 567<br/>value = [513, 54]>, fillcolor="#e88e4e"] ;
67 -> 69 ;
70 [label=<int_rate &le; 0.067<br/>gini = 0.216<br/>samples = 195<br/>value = [171, 24]>, fillcolor="#e99355"] ;
66 -> 70 ;
71 [label=<gini = 0.459<br/>samples = 14<br/>value = [9, 5]>, fillcolor="#f3c7a7"] ;
70 -> 71 ;
72 [label=<gini = 0.188<br/>samples = 181<br/>value = [162, 19]>, fillcolor="#e89050"] ;
70 -> 72 ;
73 [label=<purpose_moving &le; 0.5<br/>gini = 0.325<br/>samples = 44<br/>value = [35, 9]>, fillcolor="#eca16c"] ;
65 -> 73 ;
74 [label=<term_is_36 &le; 0.5<br/>gini = 0.278<br/>samples = 42<br/>value = [35, 7]>, fillcolor="#ea9a61"] ;
73 -> 74 ;
75 [label=<gini = 0.0<br/>samples = 2<br/>value = [0, 2]>, fillcolor="#399de5"] ;
74 -> 75 ;
76 [label=<gini = 0.219<br/>samples = 40<br/>value = [35, 5]>, fillcolor="#e99355"] ;
74 -> 76 ;
77 [label=<gini = 0.0<br/>samples = 2<br/>value = [0, 2]>, fillcolor="#399de5"] ;
73 -> 77 ;
78 [label=<annual_inc &le; 51400.0<br/>gini = 0.5<br/>samples = 6<br/>value = [3, 3]>, fillcolor="#ffffff"] ;
64 -> 78 ;
79 [label=<total_acc &le; 25.5<br/>gini = 0.375<br/>samples = 4<br/>value = [1, 3]>, fillcolor="#7bbeee"] ;
78 -> 79 ;
80 [label=<gini = 0.0<br/>samples = 3<br/>value = [0, 3]>, fillcolor="#399de5"] ;
79 -> 80 ;
81 [label=<gini = 0.0<br/>samples = 1<br/>value = [1, 0]>, fillcolor="#e58139"] ;
79 -> 81 ;
82 [label=<gini = 0.0<br/>samples = 2<br/>value = [2, 0]>, fillcolor="#e58139"] ;
78 -> 82 ;
83 [label=<loan_amnt &le; 2625.0<br/>gini = 0.193<br/>samples = 1510<br/>value = [1347, 163]>, fillcolor="#e89051"] ;
63 -> 83 ;
84 [label=<total_acc &le; 44.0<br/>gini = 0.32<br/>samples = 150<br/>value = [120, 30]>, fillcolor="#eca06a"] ;
83 -> 84 ;
85 [label=<annual_inc &le; 29502.0<br/>gini = 0.307<br/>samples = 148<br/>value = [120, 28]>, fillcolor="#eb9e67"] ;
84 -> 85 ;
86 [label=<dti &le; 24.615<br/>gini = 0.168<br/>samples = 54<br/>value = [49, 5]>, fillcolor="#e88e4d"] ;
85 -> 86 ;
87 [label=<gini = 0.044<br/>samples = 44<br/>value = [43, 1]>, fillcolor="#e6843e"] ;
86 -> 87 ;
88 [label=<gini = 0.48<br/>samples = 10<br/>value = [6, 4]>, fillcolor="#f6d5bd"] ;
86 -> 88 ;
89 [label=<annual_inc &le; 38652.0<br/>gini = 0.37<br/>samples = 94<br/>value = [71, 23]>, fillcolor="#edaa79"] ;
85 -> 89 ;
90 [label=<gini = 0.473<br/>samples = 39<br/>value = [24, 15]>, fillcolor="#f5d0b5"] ;
89 -> 90 ;
91 [label=<gini = 0.249<br/>samples = 55<br/>value = [47, 8]>, fillcolor="#e9965b"] ;
89 -> 91 ;
92 [label=<gini = 0.0<br/>samples = 2<br/>value = [0, 2]>, fillcolor="#399de5"] ;
84 -> 92 ;
93 [label=<total_acc &le; 37.5<br/>gini = 0.176<br/>samples = 1360<br/>value = [1227, 133]>, fillcolor="#e88f4e"] ;
83 -> 93 ;
94 [label=<addr_state_HI &le; 0.5<br/>gini = 0.163<br/>samples = 1242<br/>value = [1131, 111]>, fillcolor="#e88d4c"] ;
93 -> 94 ;
95 [label=<emp_length &le; 1.5<br/>gini = 0.159<br/>samples = 1236<br/>value = [1128, 108]>, fillcolor="#e78d4c"] ;
94 -> 95 ;
96 [label=<gini = 0.089<br/>samples = 258<br/>value = [246, 12]>, fillcolor="#e68743"] ;
95 -> 96 ;
97 [label=<gini = 0.177<br/>samples = 978<br/>value = [882, 96]>, fillcolor="#e88f4f"] ;
95 -> 97 ;
98 [label=<int_rate &le; 0.072<br/>gini = 0.5<br/>samples = 6<br/>value = [3, 3]>, fillcolor="#ffffff"] ;
94 -> 98 ;
99 [label=<gini = 0.0<br/>samples = 2<br/>value = [2, 0]>, fillcolor="#e58139"] ;
98 -> 99 ;
100 [label=<gini = 0.375<br/>samples = 4<br/>value = [1, 3]>, fillcolor="#7bbeee"] ;
98 -> 100 ;
101 [label=<emp_length &le; 1.5<br/>gini = 0.303<br/>samples = 118<br/>value = [96, 22]>, fillcolor="#eb9e66"] ;
93 -> 101 ;
102 [label=<annual_inc &le; 49700.0<br/>gini = 0.5<br/>samples = 16<br/>value = [8, 8]>, fillcolor="#ffffff"] ;
101 -> 102 ;
103 [label=<gini = 0.444<br/>samples = 12<br/>value = [8, 4]>, fillcolor="#f2c09c"] ;
102 -> 103 ;
104 [label=<gini = 0.0<br/>samples = 4<br/>value = [0, 4]>, fillcolor="#399de5"] ;
102 -> 104 ;
105 [label=<int_rate &le; 0.067<br/>gini = 0.237<br/>samples = 102<br/>value = [88, 14]>, fillcolor="#e99558"] ;
101 -> 105 ;
106 [label=<gini = 0.49<br/>samples = 7<br/>value = [3, 4]>, fillcolor="#cee6f8"] ;
105 -> 106 ;
107 [label=<gini = 0.188<br/>samples = 95<br/>value = [85, 10]>, fillcolor="#e89050"] ;
105 -> 107 ;
108 [label=<purpose_small_business &le; 0.5<br/>gini = 0.076<br/>samples = 5560<br/>value = [5339, 221]>, fillcolor="#e68641"] ;
2 -> 108 ;
109 [label=<int_rate &le; 0.074<br/>gini = 0.071<br/>samples = 5378<br/>value = [5179, 199]>, fillcolor="#e68641"] ;
108 -> 109 ;
110 [label=<addr_state_NH &le; 0.5<br/>gini = 0.043<br/>samples = 2527<br/>value = [2471, 56]>, fillcolor="#e6843d"] ;
109 -> 110 ;
111 [label=<annual_inc &le; 66050.0<br/>gini = 0.042<br/>samples = 2518<br/>value = [2464, 54]>, fillcolor="#e6843d"] ;
110 -> 111 ;
112 [label=<pub_rec &le; 0.5<br/>gini = 0.071<br/>samples = 761<br/>value = [733, 28]>, fillcolor="#e68641"] ;
111 -> 112 ;
113 [label=<addr_state_CA &le; 0.5<br/>gini = 0.067<br/>samples = 754<br/>value = [728, 26]>, fillcolor="#e68640"] ;
112 -> 113 ;
114 [label=<dti &le; 22.565<br/>gini = 0.052<br/>samples = 631<br/>value = [614, 17]>, fillcolor="#e6843e"] ;
113 -> 114 ;
115 [label=<gini = 0.04<br/>samples = 583<br/>value = [571, 12]>, fillcolor="#e6843d"] ;
114 -> 115 ;
116 [label=<gini = 0.187<br/>samples = 48<br/>value = [43, 5]>, fillcolor="#e89050"] ;
114 -> 116 ;
117 [label=<annual_inc &le; 57250.0<br/>gini = 0.136<br/>samples = 123<br/>value = [114, 9]>, fillcolor="#e78b49"] ;
113 -> 117 ;
118 [label=<gini = 0.365<br/>samples = 25<br/>value = [19, 6]>, fillcolor="#eda978"] ;
117 -> 118 ;
119 [label=<gini = 0.059<br/>samples = 98<br/>value = [95, 3]>, fillcolor="#e6853f"] ;
117 -> 119 ;
120 [label=<dti &le; 6.005<br/>gini = 0.408<br/>samples = 7<br/>value = [5, 2]>, fillcolor="#efb388"] ;
112 -> 120 ;
121 [label=<addr_state_NY &le; 0.5<br/>gini = 0.444<br/>samples = 3<br/>value = [1, 2]>, fillcolor="#9ccef2"] ;
120 -> 121 ;
122 [label=<gini = 0.0<br/>samples = 2<br/>value = [0, 2]>, fillcolor="#399de5"] ;
121 -> 122 ;
123 [label=<gini = 0.0<br/>samples = 1<br/>value = [1, 0]>, fillcolor="#e58139"] ;
121 -> 123 ;
124 [label=<gini = 0.0<br/>samples = 4<br/>value = [4, 0]>, fillcolor="#e58139"] ;
120 -> 124 ;
125 [label=<open_acc &le; 19.5<br/>gini = 0.029<br/>samples = 1757<br/>value = [1731, 26]>, fillcolor="#e5833c"] ;
111 -> 125 ;
126 [label=<addr_state_NM &le; 0.5<br/>gini = 0.025<br/>samples = 1704<br/>value = [1682, 22]>, fillcolor="#e5833c"] ;
125 -> 126 ;
127 [label=<purpose_renewable_energy &le; 0.5<br/>gini = 0.024<br/>samples = 1698<br/>value = [1677, 21]>, fillcolor="#e5833b"] ;
126 -> 127 ;
128 [label=<gini = 0.023<br/>samples = 1689<br/>value = [1669, 20]>, fillcolor="#e5833b"] ;
127 -> 128 ;
129 [label=<gini = 0.198<br/>samples = 9<br/>value = [8, 1]>, fillcolor="#e89152"] ;
127 -> 129 ;
130 [label=<int_rate &le; 0.069<br/>gini = 0.278<br/>samples = 6<br/>value = [5, 1]>, fillcolor="#ea9a61"] ;
126 -> 130 ;
131 [label=<gini = 0.0<br/>samples = 5<br/>value = [5, 0]>, fillcolor="#e58139"] ;
130 -> 131 ;
132 [label=<gini = 0.0<br/>samples = 1<br/>value = [0, 1]>, fillcolor="#399de5"] ;
130 -> 132 ;
133 [label=<sub_grade_A4 &le; 0.5<br/>gini = 0.14<br/>samples = 53<br/>value = [49, 4]>, fillcolor="#e78b49"] ;
125 -> 133 ;
134 [label=<loan_amnt &le; 21500.0<br/>gini = 0.043<br/>samples = 46<br/>value = [45, 1]>, fillcolor="#e6843d"] ;
133 -> 134 ;
135 [label=<gini = 0.0<br/>samples = 43<br/>value = [43, 0]>, fillcolor="#e58139"] ;
134 -> 135 ;
136 [label=<gini = 0.444<br/>samples = 3<br/>value = [2, 1]>, fillcolor="#f2c09c"] ;
134 -> 136 ;
137 [label=<total_acc &le; 49.0<br/>gini = 0.49<br/>samples = 7<br/>value = [4, 3]>, fillcolor="#f8e0ce"] ;
133 -> 137 ;
138 [label=<gini = 0.375<br/>samples = 4<br/>value = [1, 3]>, fillcolor="#7bbeee"] ;
137 -> 138 ;
139 [label=<gini = 0.0<br/>samples = 3<br/>value = [3, 0]>, fillcolor="#e58139"] ;
137 -> 139 ;
140 [label=<annual_inc &le; 108000.0<br/>gini = 0.346<br/>samples = 9<br/>value = [7, 2]>, fillcolor="#eca572"] ;
110 -> 140 ;
141 [label=<sub_grade_A3 &le; 0.5<br/>gini = 0.219<br/>samples = 8<br/>value = [7, 1]>, fillcolor="#e99355"] ;
140 -> 141 ;
142 [label=<gini = 0.0<br/>samples = 6<br/>value = [6, 0]>, fillcolor="#e58139"] ;
141 -> 142 ;
143 [label=<dti &le; 19.115<br/>gini = 0.5<br/>samples = 2<br/>value = [1, 1]>, fillcolor="#ffffff"] ;
141 -> 143 ;
144 [label=<gini = 0.0<br/>samples = 1<br/>value = [0, 1]>, fillcolor="#399de5"] ;
143 -> 144 ;
145 [label=<gini = 0.0<br/>samples = 1<br/>value = [1, 0]>, fillcolor="#e58139"] ;
143 -> 145 ;
146 [label=<gini = 0.0<br/>samples = 1<br/>value = [0, 1]>, fillcolor="#399de5"] ;
140 -> 146 ;
147 [label=<inq_last_6mths &le; 1.5<br/>gini = 0.095<br/>samples = 2851<br/>value = [2708, 143]>, fillcolor="#e68843"] ;
109 -> 147 ;
148 [label=<purpose_renewable_energy &le; 0.5<br/>gini = 0.082<br/>samples = 2258<br/>value = [2161, 97]>, fillcolor="#e68742"] ;
147 -> 148 ;
149 [label=<total_acc &le; 60.0<br/>gini = 0.08<br/>samples = 2248<br/>value = [2154, 94]>, fillcolor="#e68642"] ;
148 -> 149 ;
150 [label=<addr_state_MT &le; 0.5<br/>gini = 0.078<br/>samples = 2235<br/>value = [2144, 91]>, fillcolor="#e68641"] ;
149 -> 150 ;
151 [label=<dti &le; 7.65<br/>gini = 0.077<br/>samples = 2233<br/>value = [2143, 90]>, fillcolor="#e68641"] ;
150 -> 151 ;
152 [label=<gini = 0.045<br/>samples = 698<br/>value = [682, 16]>, fillcolor="#e6843e"] ;
151 -> 152 ;
153 [label=<gini = 0.092<br/>samples = 1535<br/>value = [1461, 74]>, fillcolor="#e68743"] ;
151 -> 153 ;
154 [label=<inq_last_6mths &le; 0.5<br/>gini = 0.5<br/>samples = 2<br/>value = [1, 1]>, fillcolor="#ffffff"] ;
150 -> 154 ;
155 [label=<gini = 0.0<br/>samples = 1<br/>value = [1, 0]>, fillcolor="#e58139"] ;
154 -> 155 ;
156 [label=<gini = 0.0<br/>samples = 1<br/>value = [0, 1]>, fillcolor="#399de5"] ;
154 -> 156 ;
157 [label=<dti &le; 18.685<br/>gini = 0.355<br/>samples = 13<br/>value = [10, 3]>, fillcolor="#eda774"] ;
149 -> 157 ;
158 [label=<open_acc &le; 12.0<br/>gini = 0.165<br/>samples = 11<br/>value = [10, 1]>, fillcolor="#e88e4d"] ;
157 -> 158 ;
159 [label=<gini = 0.0<br/>samples = 1<br/>value = [0, 1]>, fillcolor="#399de5"] ;
158 -> 159 ;
160 [label=<gini = 0.0<br/>samples = 10<br/>value = [10, 0]>, fillcolor="#e58139"] ;
158 -> 160 ;
161 [label=<gini = 0.0<br/>samples = 2<br/>value = [0, 2]>, fillcolor="#399de5"] ;
157 -> 161 ;
162 [label=<emp_length &le; 3.5<br/>gini = 0.42<br/>samples = 10<br/>value = [7, 3]>, fillcolor="#f0b78e"] ;
148 -> 162 ;
163 [label=<gini = 0.0<br/>samples = 2<br/>value = [0, 2]>, fillcolor="#399de5"] ;
162 -> 163 ;
164 [label=<addr_state_AZ &le; 0.5<br/>gini = 0.219<br/>samples = 8<br/>value = [7, 1]>, fillcolor="#e99355"] ;
162 -> 164 ;
165 [label=<gini = 0.0<br/>samples = 7<br/>value = [7, 0]>, fillcolor="#e58139"] ;
164 -> 165 ;
166 [label=<gini = 0.0<br/>samples = 1<br/>value = [0, 1]>, fillcolor="#399de5"] ;
164 -> 166 ;
167 [label=<total_acc &le; 8.5<br/>gini = 0.143<br/>samples = 593<br/>value = [547, 46]>, fillcolor="#e78c4a"] ;
147 -> 167 ;
168 [label=<annual_inc &le; 77500.0<br/>gini = 0.496<br/>samples = 11<br/>value = [6, 5]>, fillcolor="#fbeade"] ;
167 -> 168 ;
169 [label=<loan_amnt &le; 950.0<br/>gini = 0.278<br/>samples = 6<br/>value = [1, 5]>, fillcolor="#61b1ea"] ;
168 -> 169 ;
170 [label=<gini = 0.0<br/>samples = 1<br/>value = [1, 0]>, fillcolor="#e58139"] ;
169 -> 170 ;
171 [label=<gini = 0.0<br/>samples = 5<br/>value = [0, 5]>, fillcolor="#399de5"] ;
169 -> 171 ;
172 [label=<gini = 0.0<br/>samples = 5<br/>value = [5, 0]>, fillcolor="#e58139"] ;
168 -> 172 ;
173 [label=<dti &le; 11.655<br/>gini = 0.131<br/>samples = 582<br/>value = [541, 41]>, fillcolor="#e78b48"] ;
167 -> 173 ;
174 [label=<purpose_educational &le; 0.5<br/>gini = 0.087<br/>samples = 306<br/>value = [292, 14]>, fillcolor="#e68742"] ;
173 -> 174 ;
175 [label=<addr_state_FL &le; 0.5<br/>gini = 0.076<br/>samples = 302<br/>value = [290, 12]>, fillcolor="#e68641"] ;
174 -> 175 ;
176 [label=<gini = 0.061<br/>samples = 285<br/>value = [276, 9]>, fillcolor="#e6853f"] ;
175 -> 176 ;
177 [label=<gini = 0.291<br/>samples = 17<br/>value = [14, 3]>, fillcolor="#eb9c63"] ;
175 -> 177 ;
178 [label=<loan_amnt &le; 9750.0<br/>gini = 0.5<br/>samples = 4<br/>value = [2, 2]>, fillcolor="#ffffff"] ;
174 -> 178 ;
179 [label=<gini = 0.0<br/>samples = 2<br/>value = [0, 2]>, fillcolor="#399de5"] ;
178 -> 179 ;
180 [label=<gini = 0.0<br/>samples = 2<br/>value = [2, 0]>, fillcolor="#e58139"] ;
178 -> 180 ;
181 [label=<open_acc &le; 4.5<br/>gini = 0.177<br/>samples = 276<br/>value = [249, 27]>, fillcolor="#e88f4e"] ;
173 -> 181 ;
182 [label=<gini = 0.0<br/>samples = 1<br/>value = [0, 1]>, fillcolor="#399de5"] ;
181 -> 182 ;
183 [label=<addr_state_MD &le; 0.5<br/>gini = 0.171<br/>samples = 275<br/>value = [249, 26]>, fillcolor="#e88e4e"] ;
181 -> 183 ;
184 [label=<gini = 0.161<br/>samples = 271<br/>value = [247, 24]>, fillcolor="#e88d4c"] ;
183 -> 184 ;
185 [label=<gini = 0.5<br/>samples = 4<br/>value = [2, 2]>, fillcolor="#ffffff"] ;
183 -> 185 ;
186 [label=<inq_last_6mths &le; 2.5<br/>gini = 0.213<br/>samples = 182<br/>value = [160, 22]>, fillcolor="#e99254"] ;
108 -> 186 ;
187 [label=<dti &le; 21.88<br/>gini = 0.175<br/>samples = 165<br/>value = [149, 16]>, fillcolor="#e88f4e"] ;
186 -> 187 ;
188 [label=<addr_state_OR &le; 0.5<br/>gini = 0.144<br/>samples = 154<br/>value = [142, 12]>, fillcolor="#e78c4a"] ;
187 -> 188 ;
189 [label=<int_rate &le; 0.066<br/>gini = 0.133<br/>samples = 153<br/>value = [142, 11]>, fillcolor="#e78b48"] ;
188 -> 189 ;
190 [label=<gini = 0.0<br/>samples = 46<br/>value = [46, 0]>, fillcolor="#e58139"] ;
189 -> 190 ;
191 [label=<emp_length &le; 5.5<br/>gini = 0.184<br/>samples = 107<br/>value = [96, 11]>, fillcolor="#e88f50"] ;
189 -> 191 ;
192 [label=<addr_state_WA &le; 0.5<br/>gini = 0.264<br/>samples = 64<br/>value = [54, 10]>, fillcolor="#ea985e"] ;
191 -> 192 ;
193 [label=<gini = 0.245<br/>samples = 63<br/>value = [54, 9]>, fillcolor="#e9965a"] ;
192 -> 193 ;
194 [label=<gini = 0.0<br/>samples = 1<br/>value = [0, 1]>, fillcolor="#399de5"] ;
192 -> 194 ;
195 [label=<addr_state_CA &le; 0.5<br/>gini = 0.045<br/>samples = 43<br/>value = [42, 1]>, fillcolor="#e6843e"] ;
191 -> 195 ;
196 [label=<gini = 0.0<br/>samples = 37<br/>value = [37, 0]>, fillcolor="#e58139"] ;
195 -> 196 ;
197 [label=<gini = 0.278<br/>samples = 6<br/>value = [5, 1]>, fillcolor="#ea9a61"] ;
195 -> 197 ;
198 [label=<gini = 0.0<br/>samples = 1<br/>value = [0, 1]>, fillcolor="#399de5"] ;
188 -> 198 ;
199 [label=<emp_length &le; 2.5<br/>gini = 0.463<br/>samples = 11<br/>value = [7, 4]>, fillcolor="#f4c9aa"] ;
187 -> 199 ;
200 [label=<gini = 0.0<br/>samples = 6<br/>value = [6, 0]>, fillcolor="#e58139"] ;
199 -> 200 ;
201 [label=<addr_state_NC &le; 0.5<br/>gini = 0.32<br/>samples = 5<br/>value = [1, 4]>, fillcolor="#6ab6ec"] ;
199 -> 201 ;
202 [label=<gini = 0.0<br/>samples = 4<br/>value = [0, 4]>, fillcolor="#399de5"] ;
201 -> 202 ;
203 [label=<gini = 0.0<br/>samples = 1<br/>value = [1, 0]>, fillcolor="#e58139"] ;
201 -> 203 ;
204 [label=<annual_inc &le; 64000.0<br/>gini = 0.457<br/>samples = 17<br/>value = [11, 6]>, fillcolor="#f3c6a5"] ;
186 -> 204 ;
205 [label=<gini = 0.0<br/>samples = 3<br/>value = [0, 3]>, fillcolor="#399de5"] ;
204 -> 205 ;
206 [label=<open_acc &le; 10.5<br/>gini = 0.337<br/>samples = 14<br/>value = [11, 3]>, fillcolor="#eca36f"] ;
204 -> 206 ;
207 [label=<gini = 0.0<br/>samples = 8<br/>value = [8, 0]>, fillcolor="#e58139"] ;
206 -> 207 ;
208 [label=<open_acc &le; 12.5<br/>gini = 0.5<br/>samples = 6<br/>value = [3, 3]>, fillcolor="#ffffff"] ;
206 -> 208 ;
209 [label=<gini = 0.0<br/>samples = 3<br/>value = [0, 3]>, fillcolor="#399de5"] ;
208 -> 209 ;
210 [label=<gini = 0.0<br/>samples = 3<br/>value = [3, 0]>, fillcolor="#e58139"] ;
208 -> 210 ;
211 [label=<purpose_small_business &le; 0.5<br/>gini = 0.243<br/>samples = 18663<br/>value = [16019, 2644]>, fillcolor="#e9965a"] ;
1 -> 211 ;
212 [label=<term_is_36 &le; 0.5<br/>gini = 0.234<br/>samples = 17871<br/>value = [15452, 2419]>, fillcolor="#e99558"] ;
211 -> 212 ;
213 [label=<annual_inc &le; 64021.641<br/>gini = 0.307<br/>samples = 3679<br/>value = [2981, 698]>, fillcolor="#eb9f67"] ;
212 -> 213 ;
214 [label=<addr_state_FL &le; 0.5<br/>gini = 0.357<br/>samples = 1997<br/>value = [1533, 464]>, fillcolor="#eda775"] ;
213 -> 214 ;
215 [label=<int_rate &le; 0.119<br/>gini = 0.343<br/>samples = 1836<br/>value = [1432, 404]>, fillcolor="#eca571"] ;
214 -> 215 ;
216 [label=<addr_state_NM &le; 0.5<br/>gini = 0.303<br/>samples = 956<br/>value = [778, 178]>, fillcolor="#eb9e66"] ;
215 -> 216 ;
217 [label=<total_acc &le; 39.5<br/>gini = 0.297<br/>samples = 948<br/>value = [776, 172]>, fillcolor="#eb9d65"] ;
216 -> 217 ;
218 [label=<addr_state_NJ &le; 0.5<br/>gini = 0.284<br/>samples = 894<br/>value = [741, 153]>, fillcolor="#ea9b62"] ;
217 -> 218 ;
219 [label=<gini = 0.272<br/>samples = 851<br/>value = [713, 138]>, fillcolor="#ea995f"] ;
218 -> 219 ;
220 [label=<gini = 0.454<br/>samples = 43<br/>value = [28, 15]>, fillcolor="#f3c4a3"] ;
218 -> 220 ;
221 [label=<emp_length &le; 3.5<br/>gini = 0.456<br/>samples = 54<br/>value = [35, 19]>, fillcolor="#f3c5a4"] ;
217 -> 221 ;
222 [label=<gini = 0.444<br/>samples = 15<br/>value = [5, 10]>, fillcolor="#9ccef2"] ;
221 -> 222 ;
223 [label=<gini = 0.355<br/>samples = 39<br/>value = [30, 9]>, fillcolor="#eda774"] ;
221 -> 223 ;
224 [label=<total_acc &le; 24.5<br/>gini = 0.375<br/>samples = 8<br/>value = [2, 6]>, fillcolor="#7bbeee"] ;
216 -> 224 ;
225 [label=<gini = 0.0<br/>samples = 6<br/>value = [0, 6]>, fillcolor="#399de5"] ;
224 -> 225 ;
226 [label=<gini = 0.0<br/>samples = 2<br/>value = [2, 0]>, fillcolor="#e58139"] ;
224 -> 226 ;
227 [label=<total_acc &le; 6.5<br/>gini = 0.382<br/>samples = 880<br/>value = [654, 226]>, fillcolor="#eead7d"] ;
215 -> 227 ;
228 [label=<total_acc &le; 3.5<br/>gini = 0.113<br/>samples = 50<br/>value = [47, 3]>, fillcolor="#e78946"] ;
227 -> 228 ;
229 [label=<dti &le; 1.76<br/>gini = 0.444<br/>samples = 3<br/>value = [1, 2]>, fillcolor="#9ccef2"] ;
228 -> 229 ;
230 [label=<gini = 0.0<br/>samples = 1<br/>value = [1, 0]>, fillcolor="#e58139"] ;
229 -> 230 ;
231 [label=<gini = 0.0<br/>samples = 2<br/>value = [0, 2]>, fillcolor="#399de5"] ;
229 -> 231 ;
232 [label=<loan_amnt &le; 1725.0<br/>gini = 0.042<br/>samples = 47<br/>value = [46, 1]>, fillcolor="#e6843d"] ;
228 -> 232 ;
233 [label=<gini = 0.5<br/>samples = 2<br/>value = [1, 1]>, fillcolor="#ffffff"] ;
232 -> 233 ;
234 [label=<gini = 0.0<br/>samples = 45<br/>value = [45, 0]>, fillcolor="#e58139"] ;
232 -> 234 ;
235 [label=<annual_inc &le; 40150.0<br/>gini = 0.393<br/>samples = 830<br/>value = [607, 223]>, fillcolor="#efaf82"] ;
227 -> 235 ;
236 [label=<dti &le; 23.895<br/>gini = 0.443<br/>samples = 305<br/>value = [204, 101]>, fillcolor="#f2bf9b"] ;
235 -> 236 ;
237 [label=<gini = 0.422<br/>samples = 278<br/>value = [194, 84]>, fillcolor="#f0b88f"] ;
236 -> 237 ;
238 [label=<gini = 0.466<br/>samples = 27<br/>value = [10, 17]>, fillcolor="#add7f4"] ;
236 -> 238 ;
239 [label=<loan_amnt &le; 21675.0<br/>gini = 0.357<br/>samples = 525<br/>value = [403, 122]>, fillcolor="#eda775"] ;
235 -> 239 ;
240 [label=<gini = 0.334<br/>samples = 439<br/>value = [346, 93]>, fillcolor="#eca36e"] ;
239 -> 240 ;
241 [label=<gini = 0.447<br/>samples = 86<br/>value = [57, 29]>, fillcolor="#f2c19e"] ;
239 -> 241 ;
242 [label=<dti &le; 1.405<br/>gini = 0.468<br/>samples = 161<br/>value = [101, 60]>, fillcolor="#f4ccaf"] ;
214 -> 242 ;
243 [label=<loan_amnt &le; 17500.0<br/>gini = 0.219<br/>samples = 8<br/>value = [1, 7]>, fillcolor="#55abe9"] ;
242 -> 243 ;
244 [label=<gini = 0.0<br/>samples = 7<br/>value = [0, 7]>, fillcolor="#399de5"] ;
243 -> 244 ;
245 [label=<gini = 0.0<br/>samples = 1<br/>value = [1, 0]>, fillcolor="#e58139"] ;
243 -> 245 ;
246 [label=<int_rate &le; 0.104<br/>gini = 0.453<br/>samples = 153<br/>value = [100, 53]>, fillcolor="#f3c4a2"] ;
242 -> 246 ;
247 [label=<purpose_credit_card &le; 0.5<br/>gini = 0.225<br/>samples = 31<br/>value = [27, 4]>, fillcolor="#e99456"] ;
246 -> 247 ;
248 [label=<annual_inc &le; 23250.0<br/>gini = 0.18<br/>samples = 30<br/>value = [27, 3]>, fillcolor="#e88f4f"] ;
247 -> 248 ;
249 [label=<gini = 0.5<br/>samples = 2<br/>value = [1, 1]>, fillcolor="#ffffff"] ;
248 -> 249 ;
250 [label=<gini = 0.133<br/>samples = 28<br/>value = [26, 2]>, fillcolor="#e78b48"] ;
248 -> 250 ;
251 [label=<gini = 0.0<br/>samples = 1<br/>value = [0, 1]>, fillcolor="#399de5"] ;
247 -> 251 ;
252 [label=<annual_inc &le; 60290.0<br/>gini = 0.481<br/>samples = 122<br/>value = [73, 49]>, fillcolor="#f6d6be"] ;
246 -> 252 ;
253 [label=<annual_inc &le; 27273.2<br/>gini = 0.469<br/>samples = 117<br/>value = [73, 44]>, fillcolor="#f5cdb0"] ;
252 -> 253 ;
254 [label=<gini = 0.231<br/>samples = 15<br/>value = [13, 2]>, fillcolor="#e99457"] ;
253 -> 254 ;
255 [label=<gini = 0.484<br/>samples = 102<br/>value = [60, 42]>, fillcolor="#f7d9c4"] ;
253 -> 255 ;
256 [label=<gini = 0.0<br/>samples = 5<br/>value = [0, 5]>, fillcolor="#399de5"] ;
252 -> 256 ;
257 [label=<loan_amnt &le; 8050.0<br/>gini = 0.24<br/>samples = 1682<br/>value = [1448, 234]>, fillcolor="#e99559"] ;
213 -> 257 ;
258 [label=<open_acc &le; 23.5<br/>gini = 0.308<br/>samples = 258<br/>value = [209, 49]>, fillcolor="#eb9f67"] ;
257 -> 258 ;
259 [label=<loan_amnt &le; 7550.0<br/>gini = 0.3<br/>samples = 256<br/>value = [209, 47]>, fillcolor="#eb9d66"] ;
258 -> 259 ;
260 [label=<total_acc &le; 23.5<br/>gini = 0.259<br/>samples = 216<br/>value = [183, 33]>, fillcolor="#ea985d"] ;
259 -> 260 ;
261 [label=<annual_inc &le; 111502.0<br/>gini = 0.375<br/>samples = 72<br/>value = [54, 18]>, fillcolor="#eeab7b"] ;
260 -> 261 ;
262 [label=<gini = 0.324<br/>samples = 64<br/>value = [51, 13]>, fillcolor="#eca16b"] ;
261 -> 262 ;
263 [label=<gini = 0.469<br/>samples = 8<br/>value = [3, 5]>, fillcolor="#b0d8f5"] ;
261 -> 263 ;
264 [label=<pub_rec_bankruptcies &le; 0.5<br/>gini = 0.187<br/>samples = 144<br/>value = [129, 15]>, fillcolor="#e89050"] ;
260 -> 264 ;
265 [label=<gini = 0.163<br/>samples = 134<br/>value = [122, 12]>, fillcolor="#e88d4c"] ;
264 -> 265 ;
266 [label=<gini = 0.42<br/>samples = 10<br/>value = [7, 3]>, fillcolor="#f0b78e"] ;
264 -> 266 ;
267 [label=<purpose_other &le; 0.5<br/>gini = 0.455<br/>samples = 40<br/>value = [26, 14]>, fillcolor="#f3c5a4"] ;
259 -> 267 ;
268 [label=<dti &le; 14.29<br/>gini = 0.408<br/>samples = 35<br/>value = [25, 10]>, fillcolor="#efb388"] ;
267 -> 268 ;
269 [label=<gini = 0.188<br/>samples = 19<br/>value = [17, 2]>, fillcolor="#e89050"] ;
268 -> 269 ;
270 [label=<gini = 0.5<br/>samples = 16<br/>value = [8, 8]>, fillcolor="#ffffff"] ;
268 -> 270 ;
271 [label=<emp_length &le; 9.0<br/>gini = 0.32<br/>samples = 5<br/>value = [1, 4]>, fillcolor="#6ab6ec"] ;
267 -> 271 ;
272 [label=<gini = 0.0<br/>samples = 4<br/>value = [0, 4]>, fillcolor="#399de5"] ;
271 -> 272 ;
273 [label=<gini = 0.0<br/>samples = 1<br/>value = [1, 0]>, fillcolor="#e58139"] ;
271 -> 273 ;
274 [label=<gini = 0.0<br/>samples = 2<br/>value = [0, 2]>, fillcolor="#399de5"] ;
258 -> 274 ;
275 [label=<addr_state_NY &le; 0.5<br/>gini = 0.226<br/>samples = 1424<br/>value = [1239, 185]>, fillcolor="#e99457"] ;
257 -> 275 ;
276 [label=<purpose_educational &le; 0.5<br/>gini = 0.213<br/>samples = 1287<br/>value = [1131, 156]>, fillcolor="#e99254"] ;
275 -> 276 ;
277 [label=<addr_state_KY &le; 0.5<br/>gini = 0.212<br/>samples = 1286<br/>value = [1131, 155]>, fillcolor="#e99254"] ;
276 -> 277 ;
278 [label=<addr_state_MN &le; 0.5<br/>gini = 0.209<br/>samples = 1279<br/>value = [1127, 152]>, fillcolor="#e99254"] ;
277 -> 278 ;
279 [label=<gini = 0.205<br/>samples = 1258<br/>value = [1112, 146]>, fillcolor="#e89253"] ;
278 -> 279 ;
280 [label=<gini = 0.408<br/>samples = 21<br/>value = [15, 6]>, fillcolor="#efb388"] ;
278 -> 280 ;
281 [label=<total_acc &le; 20.0<br/>gini = 0.49<br/>samples = 7<br/>value = [4, 3]>, fillcolor="#f8e0ce"] ;
277 -> 281 ;
282 [label=<gini = 0.0<br/>samples = 3<br/>value = [3, 0]>, fillcolor="#e58139"] ;
281 -> 282 ;
283 [label=<gini = 0.375<br/>samples = 4<br/>value = [1, 3]>, fillcolor="#7bbeee"] ;
281 -> 283 ;
284 [label=<gini = 0.0<br/>samples = 1<br/>value = [0, 1]>, fillcolor="#399de5"] ;
276 -> 284 ;
285 [label=<dti &le; 13.675<br/>gini = 0.334<br/>samples = 137<br/>value = [108, 29]>, fillcolor="#eca36e"] ;
275 -> 285 ;
286 [label=<dti &le; 1.505<br/>gini = 0.225<br/>samples = 85<br/>value = [74, 11]>, fillcolor="#e99456"] ;
285 -> 286 ;
287 [label=<dti &le; 0.935<br/>gini = 0.5<br/>samples = 6<br/>value = [3, 3]>, fillcolor="#ffffff"] ;
286 -> 287 ;
288 [label=<gini = 0.0<br/>samples = 3<br/>value = [3, 0]>, fillcolor="#e58139"] ;
287 -> 288 ;
289 [label=<gini = 0.0<br/>samples = 3<br/>value = [0, 3]>, fillcolor="#399de5"] ;
287 -> 289 ;
290 [label=<purpose_medical &le; 0.5<br/>gini = 0.182<br/>samples = 79<br/>value = [71, 8]>, fillcolor="#e88f4f"] ;
286 -> 290 ;
291 [label=<gini = 0.163<br/>samples = 78<br/>value = [71, 7]>, fillcolor="#e88d4d"] ;
290 -> 291 ;
292 [label=<gini = 0.0<br/>samples = 1<br/>value = [0, 1]>, fillcolor="#399de5"] ;
290 -> 292 ;
293 [label=<annual_inc &le; 108796.0<br/>gini = 0.453<br/>samples = 52<br/>value = [34, 18]>, fillcolor="#f3c4a2"] ;
285 -> 293 ;
294 [label=<sub_grade_B5 &le; 0.5<br/>gini = 0.375<br/>samples = 44<br/>value = [33, 11]>, fillcolor="#eeab7b"] ;
293 -> 294 ;
295 [label=<gini = 0.278<br/>samples = 36<br/>value = [30, 6]>, fillcolor="#ea9a61"] ;
294 -> 295 ;
296 [label=<gini = 0.469<br/>samples = 8<br/>value = [3, 5]>, fillcolor="#b0d8f5"] ;
294 -> 296 ;
297 [label=<sub_grade_B5 &le; 0.5<br/>gini = 0.219<br/>samples = 8<br/>value = [1, 7]>, fillcolor="#55abe9"] ;
293 -> 297 ;
298 [label=<gini = 0.0<br/>samples = 7<br/>value = [0, 7]>, fillcolor="#399de5"] ;
297 -> 298 ;
299 [label=<gini = 0.0<br/>samples = 1<br/>value = [1, 0]>, fillcolor="#e58139"] ;
297 -> 299 ;
300 [label=<inq_last_6mths &le; 2.5<br/>gini = 0.213<br/>samples = 14192<br/>value = [12471, 1721]>, fillcolor="#e99254"] ;
212 -> 300 ;
301 [label=<annual_inc &le; 45898.0<br/>gini = 0.195<br/>samples = 12297<br/>value = [10950, 1347]>, fillcolor="#e89051"] ;
300 -> 301 ;
302 [label=<int_rate &le; 0.112<br/>gini = 0.245<br/>samples = 4531<br/>value = [3884, 647]>, fillcolor="#e9965a"] ;
301 -> 302 ;
303 [label=<purpose_medical &le; 0.5<br/>gini = 0.209<br/>samples = 1870<br/>value = [1648, 222]>, fillcolor="#e99254"] ;
302 -> 303 ;
304 [label=<annual_inc &le; 4300.0<br/>gini = 0.204<br/>samples = 1835<br/>value = [1623, 212]>, fillcolor="#e89153"] ;
303 -> 304 ;
305 [label=<gini = 0.0<br/>samples = 1<br/>value = [0, 1]>, fillcolor="#399de5"] ;
304 -> 305 ;
306 [label=<annual_inc &le; 45868.0<br/>gini = 0.204<br/>samples = 1834<br/>value = [1623, 211]>, fillcolor="#e89153"] ;
304 -> 306 ;
307 [label=<gini = 0.203<br/>samples = 1833<br/>value = [1623, 210]>, fillcolor="#e89153"] ;
306 -> 307 ;
308 [label=<gini = 0.0<br/>samples = 1<br/>value = [0, 1]>, fillcolor="#399de5"] ;
306 -> 308 ;
309 [label=<dti &le; 10.58<br/>gini = 0.408<br/>samples = 35<br/>value = [25, 10]>, fillcolor="#efb388"] ;
303 -> 309 ;
310 [label=<emp_length &le; 9.0<br/>gini = 0.498<br/>samples = 17<br/>value = [9, 8]>, fillcolor="#fcf1e9"] ;
309 -> 310 ;
311 [label=<gini = 0.459<br/>samples = 14<br/>value = [9, 5]>, fillcolor="#f3c7a7"] ;
310 -> 311 ;
312 [label=<gini = 0.0<br/>samples = 3<br/>value = [0, 3]>, fillcolor="#399de5"] ;
310 -> 312 ;
313 [label=<dti &le; 23.355<br/>gini = 0.198<br/>samples = 18<br/>value = [16, 2]>, fillcolor="#e89152"] ;
309 -> 313 ;
314 [label=<gini = 0.0<br/>samples = 16<br/>value = [16, 0]>, fillcolor="#e58139"] ;
313 -> 314 ;
315 [label=<gini = 0.0<br/>samples = 2<br/>value = [0, 2]>, fillcolor="#399de5"] ;
313 -> 315 ;
316 [label=<annual_inc &le; 18998.0<br/>gini = 0.268<br/>samples = 2661<br/>value = [2236, 425]>, fillcolor="#ea995f"] ;
302 -> 316 ;
317 [label=<sub_grade_D5 &le; 0.5<br/>gini = 0.365<br/>samples = 200<br/>value = [152, 48]>, fillcolor="#eda978"] ;
316 -> 317 ;
318 [label=<purpose_home_improvement &le; 0.5<br/>gini = 0.357<br/>samples = 198<br/>value = [152, 46]>, fillcolor="#eda775"] ;
317 -> 318 ;
319 [label=<gini = 0.345<br/>samples = 194<br/>value = [151, 43]>, fillcolor="#eca571"] ;
318 -> 319 ;
320 [label=<gini = 0.375<br/>samples = 4<br/>value = [1, 3]>, fillcolor="#7bbeee"] ;
318 -> 320 ;
321 [label=<gini = 0.0<br/>samples = 2<br/>value = [0, 2]>, fillcolor="#399de5"] ;
317 -> 321 ;
322 [label=<total_acc &le; 23.5<br/>gini = 0.259<br/>samples = 2461<br/>value = [2084, 377]>, fillcolor="#ea985d"] ;
316 -> 322 ;
323 [label=<addr_state_FL &le; 0.5<br/>gini = 0.245<br/>samples = 2061<br/>value = [1767, 294]>, fillcolor="#e9965a"] ;
322 -> 323 ;
324 [label=<gini = 0.235<br/>samples = 1907<br/>value = [1648, 259]>, fillcolor="#e99558"] ;
323 -> 324 ;
325 [label=<gini = 0.351<br/>samples = 154<br/>value = [119, 35]>, fillcolor="#eda673"] ;
323 -> 325 ;
326 [label=<annual_inc &le; 45494.5<br/>gini = 0.329<br/>samples = 400<br/>value = [317, 83]>, fillcolor="#eca26d"] ;
322 -> 326 ;
327 [label=<gini = 0.322<br/>samples = 397<br/>value = [317, 80]>, fillcolor="#eca16b"] ;
326 -> 327 ;
328 [label=<gini = 0.0<br/>samples = 3<br/>value = [0, 3]>, fillcolor="#399de5"] ;
326 -> 328 ;
329 [label=<grade_D &le; 0.5<br/>gini = 0.164<br/>samples = 7766<br/>value = [7066, 700]>, fillcolor="#e88d4d"] ;
301 -> 329 ;
330 [label=<addr_state_NV &le; 0.5<br/>gini = 0.16<br/>samples = 7624<br/>value = [6954, 670]>, fillcolor="#e88d4c"] ;
329 -> 330 ;
331 [label=<grade_C &le; 0.5<br/>gini = 0.157<br/>samples = 7515<br/>value = [6868, 647]>, fillcolor="#e78d4c"] ;
330 -> 331 ;
332 [label=<inq_last_6mths &le; 0.5<br/>gini = 0.14<br/>samples = 5218<br/>value = [4822, 396]>, fillcolor="#e78b49"] ;
331 -> 332 ;
333 [label=<gini = 0.117<br/>samples = 2896<br/>value = [2715, 181]>, fillcolor="#e78946"] ;
332 -> 333 ;
334 [label=<gini = 0.168<br/>samples = 2322<br/>value = [2107, 215]>, fillcolor="#e88e4d"] ;
332 -> 334 ;
335 [label=<int_rate &le; 0.113<br/>gini = 0.195<br/>samples = 2297<br/>value = [2046, 251]>, fillcolor="#e89051"] ;
331 -> 335 ;
336 [label=<gini = 0.348<br/>samples = 89<br/>value = [69, 20]>, fillcolor="#eda672"] ;
335 -> 336 ;
337 [label=<gini = 0.187<br/>samples = 2208<br/>value = [1977, 231]>, fillcolor="#e89050"] ;
335 -> 337 ;
338 [label=<int_rate &le; 0.129<br/>gini = 0.333<br/>samples = 109<br/>value = [86, 23]>, fillcolor="#eca36e"] ;
330 -> 338 ;
339 [label=<dti &le; 11.045<br/>gini = 0.383<br/>samples = 89<br/>value = [66, 23]>, fillcolor="#eead7e"] ;
338 -> 339 ;
340 [label=<gini = 0.219<br/>samples = 32<br/>value = [28, 4]>, fillcolor="#e99355"] ;
339 -> 340 ;
341 [label=<gini = 0.444<br/>samples = 57<br/>value = [38, 19]>, fillcolor="#f2c09c"] ;
339 -> 341 ;
342 [label=<gini = 0.0<br/>samples = 20<br/>value = [20, 0]>, fillcolor="#e58139"] ;
338 -> 342 ;
343 [label=<loan_amnt &le; 22500.0<br/>gini = 0.333<br/>samples = 142<br/>value = [112, 30]>, fillcolor="#eca36e"] ;
329 -> 343 ;
344 [label=<pub_rec &le; 0.5<br/>gini = 0.299<br/>samples = 131<br/>value = [107, 24]>, fillcolor="#eb9d65"] ;
343 -> 344 ;
345 [label=<addr_state_DC &le; 0.5<br/>gini = 0.267<br/>samples = 120<br/>value = [101, 19]>, fillcolor="#ea995e"] ;
344 -> 345 ;
346 [label=<gini = 0.248<br/>samples = 117<br/>value = [100, 17]>, fillcolor="#e9965b"] ;
345 -> 346 ;
347 [label=<gini = 0.444<br/>samples = 3<br/>value = [1, 2]>, fillcolor="#9ccef2"] ;
345 -> 347 ;
348 [label=<dti &le; 18.55<br/>gini = 0.496<br/>samples = 11<br/>value = [6, 5]>, fillcolor="#fbeade"] ;
344 -> 348 ;
349 [label=<gini = 0.375<br/>samples = 8<br/>value = [6, 2]>, fillcolor="#eeab7b"] ;
348 -> 349 ;
350 [label=<gini = 0.0<br/>samples = 3<br/>value = [0, 3]>, fillcolor="#399de5"] ;
348 -> 350 ;
351 [label=<emp_length &le; 5.5<br/>gini = 0.496<br/>samples = 11<br/>value = [5, 6]>, fillcolor="#deeffb"] ;
343 -> 351 ;
352 [label=<inq_last_6mths &le; 1.5<br/>gini = 0.469<br/>samples = 8<br/>value = [5, 3]>, fillcolor="#f5cdb0"] ;
351 -> 352 ;
353 [label=<gini = 0.0<br/>samples = 4<br/>value = [4, 0]>, fillcolor="#e58139"] ;
352 -> 353 ;
354 [label=<gini = 0.375<br/>samples = 4<br/>value = [1, 3]>, fillcolor="#7bbeee"] ;
352 -> 354 ;
355 [label=<gini = 0.0<br/>samples = 3<br/>value = [0, 3]>, fillcolor="#399de5"] ;
351 -> 355 ;
356 [label=<inq_last_6mths &le; 7.5<br/>gini = 0.317<br/>samples = 1895<br/>value = [1521, 374]>, fillcolor="#eba06a"] ;
300 -> 356 ;
357 [label=<purpose_educational &le; 0.5<br/>gini = 0.305<br/>samples = 1827<br/>value = [1484, 343]>, fillcolor="#eb9e67"] ;
356 -> 357 ;
358 [label=<dti &le; 27.12<br/>gini = 0.297<br/>samples = 1775<br/>value = [1453, 322]>, fillcolor="#eb9d65"] ;
357 -> 358 ;
359 [label=<sub_grade_D3 &le; 0.5<br/>gini = 0.295<br/>samples = 1772<br/>value = [1453, 319]>, fillcolor="#eb9d64"] ;
358 -> 359 ;
360 [label=<total_acc &le; 10.5<br/>gini = 0.29<br/>samples = 1747<br/>value = [1439, 308]>, fillcolor="#eb9c63"] ;
359 -> 360 ;
361 [label=<gini = 0.364<br/>samples = 267<br/>value = [203, 64]>, fillcolor="#eda977"] ;
360 -> 361 ;
362 [label=<gini = 0.275<br/>samples = 1480<br/>value = [1236, 244]>, fillcolor="#ea9a60"] ;
360 -> 362 ;
363 [label=<emp_length &le; 2.5<br/>gini = 0.493<br/>samples = 25<br/>value = [14, 11]>, fillcolor="#f9e4d5"] ;
359 -> 363 ;
364 [label=<gini = 0.278<br/>samples = 12<br/>value = [10, 2]>, fillcolor="#ea9a61"] ;
363 -> 364 ;
365 [label=<gini = 0.426<br/>samples = 13<br/>value = [4, 9]>, fillcolor="#91c9f1"] ;
363 -> 365 ;
366 [label=<gini = 0.0<br/>samples = 3<br/>value = [0, 3]>, fillcolor="#399de5"] ;
358 -> 366 ;
367 [label=<total_acc &le; 5.5<br/>gini = 0.482<br/>samples = 52<br/>value = [31, 21]>, fillcolor="#f7d6bf"] ;
357 -> 367 ;
368 [label=<addr_state_NY &le; 0.5<br/>gini = 0.375<br/>samples = 12<br/>value = [3, 9]>, fillcolor="#7bbeee"] ;
367 -> 368 ;
369 [label=<int_rate &le; 0.137<br/>gini = 0.298<br/>samples = 11<br/>value = [2, 9]>, fillcolor="#65b3eb"] ;
368 -> 369 ;
370 [label=<gini = 0.18<br/>samples = 10<br/>value = [1, 9]>, fillcolor="#4fa8e8"] ;
369 -> 370 ;
371 [label=<gini = 0.0<br/>samples = 1<br/>value = [1, 0]>, fillcolor="#e58139"] ;
369 -> 371 ;
372 [label=<gini = 0.0<br/>samples = 1<br/>value = [1, 0]>, fillcolor="#e58139"] ;
368 -> 372 ;
373 [label=<dti &le; 19.435<br/>gini = 0.42<br/>samples = 40<br/>value = [28, 12]>, fillcolor="#f0b78e"] ;
367 -> 373 ;
374 [label=<addr_state_FL &le; 0.5<br/>gini = 0.353<br/>samples = 35<br/>value = [27, 8]>, fillcolor="#eda674"] ;
373 -> 374 ;
375 [label=<gini = 0.278<br/>samples = 30<br/>value = [25, 5]>, fillcolor="#ea9a61"] ;
374 -> 375 ;
376 [label=<gini = 0.48<br/>samples = 5<br/>value = [2, 3]>, fillcolor="#bddef6"] ;
374 -> 376 ;
377 [label=<int_rate &le; 0.108<br/>gini = 0.32<br/>samples = 5<br/>value = [1, 4]>, fillcolor="#6ab6ec"] ;
373 -> 377 ;
378 [label=<gini = 0.0<br/>samples = 1<br/>value = [1, 0]>, fillcolor="#e58139"] ;
377 -> 378 ;
379 [label=<gini = 0.0<br/>samples = 4<br/>value = [0, 4]>, fillcolor="#399de5"] ;
377 -> 379 ;
380 [label=<sub_grade_C4 &le; 0.5<br/>gini = 0.496<br/>samples = 68<br/>value = [37, 31]>, fillcolor="#fbebdf"] ;
356 -> 380 ;
381 [label=<dti &le; 13.395<br/>gini = 0.488<br/>samples = 64<br/>value = [37, 27]>, fillcolor="#f8ddc9"] ;
380 -> 381 ;
382 [label=<emp_length &le; 1.5<br/>gini = 0.497<br/>samples = 39<br/>value = [18, 21]>, fillcolor="#e3f1fb"] ;
381 -> 382 ;
383 [label=<addr_state_CT &le; 0.5<br/>gini = 0.32<br/>samples = 10<br/>value = [8, 2]>, fillcolor="#eca06a"] ;
382 -> 383 ;
384 [label=<gini = 0.198<br/>samples = 9<br/>value = [8, 1]>, fillcolor="#e89152"] ;
383 -> 384 ;
385 [label=<gini = 0.0<br/>samples = 1<br/>value = [0, 1]>, fillcolor="#399de5"] ;
383 -> 385 ;
386 [label=<open_acc &le; 5.5<br/>gini = 0.452<br/>samples = 29<br/>value = [10, 19]>, fillcolor="#a1d1f3"] ;
382 -> 386 ;
387 [label=<gini = 0.408<br/>samples = 7<br/>value = [5, 2]>, fillcolor="#efb388"] ;
386 -> 387 ;
388 [label=<gini = 0.351<br/>samples = 22<br/>value = [5, 17]>, fillcolor="#73baed"] ;
386 -> 388 ;
389 [label=<dti &le; 21.175<br/>gini = 0.365<br/>samples = 25<br/>value = [19, 6]>, fillcolor="#eda978"] ;
381 -> 389 ;
390 [label=<loan_amnt &le; 16550.0<br/>gini = 0.188<br/>samples = 19<br/>value = [17, 2]>, fillcolor="#e89050"] ;
389 -> 390 ;
391 [label=<gini = 0.0<br/>samples = 16<br/>value = [16, 0]>, fillcolor="#e58139"] ;
390 -> 391 ;
392 [label=<gini = 0.444<br/>samples = 3<br/>value = [1, 2]>, fillcolor="#9ccef2"] ;
390 -> 392 ;
393 [label=<inq_last_6mths &le; 8.5<br/>gini = 0.444<br/>samples = 6<br/>value = [2, 4]>, fillcolor="#9ccef2"] ;
389 -> 393 ;
394 [label=<gini = 0.444<br/>samples = 3<br/>value = [2, 1]>, fillcolor="#f2c09c"] ;
393 -> 394 ;
395 [label=<gini = 0.0<br/>samples = 3<br/>value = [0, 3]>, fillcolor="#399de5"] ;
393 -> 395 ;
396 [label=<gini = 0.0<br/>samples = 4<br/>value = [0, 4]>, fillcolor="#399de5"] ;
380 -> 396 ;
397 [label=<annual_inc &le; 45974.0<br/>gini = 0.407<br/>samples = 792<br/>value = [567, 225]>, fillcolor="#efb388"] ;
211 -> 397 ;
398 [label=<int_rate &le; 0.103<br/>gini = 0.481<br/>samples = 206<br/>value = [123, 83]>, fillcolor="#f7d6bf"] ;
397 -> 398 ;
399 [label=<addr_state_WA &le; 0.5<br/>gini = 0.301<br/>samples = 38<br/>value = [31, 7]>, fillcolor="#eb9d66"] ;
398 -> 399 ;
400 [label=<loan_amnt &le; 1800.0<br/>gini = 0.239<br/>samples = 36<br/>value = [31, 5]>, fillcolor="#e99559"] ;
399 -> 400 ;
401 [label=<dti &le; 5.09<br/>gini = 0.444<br/>samples = 3<br/>value = [1, 2]>, fillcolor="#9ccef2"] ;
400 -> 401 ;
402 [label=<gini = 0.0<br/>samples = 1<br/>value = [1, 0]>, fillcolor="#e58139"] ;
401 -> 402 ;
403 [label=<gini = 0.0<br/>samples = 2<br/>value = [0, 2]>, fillcolor="#399de5"] ;
401 -> 403 ;
404 [label=<annual_inc &le; 44000.0<br/>gini = 0.165<br/>samples = 33<br/>value = [30, 3]>, fillcolor="#e88e4d"] ;
400 -> 404 ;
405 [label=<addr_state_FL &le; 0.5<br/>gini = 0.117<br/>samples = 32<br/>value = [30, 2]>, fillcolor="#e78946"] ;
404 -> 405 ;
406 [label=<addr_state_TX &le; 0.5<br/>gini = 0.064<br/>samples = 30<br/>value = [29, 1]>, fillcolor="#e68540"] ;
405 -> 406 ;
407 [label=<gini = 0.0<br/>samples = 27<br/>value = [27, 0]>, fillcolor="#e58139"] ;
406 -> 407 ;
408 [label=<gini = 0.444<br/>samples = 3<br/>value = [2, 1]>, fillcolor="#f2c09c"] ;
406 -> 408 ;
409 [label=<sub_grade_B2 &le; 0.5<br/>gini = 0.5<br/>samples = 2<br/>value = [1, 1]>, fillcolor="#ffffff"] ;
405 -> 409 ;
410 [label=<gini = 0.0<br/>samples = 1<br/>value = [1, 0]>, fillcolor="#e58139"] ;
409 -> 410 ;
411 [label=<gini = 0.0<br/>samples = 1<br/>value = [0, 1]>, fillcolor="#399de5"] ;
409 -> 411 ;
412 [label=<gini = 0.0<br/>samples = 1<br/>value = [0, 1]>, fillcolor="#399de5"] ;
404 -> 412 ;
413 [label=<gini = 0.0<br/>samples = 2<br/>value = [0, 2]>, fillcolor="#399de5"] ;
399 -> 413 ;
414 [label=<term_is_36 &le; 0.5<br/>gini = 0.495<br/>samples = 168<br/>value = [92, 76]>, fillcolor="#fae9dd"] ;
398 -> 414 ;
415 [label=<loan_amnt &le; 9850.0<br/>gini = 0.474<br/>samples = 44<br/>value = [17, 27]>, fillcolor="#b6dbf5"] ;
414 -> 415 ;
416 [label=<addr_state_FL &le; 0.5<br/>gini = 0.278<br/>samples = 18<br/>value = [3, 15]>, fillcolor="#61b1ea"] ;
415 -> 416 ;
417 [label=<open_acc &le; 15.5<br/>gini = 0.208<br/>samples = 17<br/>value = [2, 15]>, fillcolor="#53aae8"] ;
416 -> 417 ;
418 [label=<sub_grade_B3 &le; 0.5<br/>gini = 0.117<br/>samples = 16<br/>value = [1, 15]>, fillcolor="#46a4e7"] ;
417 -> 418 ;
419 [label=<gini = 0.0<br/>samples = 15<br/>value = [0, 15]>, fillcolor="#399de5"] ;
418 -> 419 ;
420 [label=<gini = 0.0<br/>samples = 1<br/>value = [1, 0]>, fillcolor="#e58139"] ;
418 -> 420 ;
421 [label=<gini = 0.0<br/>samples = 1<br/>value = [1, 0]>, fillcolor="#e58139"] ;
417 -> 421 ;
422 [label=<gini = 0.0<br/>samples = 1<br/>value = [1, 0]>, fillcolor="#e58139"] ;
416 -> 422 ;
423 [label=<emp_length &le; 4.5<br/>gini = 0.497<br/>samples = 26<br/>value = [14, 12]>, fillcolor="#fbede3"] ;
415 -> 423 ;
424 [label=<sub_grade_C1 &le; 0.5<br/>gini = 0.337<br/>samples = 14<br/>value = [11, 3]>, fillcolor="#eca36f"] ;
423 -> 424 ;
425 [label=<addr_state_OH &le; 0.5<br/>gini = 0.165<br/>samples = 11<br/>value = [10, 1]>, fillcolor="#e88e4d"] ;
424 -> 425 ;
426 [label=<gini = 0.0<br/>samples = 10<br/>value = [10, 0]>, fillcolor="#e58139"] ;
425 -> 426 ;
427 [label=<gini = 0.0<br/>samples = 1<br/>value = [0, 1]>, fillcolor="#399de5"] ;
425 -> 427 ;
428 [label=<int_rate &le; 0.131<br/>gini = 0.444<br/>samples = 3<br/>value = [1, 2]>, fillcolor="#9ccef2"] ;
424 -> 428 ;
429 [label=<gini = 0.0<br/>samples = 2<br/>value = [0, 2]>, fillcolor="#399de5"] ;
428 -> 429 ;
430 [label=<gini = 0.0<br/>samples = 1<br/>value = [1, 0]>, fillcolor="#e58139"] ;
428 -> 430 ;
431 [label=<dti &le; 11.31<br/>gini = 0.375<br/>samples = 12<br/>value = [3, 9]>, fillcolor="#7bbeee"] ;
423 -> 431 ;
432 [label=<gini = 0.0<br/>samples = 6<br/>value = [0, 6]>, fillcolor="#399de5"] ;
431 -> 432 ;
433 [label=<inq_last_6mths &le; 0.5<br/>gini = 0.5<br/>samples = 6<br/>value = [3, 3]>, fillcolor="#ffffff"] ;
431 -> 433 ;
434 [label=<gini = 0.0<br/>samples = 3<br/>value = [3, 0]>, fillcolor="#e58139"] ;
433 -> 434 ;
435 [label=<gini = 0.0<br/>samples = 3<br/>value = [0, 3]>, fillcolor="#399de5"] ;
433 -> 435 ;
436 [label=<open_acc &le; 9.5<br/>gini = 0.478<br/>samples = 124<br/>value = [75, 49]>, fillcolor="#f6d3ba"] ;
414 -> 436 ;
437 [label=<loan_amnt &le; 7350.0<br/>gini = 0.449<br/>samples = 103<br/>value = [68, 35]>, fillcolor="#f2c29f"] ;
436 -> 437 ;
438 [label=<loan_amnt &le; 3100.0<br/>gini = 0.348<br/>samples = 58<br/>value = [45, 13]>, fillcolor="#eda572"] ;
437 -> 438 ;
439 [label=<open_acc &le; 7.0<br/>gini = 0.488<br/>samples = 19<br/>value = [11, 8]>, fillcolor="#f8ddc9"] ;
438 -> 439 ;
440 [label=<gini = 0.473<br/>samples = 13<br/>value = [5, 8]>, fillcolor="#b5daf5"] ;
439 -> 440 ;
441 [label=<gini = 0.0<br/>samples = 6<br/>value = [6, 0]>, fillcolor="#e58139"] ;
439 -> 441 ;
442 [label=<sub_grade_D2 &le; 0.5<br/>gini = 0.224<br/>samples = 39<br/>value = [34, 5]>, fillcolor="#e99456"] ;
438 -> 442 ;
443 [label=<gini = 0.188<br/>samples = 38<br/>value = [34, 4]>, fillcolor="#e89050"] ;
442 -> 443 ;
444 [label=<gini = 0.0<br/>samples = 1<br/>value = [0, 1]>, fillcolor="#399de5"] ;
442 -> 444 ;
445 [label=<pub_rec_bankruptcies &le; 0.5<br/>gini = 0.5<br/>samples = 45<br/>value = [23, 22]>, fillcolor="#fefaf6"] ;
437 -> 445 ;
446 [label=<sub_grade_C4 &le; 0.5<br/>gini = 0.497<br/>samples = 41<br/>value = [19, 22]>, fillcolor="#e4f2fb"] ;
445 -> 446 ;
447 [label=<gini = 0.498<br/>samples = 36<br/>value = [19, 17]>, fillcolor="#fcf2ea"] ;
446 -> 447 ;
448 [label=<gini = 0.0<br/>samples = 5<br/>value = [0, 5]>, fillcolor="#399de5"] ;
446 -> 448 ;
449 [label=<gini = 0.0<br/>samples = 4<br/>value = [4, 0]>, fillcolor="#e58139"] ;
445 -> 449 ;
450 [label=<int_rate &le; 0.132<br/>gini = 0.444<br/>samples = 21<br/>value = [7, 14]>, fillcolor="#9ccef2"] ;
436 -> 450 ;
451 [label=<dti &le; 6.715<br/>gini = 0.245<br/>samples = 14<br/>value = [2, 12]>, fillcolor="#5aade9"] ;
450 -> 451 ;
452 [label=<gini = 0.0<br/>samples = 2<br/>value = [2, 0]>, fillcolor="#e58139"] ;
451 -> 452 ;
453 [label=<gini = 0.0<br/>samples = 12<br/>value = [0, 12]>, fillcolor="#399de5"] ;
451 -> 453 ;
454 [label=<inq_last_6mths &le; 1.5<br/>gini = 0.408<br/>samples = 7<br/>value = [5, 2]>, fillcolor="#efb388"] ;
450 -> 454 ;
455 [label=<gini = 0.0<br/>samples = 2<br/>value = [0, 2]>, fillcolor="#399de5"] ;
454 -> 455 ;
456 [label=<gini = 0.0<br/>samples = 5<br/>value = [5, 0]>, fillcolor="#e58139"] ;
454 -> 456 ;
457 [label=<inq_last_6mths &le; 4.5<br/>gini = 0.367<br/>samples = 586<br/>value = [444, 142]>, fillcolor="#eda978"] ;
397 -> 457 ;
458 [label=<term_is_36 &le; 0.5<br/>gini = 0.349<br/>samples = 546<br/>value = [423, 123]>, fillcolor="#eda673"] ;
457 -> 458 ;
459 [label=<loan_amnt &le; 29800.0<br/>gini = 0.43<br/>samples = 134<br/>value = [92, 42]>, fillcolor="#f1bb93"] ;
458 -> 459 ;
460 [label=<loan_amnt &le; 13762.5<br/>gini = 0.394<br/>samples = 115<br/>value = [84, 31]>, fillcolor="#efb082"] ;
459 -> 460 ;
461 [label=<loan_amnt &le; 4900.0<br/>gini = 0.48<br/>samples = 50<br/>value = [30, 20]>, fillcolor="#f6d5bd"] ;
460 -> 461 ;
462 [label=<sub_grade_C1 &le; 0.5<br/>gini = 0.32<br/>samples = 5<br/>value = [1, 4]>, fillcolor="#6ab6ec"] ;
461 -> 462 ;
463 [label=<gini = 0.0<br/>samples = 4<br/>value = [0, 4]>, fillcolor="#399de5"] ;
462 -> 463 ;
464 [label=<gini = 0.0<br/>samples = 1<br/>value = [1, 0]>, fillcolor="#e58139"] ;
462 -> 464 ;
465 [label=<loan_amnt &le; 8900.0<br/>gini = 0.458<br/>samples = 45<br/>value = [29, 16]>, fillcolor="#f3c7a6"] ;
461 -> 465 ;
466 [label=<gini = 0.133<br/>samples = 14<br/>value = [13, 1]>, fillcolor="#e78b48"] ;
465 -> 466 ;
467 [label=<gini = 0.499<br/>samples = 31<br/>value = [16, 15]>, fillcolor="#fdf7f3"] ;
465 -> 467 ;
468 [label=<annual_inc &le; 48500.0<br/>gini = 0.281<br/>samples = 65<br/>value = [54, 11]>, fillcolor="#ea9b61"] ;
460 -> 468 ;
469 [label=<gini = 0.0<br/>samples = 2<br/>value = [0, 2]>, fillcolor="#399de5"] ;
468 -> 469 ;
470 [label=<addr_state_KS &le; 0.5<br/>gini = 0.245<br/>samples = 63<br/>value = [54, 9]>, fillcolor="#e9965a"] ;
468 -> 470 ;
471 [label=<gini = 0.225<br/>samples = 62<br/>value = [54, 8]>, fillcolor="#e99456"] ;
470 -> 471 ;
472 [label=<gini = 0.0<br/>samples = 1<br/>value = [0, 1]>, fillcolor="#399de5"] ;
470 -> 472 ;
473 [label=<annual_inc &le; 83500.0<br/>gini = 0.488<br/>samples = 19<br/>value = [8, 11]>, fillcolor="#c9e4f8"] ;
459 -> 473 ;
474 [label=<int_rate &le; 0.112<br/>gini = 0.219<br/>samples = 8<br/>value = [1, 7]>, fillcolor="#55abe9"] ;
473 -> 474 ;
475 [label=<gini = 0.0<br/>samples = 1<br/>value = [1, 0]>, fillcolor="#e58139"] ;
474 -> 475 ;
476 [label=<gini = 0.0<br/>samples = 7<br/>value = [0, 7]>, fillcolor="#399de5"] ;
474 -> 476 ;
477 [label=<addr_state_CA &le; 0.5<br/>gini = 0.463<br/>samples = 11<br/>value = [7, 4]>, fillcolor="#f4c9aa"] ;
473 -> 477 ;
478 [label=<addr_state_VA &le; 0.5<br/>gini = 0.346<br/>samples = 9<br/>value = [7, 2]>, fillcolor="#eca572"] ;
477 -> 478 ;
479 [label=<gini = 0.219<br/>samples = 8<br/>value = [7, 1]>, fillcolor="#e99355"] ;
478 -> 479 ;
480 [label=<gini = 0.0<br/>samples = 1<br/>value = [0, 1]>, fillcolor="#399de5"] ;
478 -> 480 ;
481 [label=<gini = 0.0<br/>samples = 2<br/>value = [0, 2]>, fillcolor="#399de5"] ;
477 -> 481 ;
482 [label=<grade_D &le; 0.5<br/>gini = 0.316<br/>samples = 412<br/>value = [331, 81]>, fillcolor="#eba069"] ;
458 -> 482 ;
483 [label=<open_acc &le; 21.5<br/>gini = 0.299<br/>samples = 393<br/>value = [321, 72]>, fillcolor="#eb9d65"] ;
482 -> 483 ;
484 [label=<open_acc &le; 9.5<br/>gini = 0.292<br/>samples = 388<br/>value = [319, 69]>, fillcolor="#eb9c64"] ;
483 -> 484 ;
485 [label=<dti &le; 0.975<br/>gini = 0.343<br/>samples = 223<br/>value = [174, 49]>, fillcolor="#eca471"] ;
484 -> 485 ;
486 [label=<gini = 0.0<br/>samples = 18<br/>value = [18, 0]>, fillcolor="#e58139"] ;
485 -> 486 ;
487 [label=<gini = 0.364<br/>samples = 205<br/>value = [156, 49]>, fillcolor="#eda977"] ;
485 -> 487 ;
488 [label=<addr_state_MT &le; 0.5<br/>gini = 0.213<br/>samples = 165<br/>value = [145, 20]>, fillcolor="#e99254"] ;
484 -> 488 ;
489 [label=<gini = 0.205<br/>samples = 164<br/>value = [145, 19]>, fillcolor="#e89253"] ;
488 -> 489 ;
490 [label=<gini = 0.0<br/>samples = 1<br/>value = [0, 1]>, fillcolor="#399de5"] ;
488 -> 490 ;
491 [label=<dti &le; 16.74<br/>gini = 0.48<br/>samples = 5<br/>value = [2, 3]>, fillcolor="#bddef6"] ;
483 -> 491 ;
492 [label=<gini = 0.0<br/>samples = 3<br/>value = [0, 3]>, fillcolor="#399de5"] ;
491 -> 492 ;
493 [label=<gini = 0.0<br/>samples = 2<br/>value = [2, 0]>, fillcolor="#e58139"] ;
491 -> 493 ;
494 [label=<total_acc &le; 28.0<br/>gini = 0.499<br/>samples = 19<br/>value = [10, 9]>, fillcolor="#fcf2eb"] ;
482 -> 494 ;
495 [label=<dti &le; 6.345<br/>gini = 0.408<br/>samples = 14<br/>value = [10, 4]>, fillcolor="#efb388"] ;
494 -> 495 ;
496 [label=<addr_state_CA &le; 0.5<br/>gini = 0.375<br/>samples = 4<br/>value = [1, 3]>, fillcolor="#7bbeee"] ;
495 -> 496 ;
497 [label=<gini = 0.0<br/>samples = 3<br/>value = [0, 3]>, fillcolor="#399de5"] ;
496 -> 497 ;
498 [label=<gini = 0.0<br/>samples = 1<br/>value = [1, 0]>, fillcolor="#e58139"] ;
496 -> 498 ;
499 [label=<inq_last_6mths &le; 3.5<br/>gini = 0.18<br/>samples = 10<br/>value = [9, 1]>, fillcolor="#e88f4f"] ;
495 -> 499 ;
500 [label=<gini = 0.0<br/>samples = 9<br/>value = [9, 0]>, fillcolor="#e58139"] ;
499 -> 500 ;
501 [label=<gini = 0.0<br/>samples = 1<br/>value = [0, 1]>, fillcolor="#399de5"] ;
499 -> 501 ;
502 [label=<gini = 0.0<br/>samples = 5<br/>value = [0, 5]>, fillcolor="#399de5"] ;
494 -> 502 ;
503 [label=<int_rate &le; 0.114<br/>gini = 0.499<br/>samples = 40<br/>value = [21, 19]>, fillcolor="#fdf3ec"] ;
457 -> 503 ;
504 [label=<emp_length &le; 1.5<br/>gini = 0.375<br/>samples = 16<br/>value = [12, 4]>, fillcolor="#eeab7b"] ;
503 -> 504 ;
505 [label=<gini = 0.0<br/>samples = 2<br/>value = [0, 2]>, fillcolor="#399de5"] ;
504 -> 505 ;
506 [label=<addr_state_NV &le; 0.5<br/>gini = 0.245<br/>samples = 14<br/>value = [12, 2]>, fillcolor="#e9965a"] ;
504 -> 506 ;
507 [label=<total_acc &le; 55.5<br/>gini = 0.142<br/>samples = 13<br/>value = [12, 1]>, fillcolor="#e78c49"] ;
506 -> 507 ;
508 [label=<gini = 0.0<br/>samples = 12<br/>value = [12, 0]>, fillcolor="#e58139"] ;
507 -> 508 ;
509 [label=<gini = 0.0<br/>samples = 1<br/>value = [0, 1]>, fillcolor="#399de5"] ;
507 -> 509 ;
510 [label=<gini = 0.0<br/>samples = 1<br/>value = [0, 1]>, fillcolor="#399de5"] ;
506 -> 510 ;
511 [label=<int_rate &le; 0.124<br/>gini = 0.469<br/>samples = 24<br/>value = [9, 15]>, fillcolor="#b0d8f5"] ;
503 -> 511 ;
512 [label=<gini = 0.0<br/>samples = 7<br/>value = [0, 7]>, fillcolor="#399de5"] ;
511 -> 512 ;
513 [label=<total_acc &le; 17.0<br/>gini = 0.498<br/>samples = 17<br/>value = [9, 8]>, fillcolor="#fcf1e9"] ;
511 -> 513 ;
514 [label=<loan_amnt &le; 5300.0<br/>gini = 0.278<br/>samples = 6<br/>value = [1, 5]>, fillcolor="#61b1ea"] ;
513 -> 514 ;
515 [label=<gini = 0.0<br/>samples = 1<br/>value = [1, 0]>, fillcolor="#e58139"] ;
514 -> 515 ;
516 [label=<gini = 0.0<br/>samples = 5<br/>value = [0, 5]>, fillcolor="#399de5"] ;
514 -> 516 ;
517 [label=<inq_last_6mths &le; 6.5<br/>gini = 0.397<br/>samples = 11<br/>value = [8, 3]>, fillcolor="#efb083"] ;
513 -> 517 ;
518 [label=<gini = 0.0<br/>samples = 6<br/>value = [6, 0]>, fillcolor="#e58139"] ;
517 -> 518 ;
519 [label=<annual_inc &le; 66500.0<br/>gini = 0.48<br/>samples = 5<br/>value = [2, 3]>, fillcolor="#bddef6"] ;
517 -> 519 ;
520 [label=<gini = 0.0<br/>samples = 2<br/>value = [0, 2]>, fillcolor="#399de5"] ;
519 -> 520 ;
521 [label=<gini = 0.444<br/>samples = 3<br/>value = [2, 1]>, fillcolor="#f2c09c"] ;
519 -> 521 ;
522 [label=<term_is_36 &le; 0.5<br/>gini = 0.369<br/>samples = 12385<br/>value = [9358, 3027]>, fillcolor="#edaa79"] ;
0 -> 522 [labeldistance=2.5, labelangle=-45, headlabel="False"] ;
523 [label=<annual_inc &le; 81702.0<br/>gini = 0.42<br/>samples = 5628<br/>value = [3940, 1688]>, fillcolor="#f0b78e"] ;
522 -> 523 ;
524 [label=<int_rate &le; 0.19<br/>gini = 0.444<br/>samples = 3846<br/>value = [2569, 1277]>, fillcolor="#f2c09b"] ;
523 -> 524 ;
525 [label=<purpose_small_business &le; 0.5<br/>gini = 0.425<br/>samples = 3097<br/>value = [2147, 950]>, fillcolor="#f1b991"] ;
524 -> 525 ;
526 [label=<int_rate &le; 0.16<br/>gini = 0.42<br/>samples = 2942<br/>value = [2061, 881]>, fillcolor="#f0b78e"] ;
525 -> 526 ;
527 [label=<purpose_other &le; 0.5<br/>gini = 0.39<br/>samples = 1262<br/>value = [927, 335]>, fillcolor="#eeaf81"] ;
526 -> 527 ;
528 [label=<sub_grade_D3 &le; 0.5<br/>gini = 0.375<br/>samples = 1150<br/>value = [863, 287]>, fillcolor="#eeab7b"] ;
527 -> 528 ;
529 [label=<annual_inc &le; 15060.0<br/>gini = 0.391<br/>samples = 950<br/>value = [697, 253]>, fillcolor="#eeaf81"] ;
528 -> 529 ;
530 [label=<gini = 0.0<br/>samples = 3<br/>value = [0, 3]>, fillcolor="#399de5"] ;
529 -> 530 ;
531 [label=<loan_amnt &le; 31912.5<br/>gini = 0.389<br/>samples = 947<br/>value = [697, 250]>, fillcolor="#eeae80"] ;
529 -> 531 ;
532 [label=<gini = 0.384<br/>samples = 933<br/>value = [691, 242]>, fillcolor="#eead7e"] ;
531 -> 532 ;
533 [label=<gini = 0.49<br/>samples = 14<br/>value = [6, 8]>, fillcolor="#cee6f8"] ;
531 -> 533 ;
534 [label=<addr_state_LA &le; 0.5<br/>gini = 0.282<br/>samples = 200<br/>value = [166, 34]>, fillcolor="#ea9b62"] ;
528 -> 534 ;
535 [label=<pub_rec_bankruptcies &le; 0.5<br/>gini = 0.265<br/>samples = 197<br/>value = [166, 31]>, fillcolor="#ea995e"] ;
534 -> 535 ;
536 [label=<gini = 0.227<br/>samples = 176<br/>value = [153, 23]>, fillcolor="#e99457"] ;
535 -> 536 ;
537 [label=<gini = 0.472<br/>samples = 21<br/>value = [13, 8]>, fillcolor="#f5cfb3"] ;
535 -> 537 ;
538 [label=<gini = 0.0<br/>samples = 3<br/>value = [0, 3]>, fillcolor="#399de5"] ;
534 -> 538 ;
539 [label=<dti &le; 3.385<br/>gini = 0.49<br/>samples = 112<br/>value = [64, 48]>, fillcolor="#f8e0ce"] ;
527 -> 539 ;
540 [label=<dti &le; 0.19<br/>gini = 0.153<br/>samples = 12<br/>value = [11, 1]>, fillcolor="#e78c4b"] ;
539 -> 540 ;
541 [label=<gini = 0.0<br/>samples = 1<br/>value = [0, 1]>, fillcolor="#399de5"] ;
540 -> 541 ;
542 [label=<gini = 0.0<br/>samples = 11<br/>value = [11, 0]>, fillcolor="#e58139"] ;
540 -> 542 ;
543 [label=<emp_length &le; 9.5<br/>gini = 0.498<br/>samples = 100<br/>value = [53, 47]>, fillcolor="#fcf1e9"] ;
539 -> 543 ;
544 [label=<addr_state_KY &le; 0.5<br/>gini = 0.481<br/>samples = 77<br/>value = [46, 31]>, fillcolor="#f7d6be"] ;
543 -> 544 ;
545 [label=<gini = 0.466<br/>samples = 73<br/>value = [46, 27]>, fillcolor="#f4cbad"] ;
544 -> 545 ;
546 [label=<gini = 0.0<br/>samples = 4<br/>value = [0, 4]>, fillcolor="#399de5"] ;
544 -> 546 ;
547 [label=<inq_last_6mths &le; 0.5<br/>gini = 0.423<br/>samples = 23<br/>value = [7, 16]>, fillcolor="#90c8f0"] ;
543 -> 547 ;
548 [label=<gini = 0.0<br/>samples = 3<br/>value = [3, 0]>, fillcolor="#e58139"] ;
547 -> 548 ;
549 [label=<gini = 0.32<br/>samples = 20<br/>value = [4, 16]>, fillcolor="#6ab6ec"] ;
547 -> 549 ;
550 [label=<grade_D &le; 0.5<br/>gini = 0.439<br/>samples = 1680<br/>value = [1134, 546]>, fillcolor="#f2be98"] ;
526 -> 550 ;
551 [label=<dti &le; 6.845<br/>gini = 0.42<br/>samples = 1096<br/>value = [767, 329]>, fillcolor="#f0b78e"] ;
550 -> 551 ;
552 [label=<total_acc &le; 4.5<br/>gini = 0.293<br/>samples = 140<br/>value = [115, 25]>, fillcolor="#eb9c64"] ;
551 -> 552 ;
553 [label=<dti &le; 1.725<br/>gini = 0.498<br/>samples = 17<br/>value = [9, 8]>, fillcolor="#fcf1e9"] ;
552 -> 553 ;
554 [label=<gini = 0.0<br/>samples = 6<br/>value = [0, 6]>, fillcolor="#399de5"] ;
553 -> 554 ;
555 [label=<gini = 0.298<br/>samples = 11<br/>value = [9, 2]>, fillcolor="#eb9d65"] ;
553 -> 555 ;
556 [label=<annual_inc &le; 27114.0<br/>gini = 0.238<br/>samples = 123<br/>value = [106, 17]>, fillcolor="#e99559"] ;
552 -> 556 ;
557 [label=<gini = 0.473<br/>samples = 13<br/>value = [8, 5]>, fillcolor="#f5d0b5"] ;
556 -> 557 ;
558 [label=<gini = 0.194<br/>samples = 110<br/>value = [98, 12]>, fillcolor="#e89051"] ;
556 -> 558 ;
559 [label=<pub_rec_bankruptcies &le; 0.5<br/>gini = 0.434<br/>samples = 956<br/>value = [652, 304]>, fillcolor="#f1bc95"] ;
551 -> 559 ;
560 [label=<inq_last_6mths &le; 3.5<br/>gini = 0.424<br/>samples = 886<br/>value = [616, 270]>, fillcolor="#f0b890"] ;
559 -> 560 ;
561 [label=<gini = 0.413<br/>samples = 814<br/>value = [577, 237]>, fillcolor="#f0b58a"] ;
560 -> 561 ;
562 [label=<gini = 0.497<br/>samples = 72<br/>value = [39, 33]>, fillcolor="#fbece1"] ;
560 -> 562 ;
563 [label=<dti &le; 8.625<br/>gini = 0.5<br/>samples = 70<br/>value = [36, 34]>, fillcolor="#fef8f4"] ;
559 -> 563 ;
564 [label=<gini = 0.0<br/>samples = 4<br/>value = [0, 4]>, fillcolor="#399de5"] ;
563 -> 564 ;
565 [label=<gini = 0.496<br/>samples = 66<br/>value = [36, 30]>, fillcolor="#fbeade"] ;
563 -> 565 ;
566 [label=<total_acc &le; 5.5<br/>gini = 0.467<br/>samples = 584<br/>value = [367, 217]>, fillcolor="#f4ccae"] ;
550 -> 566 ;
567 [label=<addr_state_VA &le; 0.5<br/>gini = 0.355<br/>samples = 13<br/>value = [3, 10]>, fillcolor="#74baed"] ;
566 -> 567 ;
568 [label=<annual_inc &le; 15200.0<br/>gini = 0.278<br/>samples = 12<br/>value = [2, 10]>, fillcolor="#61b1ea"] ;
567 -> 568 ;
569 [label=<gini = 0.0<br/>samples = 1<br/>value = [1, 0]>, fillcolor="#e58139"] ;
568 -> 569 ;
570 [label=<gini = 0.165<br/>samples = 11<br/>value = [1, 10]>, fillcolor="#4da7e8"] ;
568 -> 570 ;
571 [label=<gini = 0.0<br/>samples = 1<br/>value = [1, 0]>, fillcolor="#e58139"] ;
567 -> 571 ;
572 [label=<addr_state_PA &le; 0.5<br/>gini = 0.462<br/>samples = 571<br/>value = [364, 207]>, fillcolor="#f4c9aa"] ;
566 -> 572 ;
573 [label=<loan_amnt &le; 15125.0<br/>gini = 0.456<br/>samples = 546<br/>value = [354, 192]>, fillcolor="#f3c5a4"] ;
572 -> 573 ;
574 [label=<gini = 0.426<br/>samples = 309<br/>value = [214, 95]>, fillcolor="#f1b991"] ;
573 -> 574 ;
575 [label=<gini = 0.484<br/>samples = 237<br/>value = [140, 97]>, fillcolor="#f7d8c2"] ;
573 -> 575 ;
576 [label=<loan_amnt &le; 18500.0<br/>gini = 0.48<br/>samples = 25<br/>value = [10, 15]>, fillcolor="#bddef6"] ;
572 -> 576 ;
577 [label=<gini = 0.375<br/>samples = 20<br/>value = [5, 15]>, fillcolor="#7bbeee"] ;
576 -> 577 ;
578 [label=<gini = 0.0<br/>samples = 5<br/>value = [5, 0]>, fillcolor="#e58139"] ;
576 -> 578 ;
579 [label=<dti &le; 13.31<br/>gini = 0.494<br/>samples = 155<br/>value = [86, 69]>, fillcolor="#fae6d8"] ;
525 -> 579 ;
580 [label=<total_acc &le; 7.5<br/>gini = 0.437<br/>samples = 87<br/>value = [59, 28]>, fillcolor="#f1bd97"] ;
579 -> 580 ;
581 [label=<dti &le; 7.51<br/>gini = 0.473<br/>samples = 13<br/>value = [5, 8]>, fillcolor="#b5daf5"] ;
580 -> 581 ;
582 [label=<addr_state_WA &le; 0.5<br/>gini = 0.219<br/>samples = 8<br/>value = [1, 7]>, fillcolor="#55abe9"] ;
581 -> 582 ;
583 [label=<gini = 0.0<br/>samples = 7<br/>value = [0, 7]>, fillcolor="#399de5"] ;
582 -> 583 ;
584 [label=<gini = 0.0<br/>samples = 1<br/>value = [1, 0]>, fillcolor="#e58139"] ;
582 -> 584 ;
585 [label=<sub_grade_E1 &le; 0.5<br/>gini = 0.32<br/>samples = 5<br/>value = [4, 1]>, fillcolor="#eca06a"] ;
581 -> 585 ;
586 [label=<gini = 0.0<br/>samples = 4<br/>value = [4, 0]>, fillcolor="#e58139"] ;
585 -> 586 ;
587 [label=<gini = 0.0<br/>samples = 1<br/>value = [0, 1]>, fillcolor="#399de5"] ;
585 -> 587 ;
588 [label=<addr_state_OR &le; 0.5<br/>gini = 0.394<br/>samples = 74<br/>value = [54, 20]>, fillcolor="#efb082"] ;
580 -> 588 ;
589 [label=<total_acc &le; 45.5<br/>gini = 0.375<br/>samples = 72<br/>value = [54, 18]>, fillcolor="#eeab7b"] ;
588 -> 589 ;
590 [label=<grade_E &le; 0.5<br/>gini = 0.353<br/>samples = 70<br/>value = [54, 16]>, fillcolor="#eda674"] ;
589 -> 590 ;
591 [label=<gini = 0.258<br/>samples = 46<br/>value = [39, 7]>, fillcolor="#ea985d"] ;
590 -> 591 ;
592 [label=<gini = 0.469<br/>samples = 24<br/>value = [15, 9]>, fillcolor="#f5cdb0"] ;
590 -> 592 ;
593 [label=<gini = 0.0<br/>samples = 2<br/>value = [0, 2]>, fillcolor="#399de5"] ;
589 -> 593 ;
594 [label=<gini = 0.0<br/>samples = 2<br/>value = [0, 2]>, fillcolor="#399de5"] ;
588 -> 594 ;
595 [label=<total_acc &le; 9.5<br/>gini = 0.479<br/>samples = 68<br/>value = [27, 41]>, fillcolor="#bbdef6"] ;
579 -> 595 ;
596 [label=<gini = 0.0<br/>samples = 5<br/>value = [5, 0]>, fillcolor="#e58139"] ;
595 -> 596 ;
597 [label=<loan_amnt &le; 25250.0<br/>gini = 0.455<br/>samples = 63<br/>value = [22, 41]>, fillcolor="#a3d2f3"] ;
595 -> 597 ;
598 [label=<open_acc &le; 4.5<br/>gini = 0.486<br/>samples = 53<br/>value = [22, 31]>, fillcolor="#c6e3f7"] ;
597 -> 598 ;
599 [label=<gini = 0.0<br/>samples = 3<br/>value = [3, 0]>, fillcolor="#e58139"] ;
598 -> 599 ;
600 [label=<dti &le; 19.85<br/>gini = 0.471<br/>samples = 50<br/>value = [19, 31]>, fillcolor="#b2d9f5"] ;
598 -> 600 ;
601 [label=<gini = 0.383<br/>samples = 31<br/>value = [8, 23]>, fillcolor="#7ebfee"] ;
600 -> 601 ;
602 [label=<gini = 0.488<br/>samples = 19<br/>value = [11, 8]>, fillcolor="#f8ddc9"] ;
600 -> 602 ;
603 [label=<gini = 0.0<br/>samples = 10<br/>value = [0, 10]>, fillcolor="#399de5"] ;
597 -> 603 ;
604 [label=<sub_grade_F5 &le; 0.5<br/>gini = 0.492<br/>samples = 749<br/>value = [422, 327]>, fillcolor="#f9e3d2"] ;
524 -> 604 ;
605 [label=<open_acc &le; 6.5<br/>gini = 0.487<br/>samples = 697<br/>value = [404, 293]>, fillcolor="#f8dcc9"] ;
604 -> 605 ;
606 [label=<annual_inc &le; 37250.0<br/>gini = 0.448<br/>samples = 242<br/>value = [160, 82]>, fillcolor="#f2c29e"] ;
605 -> 606 ;
607 [label=<emp_length &le; 6.5<br/>gini = 0.5<br/>samples = 64<br/>value = [32, 32]>, fillcolor="#ffffff"] ;
606 -> 607 ;
608 [label=<emp_length &le; 1.5<br/>gini = 0.475<br/>samples = 49<br/>value = [30, 19]>, fillcolor="#f5d1b6"] ;
607 -> 608 ;
609 [label=<total_acc &le; 6.5<br/>gini = 0.397<br/>samples = 11<br/>value = [3, 8]>, fillcolor="#83c2ef"] ;
608 -> 609 ;
610 [label=<gini = 0.48<br/>samples = 5<br/>value = [3, 2]>, fillcolor="#f6d5bd"] ;
609 -> 610 ;
611 [label=<gini = 0.0<br/>samples = 6<br/>value = [0, 6]>, fillcolor="#399de5"] ;
609 -> 611 ;
612 [label=<total_acc &le; 7.5<br/>gini = 0.411<br/>samples = 38<br/>value = [27, 11]>, fillcolor="#f0b48a"] ;
608 -> 612 ;
613 [label=<gini = 0.495<br/>samples = 20<br/>value = [11, 9]>, fillcolor="#fae8db"] ;
612 -> 613 ;
614 [label=<gini = 0.198<br/>samples = 18<br/>value = [16, 2]>, fillcolor="#e89152"] ;
612 -> 614 ;
615 [label=<purpose_home_improvement &le; 0.5<br/>gini = 0.231<br/>samples = 15<br/>value = [2, 13]>, fillcolor="#57ace9"] ;
607 -> 615 ;
616 [label=<sub_grade_F2 &le; 0.5<br/>gini = 0.133<br/>samples = 14<br/>value = [1, 13]>, fillcolor="#48a5e7"] ;
615 -> 616 ;
617 [label=<gini = 0.0<br/>samples = 12<br/>value = [0, 12]>, fillcolor="#399de5"] ;
616 -> 617 ;
618 [label=<gini = 0.5<br/>samples = 2<br/>value = [1, 1]>, fillcolor="#ffffff"] ;
616 -> 618 ;
619 [label=<gini = 0.0<br/>samples = 1<br/>value = [1, 0]>, fillcolor="#e58139"] ;
615 -> 619 ;
620 [label=<purpose_house &le; 0.5<br/>gini = 0.404<br/>samples = 178<br/>value = [128, 50]>, fillcolor="#efb286"] ;
606 -> 620 ;
621 [label=<annual_inc &le; 80727.0<br/>gini = 0.39<br/>samples = 173<br/>value = [127, 46]>, fillcolor="#eeaf81"] ;
620 -> 621 ;
622 [label=<addr_state_UT &le; 0.5<br/>gini = 0.382<br/>samples = 171<br/>value = [127, 44]>, fillcolor="#eead7e"] ;
621 -> 622 ;
623 [label=<gini = 0.374<br/>samples = 169<br/>value = [127, 42]>, fillcolor="#eeab7a"] ;
622 -> 623 ;
624 [label=<gini = 0.0<br/>samples = 2<br/>value = [0, 2]>, fillcolor="#399de5"] ;
622 -> 624 ;
625 [label=<gini = 0.0<br/>samples = 2<br/>value = [0, 2]>, fillcolor="#399de5"] ;
621 -> 625 ;
626 [label=<dti &le; 2.49<br/>gini = 0.32<br/>samples = 5<br/>value = [1, 4]>, fillcolor="#6ab6ec"] ;
620 -> 626 ;
627 [label=<gini = 0.0<br/>samples = 1<br/>value = [1, 0]>, fillcolor="#e58139"] ;
626 -> 627 ;
628 [label=<gini = 0.0<br/>samples = 4<br/>value = [0, 4]>, fillcolor="#399de5"] ;
626 -> 628 ;
629 [label=<annual_inc &le; 60390.0<br/>gini = 0.497<br/>samples = 455<br/>value = [244, 211]>, fillcolor="#fbeee4"] ;
605 -> 629 ;
630 [label=<int_rate &le; 0.194<br/>gini = 0.498<br/>samples = 242<br/>value = [114, 128]>, fillcolor="#e9f4fc"] ;
629 -> 630 ;
631 [label=<loan_amnt &le; 11412.5<br/>gini = 0.468<br/>samples = 59<br/>value = [37, 22]>, fillcolor="#f4ccaf"] ;
630 -> 631 ;
632 [label=<loan_amnt &le; 6175.0<br/>gini = 0.475<br/>samples = 18<br/>value = [7, 11]>, fillcolor="#b7dbf6"] ;
631 -> 632 ;
633 [label=<gini = 0.375<br/>samples = 8<br/>value = [6, 2]>, fillcolor="#eeab7b"] ;
632 -> 633 ;
634 [label=<gini = 0.18<br/>samples = 10<br/>value = [1, 9]>, fillcolor="#4fa8e8"] ;
632 -> 634 ;
635 [label=<addr_state_WA &le; 0.5<br/>gini = 0.393<br/>samples = 41<br/>value = [30, 11]>, fillcolor="#efaf82"] ;
631 -> 635 ;
636 [label=<gini = 0.355<br/>samples = 39<br/>value = [30, 9]>, fillcolor="#eda774"] ;
635 -> 636 ;
637 [label=<gini = 0.0<br/>samples = 2<br/>value = [0, 2]>, fillcolor="#399de5"] ;
635 -> 637 ;
638 [label=<inq_last_6mths &le; 2.5<br/>gini = 0.487<br/>samples = 183<br/>value = [77, 106]>, fillcolor="#c9e4f8"] ;
630 -> 638 ;
639 [label=<total_acc &le; 12.5<br/>gini = 0.496<br/>samples = 162<br/>value = [74, 88]>, fillcolor="#e0effb"] ;
638 -> 639 ;
640 [label=<gini = 0.32<br/>samples = 15<br/>value = [3, 12]>, fillcolor="#6ab6ec"] ;
639 -> 640 ;
641 [label=<gini = 0.499<br/>samples = 147<br/>value = [71, 76]>, fillcolor="#f2f9fd"] ;
639 -> 641 ;
642 [label=<dti &le; 6.855<br/>gini = 0.245<br/>samples = 21<br/>value = [3, 18]>, fillcolor="#5aade9"] ;
638 -> 642 ;
643 [label=<gini = 0.444<br/>samples = 3<br/>value = [2, 1]>, fillcolor="#f2c09c"] ;
642 -> 643 ;
644 [label=<gini = 0.105<br/>samples = 18<br/>value = [1, 17]>, fillcolor="#45a3e7"] ;
642 -> 644 ;
645 [label=<dti &le; 8.505<br/>gini = 0.476<br/>samples = 213<br/>value = [130, 83]>, fillcolor="#f6d1b7"] ;
629 -> 645 ;
646 [label=<dti &le; 3.77<br/>gini = 0.375<br/>samples = 20<br/>value = [5, 15]>, fillcolor="#7bbeee"] ;
645 -> 646 ;
647 [label=<int_rate &le; 0.2<br/>gini = 0.48<br/>samples = 5<br/>value = [3, 2]>, fillcolor="#f6d5bd"] ;
646 -> 647 ;
648 [label=<gini = 0.0<br/>samples = 3<br/>value = [3, 0]>, fillcolor="#e58139"] ;
647 -> 648 ;
649 [label=<gini = 0.0<br/>samples = 2<br/>value = [0, 2]>, fillcolor="#399de5"] ;
647 -> 649 ;
650 [label=<total_acc &le; 32.0<br/>gini = 0.231<br/>samples = 15<br/>value = [2, 13]>, fillcolor="#57ace9"] ;
646 -> 650 ;
651 [label=<gini = 0.0<br/>samples = 12<br/>value = [0, 12]>, fillcolor="#399de5"] ;
650 -> 651 ;
652 [label=<gini = 0.444<br/>samples = 3<br/>value = [2, 1]>, fillcolor="#f2c09c"] ;
650 -> 652 ;
653 [label=<loan_amnt &le; 32325.0<br/>gini = 0.456<br/>samples = 193<br/>value = [125, 68]>, fillcolor="#f3c6a5"] ;
645 -> 653 ;
654 [label=<int_rate &le; 0.221<br/>gini = 0.435<br/>samples = 172<br/>value = [117, 55]>, fillcolor="#f1bc96"] ;
653 -> 654 ;
655 [label=<gini = 0.416<br/>samples = 159<br/>value = [112, 47]>, fillcolor="#f0b68c"] ;
654 -> 655 ;
656 [label=<gini = 0.473<br/>samples = 13<br/>value = [5, 8]>, fillcolor="#b5daf5"] ;
654 -> 656 ;
657 [label=<dti &le; 17.66<br/>gini = 0.472<br/>samples = 21<br/>value = [8, 13]>, fillcolor="#b3d9f5"] ;
653 -> 657 ;
658 [label=<gini = 0.18<br/>samples = 10<br/>value = [1, 9]>, fillcolor="#4fa8e8"] ;
657 -> 658 ;
659 [label=<gini = 0.463<br/>samples = 11<br/>value = [7, 4]>, fillcolor="#f4c9aa"] ;
657 -> 659 ;
660 [label=<open_acc &le; 16.5<br/>gini = 0.453<br/>samples = 52<br/>value = [18, 34]>, fillcolor="#a2d1f3"] ;
604 -> 660 ;
661 [label=<loan_amnt &le; 17375.0<br/>gini = 0.418<br/>samples = 47<br/>value = [14, 33]>, fillcolor="#8dc7f0"] ;
660 -> 661 ;
662 [label=<dti &le; 16.14<br/>gini = 0.488<br/>samples = 26<br/>value = [11, 15]>, fillcolor="#cae5f8"] ;
661 -> 662 ;
663 [label=<dti &le; 8.92<br/>gini = 0.494<br/>samples = 18<br/>value = [10, 8]>, fillcolor="#fae6d7"] ;
662 -> 663 ;
664 [label=<int_rate &le; 0.226<br/>gini = 0.346<br/>samples = 9<br/>value = [2, 7]>, fillcolor="#72b9ec"] ;
663 -> 664 ;
665 [label=<gini = 0.219<br/>samples = 8<br/>value = [1, 7]>, fillcolor="#55abe9"] ;
664 -> 665 ;
666 [label=<gini = 0.0<br/>samples = 1<br/>value = [1, 0]>, fillcolor="#e58139"] ;
664 -> 666 ;
667 [label=<pub_rec_bankruptcies &le; 0.5<br/>gini = 0.198<br/>samples = 9<br/>value = [8, 1]>, fillcolor="#e89152"] ;
663 -> 667 ;
668 [label=<gini = 0.0<br/>samples = 8<br/>value = [8, 0]>, fillcolor="#e58139"] ;
667 -> 668 ;
669 [label=<gini = 0.0<br/>samples = 1<br/>value = [0, 1]>, fillcolor="#399de5"] ;
667 -> 669 ;
670 [label=<addr_state_GA &le; 0.5<br/>gini = 0.219<br/>samples = 8<br/>value = [1, 7]>, fillcolor="#55abe9"] ;
662 -> 670 ;
671 [label=<gini = 0.0<br/>samples = 7<br/>value = [0, 7]>, fillcolor="#399de5"] ;
670 -> 671 ;
672 [label=<gini = 0.0<br/>samples = 1<br/>value = [1, 0]>, fillcolor="#e58139"] ;
670 -> 672 ;
673 [label=<annual_inc &le; 80002.0<br/>gini = 0.245<br/>samples = 21<br/>value = [3, 18]>, fillcolor="#5aade9"] ;
661 -> 673 ;
674 [label=<addr_state_NJ &le; 0.5<br/>gini = 0.18<br/>samples = 20<br/>value = [2, 18]>, fillcolor="#4fa8e8"] ;
673 -> 674 ;
675 [label=<purpose_credit_card &le; 0.5<br/>gini = 0.1<br/>samples = 19<br/>value = [1, 18]>, fillcolor="#44a2e6"] ;
674 -> 675 ;
676 [label=<gini = 0.0<br/>samples = 17<br/>value = [0, 17]>, fillcolor="#399de5"] ;
675 -> 676 ;
677 [label=<gini = 0.5<br/>samples = 2<br/>value = [1, 1]>, fillcolor="#ffffff"] ;
675 -> 677 ;
678 [label=<gini = 0.0<br/>samples = 1<br/>value = [1, 0]>, fillcolor="#e58139"] ;
674 -> 678 ;
679 [label=<gini = 0.0<br/>samples = 1<br/>value = [1, 0]>, fillcolor="#e58139"] ;
673 -> 679 ;
680 [label=<inq_last_6mths &le; 4.0<br/>gini = 0.32<br/>samples = 5<br/>value = [4, 1]>, fillcolor="#eca06a"] ;
660 -> 680 ;
681 [label=<gini = 0.0<br/>samples = 4<br/>value = [4, 0]>, fillcolor="#e58139"] ;
680 -> 681 ;
682 [label=<gini = 0.0<br/>samples = 1<br/>value = [0, 1]>, fillcolor="#399de5"] ;
680 -> 682 ;
683 [label=<int_rate &le; 0.213<br/>gini = 0.355<br/>samples = 1782<br/>value = [1371, 411]>, fillcolor="#eda774"] ;
523 -> 683 ;
684 [label=<grade_C &le; 0.5<br/>gini = 0.342<br/>samples = 1650<br/>value = [1289, 361]>, fillcolor="#eca470"] ;
683 -> 684 ;
685 [label=<addr_state_MT &le; 0.5<br/>gini = 0.352<br/>samples = 1470<br/>value = [1135, 335]>, fillcolor="#eda673"] ;
684 -> 685 ;
686 [label=<purpose_house &le; 0.5<br/>gini = 0.351<br/>samples = 1468<br/>value = [1135, 333]>, fillcolor="#eda673"] ;
685 -> 686 ;
687 [label=<annual_inc &le; 203655.711<br/>gini = 0.347<br/>samples = 1443<br/>value = [1121, 322]>, fillcolor="#eca572"] ;
686 -> 687 ;
688 [label=<annual_inc &le; 200502.0<br/>gini = 0.354<br/>samples = 1354<br/>value = [1043, 311]>, fillcolor="#eda774"] ;
687 -> 688 ;
689 [label=<addr_state_TX &le; 0.5<br/>gini = 0.353<br/>samples = 1352<br/>value = [1043, 309]>, fillcolor="#eda674"] ;
688 -> 689 ;
690 [label=<gini = 0.361<br/>samples = 1246<br/>value = [951, 295]>, fillcolor="#eda876"] ;
689 -> 690 ;
691 [label=<gini = 0.229<br/>samples = 106<br/>value = [92, 14]>, fillcolor="#e99457"] ;
689 -> 691 ;
692 [label=<gini = 0.0<br/>samples = 2<br/>value = [0, 2]>, fillcolor="#399de5"] ;
688 -> 692 ;
693 [label=<purpose_other &le; 0.5<br/>gini = 0.217<br/>samples = 89<br/>value = [78, 11]>, fillcolor="#e99355"] ;
687 -> 693 ;
694 [label=<total_acc &le; 14.5<br/>gini = 0.16<br/>samples = 80<br/>value = [73, 7]>, fillcolor="#e78d4c"] ;
693 -> 694 ;
695 [label=<gini = 0.48<br/>samples = 5<br/>value = [2, 3]>, fillcolor="#bddef6"] ;
694 -> 695 ;
696 [label=<gini = 0.101<br/>samples = 75<br/>value = [71, 4]>, fillcolor="#e68844"] ;
694 -> 696 ;
697 [label=<int_rate &le; 0.198<br/>gini = 0.494<br/>samples = 9<br/>value = [5, 4]>, fillcolor="#fae6d7"] ;
693 -> 697 ;
698 [label=<gini = 0.278<br/>samples = 6<br/>value = [5, 1]>, fillcolor="#ea9a61"] ;
697 -> 698 ;
699 [label=<gini = 0.0<br/>samples = 3<br/>value = [0, 3]>, fillcolor="#399de5"] ;
697 -> 699 ;
700 [label=<loan_amnt &le; 14650.0<br/>gini = 0.493<br/>samples = 25<br/>value = [14, 11]>, fillcolor="#f9e4d5"] ;
686 -> 700 ;
701 [label=<dti &le; 15.155<br/>gini = 0.375<br/>samples = 8<br/>value = [2, 6]>, fillcolor="#7bbeee"] ;
700 -> 701 ;
702 [label=<gini = 0.0<br/>samples = 6<br/>value = [0, 6]>, fillcolor="#399de5"] ;
701 -> 702 ;
703 [label=<gini = 0.0<br/>samples = 2<br/>value = [2, 0]>, fillcolor="#e58139"] ;
701 -> 703 ;
704 [label=<loan_amnt &le; 26500.0<br/>gini = 0.415<br/>samples = 17<br/>value = [12, 5]>, fillcolor="#f0b58b"] ;
700 -> 704 ;
705 [label=<total_acc &le; 47.0<br/>gini = 0.165<br/>samples = 11<br/>value = [10, 1]>, fillcolor="#e88e4d"] ;
704 -> 705 ;
706 [label=<gini = 0.0<br/>samples = 10<br/>value = [10, 0]>, fillcolor="#e58139"] ;
705 -> 706 ;
707 [label=<gini = 0.0<br/>samples = 1<br/>value = [0, 1]>, fillcolor="#399de5"] ;
705 -> 707 ;
708 [label=<sub_grade_E3 &le; 0.5<br/>gini = 0.444<br/>samples = 6<br/>value = [2, 4]>, fillcolor="#9ccef2"] ;
704 -> 708 ;
709 [label=<gini = 0.0<br/>samples = 4<br/>value = [0, 4]>, fillcolor="#399de5"] ;
708 -> 709 ;
710 [label=<gini = 0.0<br/>samples = 2<br/>value = [2, 0]>, fillcolor="#e58139"] ;
708 -> 710 ;
711 [label=<gini = 0.0<br/>samples = 2<br/>value = [0, 2]>, fillcolor="#399de5"] ;
685 -> 711 ;
712 [label=<pub_rec_bankruptcies &le; 0.5<br/>gini = 0.247<br/>samples = 180<br/>value = [154, 26]>, fillcolor="#e9965a"] ;
684 -> 712 ;
713 [label=<addr_state_NJ &le; 0.5<br/>gini = 0.228<br/>samples = 175<br/>value = [152, 23]>, fillcolor="#e99457"] ;
712 -> 713 ;
714 [label=<addr_state_MN &le; 0.5<br/>gini = 0.198<br/>samples = 162<br/>value = [144, 18]>, fillcolor="#e89152"] ;
713 -> 714 ;
715 [label=<purpose_medical &le; 0.5<br/>gini = 0.189<br/>samples = 161<br/>value = [144, 17]>, fillcolor="#e89050"] ;
714 -> 715 ;
716 [label=<emp_length &le; 7.5<br/>gini = 0.173<br/>samples = 157<br/>value = [142, 15]>, fillcolor="#e88e4e"] ;
715 -> 716 ;
717 [label=<gini = 0.086<br/>samples = 89<br/>value = [85, 4]>, fillcolor="#e68742"] ;
716 -> 717 ;
718 [label=<gini = 0.271<br/>samples = 68<br/>value = [57, 11]>, fillcolor="#ea995f"] ;
716 -> 718 ;
719 [label=<open_acc &le; 13.0<br/>gini = 0.5<br/>samples = 4<br/>value = [2, 2]>, fillcolor="#ffffff"] ;
715 -> 719 ;
720 [label=<gini = 0.0<br/>samples = 2<br/>value = [2, 0]>, fillcolor="#e58139"] ;
719 -> 720 ;
721 [label=<gini = 0.0<br/>samples = 2<br/>value = [0, 2]>, fillcolor="#399de5"] ;
719 -> 721 ;
722 [label=<gini = 0.0<br/>samples = 1<br/>value = [0, 1]>, fillcolor="#399de5"] ;
714 -> 722 ;
723 [label=<emp_length &le; 9.5<br/>gini = 0.473<br/>samples = 13<br/>value = [8, 5]>, fillcolor="#f5d0b5"] ;
713 -> 723 ;
724 [label=<emp_length &le; 3.5<br/>gini = 0.32<br/>samples = 10<br/>value = [8, 2]>, fillcolor="#eca06a"] ;
723 -> 724 ;
725 [label=<purpose_small_business &le; 0.5<br/>gini = 0.444<br/>samples = 3<br/>value = [1, 2]>, fillcolor="#9ccef2"] ;
724 -> 725 ;
726 [label=<gini = 0.0<br/>samples = 2<br/>value = [0, 2]>, fillcolor="#399de5"] ;
725 -> 726 ;
727 [label=<gini = 0.0<br/>samples = 1<br/>value = [1, 0]>, fillcolor="#e58139"] ;
725 -> 727 ;
728 [label=<gini = 0.0<br/>samples = 7<br/>value = [7, 0]>, fillcolor="#e58139"] ;
724 -> 728 ;
729 [label=<gini = 0.0<br/>samples = 3<br/>value = [0, 3]>, fillcolor="#399de5"] ;
723 -> 729 ;
730 [label=<emp_length &le; 8.5<br/>gini = 0.48<br/>samples = 5<br/>value = [2, 3]>, fillcolor="#bddef6"] ;
712 -> 730 ;
731 [label=<gini = 0.0<br/>samples = 3<br/>value = [0, 3]>, fillcolor="#399de5"] ;
730 -> 731 ;
732 [label=<gini = 0.0<br/>samples = 2<br/>value = [2, 0]>, fillcolor="#e58139"] ;
730 -> 732 ;
733 [label=<dti &le; 1.535<br/>gini = 0.471<br/>samples = 132<br/>value = [82, 50]>, fillcolor="#f5ceb2"] ;
683 -> 733 ;
734 [label=<gini = 0.0<br/>samples = 5<br/>value = [0, 5]>, fillcolor="#399de5"] ;
733 -> 734 ;
735 [label=<sub_grade_F4 &le; 0.5<br/>gini = 0.458<br/>samples = 127<br/>value = [82, 45]>, fillcolor="#f3c6a6"] ;
733 -> 735 ;
736 [label=<inq_last_6mths &le; 0.5<br/>gini = 0.422<br/>samples = 109<br/>value = [76, 33]>, fillcolor="#f0b88f"] ;
735 -> 736 ;
737 [label=<open_acc &le; 13.0<br/>gini = 0.229<br/>samples = 38<br/>value = [33, 5]>, fillcolor="#e99457"] ;
736 -> 737 ;
738 [label=<purpose_credit_card &le; 0.5<br/>gini = 0.069<br/>samples = 28<br/>value = [27, 1]>, fillcolor="#e68640"] ;
737 -> 738 ;
739 [label=<gini = 0.0<br/>samples = 24<br/>value = [24, 0]>, fillcolor="#e58139"] ;
738 -> 739 ;
740 [label=<addr_state_CA &le; 0.5<br/>gini = 0.375<br/>samples = 4<br/>value = [3, 1]>, fillcolor="#eeab7b"] ;
738 -> 740 ;
741 [label=<gini = 0.0<br/>samples = 3<br/>value = [3, 0]>, fillcolor="#e58139"] ;
740 -> 741 ;
742 [label=<gini = 0.0<br/>samples = 1<br/>value = [0, 1]>, fillcolor="#399de5"] ;
740 -> 742 ;
743 [label=<total_acc &le; 37.5<br/>gini = 0.48<br/>samples = 10<br/>value = [6, 4]>, fillcolor="#f6d5bd"] ;
737 -> 743 ;
744 [label=<gini = 0.0<br/>samples = 3<br/>value = [0, 3]>, fillcolor="#399de5"] ;
743 -> 744 ;
745 [label=<annual_inc &le; 380000.0<br/>gini = 0.245<br/>samples = 7<br/>value = [6, 1]>, fillcolor="#e9965a"] ;
743 -> 745 ;
746 [label=<gini = 0.0<br/>samples = 6<br/>value = [6, 0]>, fillcolor="#e58139"] ;
745 -> 746 ;
747 [label=<gini = 0.0<br/>samples = 1<br/>value = [0, 1]>, fillcolor="#399de5"] ;
745 -> 747 ;
748 [label=<open_acc &le; 4.5<br/>gini = 0.478<br/>samples = 71<br/>value = [43, 28]>, fillcolor="#f6d3ba"] ;
736 -> 748 ;
749 [label=<gini = 0.0<br/>samples = 5<br/>value = [0, 5]>, fillcolor="#399de5"] ;
748 -> 749 ;
750 [label=<loan_amnt &le; 32175.0<br/>gini = 0.454<br/>samples = 66<br/>value = [43, 23]>, fillcolor="#f3c4a3"] ;
748 -> 750 ;
751 [label=<sub_grade_G3 &le; 0.5<br/>gini = 0.363<br/>samples = 42<br/>value = [32, 10]>, fillcolor="#eda877"] ;
750 -> 751 ;
752 [label=<gini = 0.32<br/>samples = 40<br/>value = [32, 8]>, fillcolor="#eca06a"] ;
751 -> 752 ;
753 [label=<gini = 0.0<br/>samples = 2<br/>value = [0, 2]>, fillcolor="#399de5"] ;
751 -> 753 ;
754 [label=<dti &le; 11.805<br/>gini = 0.497<br/>samples = 24<br/>value = [11, 13]>, fillcolor="#e1f0fb"] ;
750 -> 754 ;
755 [label=<gini = 0.0<br/>samples = 5<br/>value = [5, 0]>, fillcolor="#e58139"] ;
754 -> 755 ;
756 [label=<gini = 0.432<br/>samples = 19<br/>value = [6, 13]>, fillcolor="#94caf1"] ;
754 -> 756 ;
757 [label=<annual_inc &le; 114000.0<br/>gini = 0.444<br/>samples = 18<br/>value = [6, 12]>, fillcolor="#9ccef2"] ;
735 -> 757 ;
758 [label=<addr_state_NY &le; 0.5<br/>gini = 0.408<br/>samples = 7<br/>value = [5, 2]>, fillcolor="#efb388"] ;
757 -> 758 ;
759 [label=<gini = 0.0<br/>samples = 5<br/>value = [5, 0]>, fillcolor="#e58139"] ;
758 -> 759 ;
760 [label=<gini = 0.0<br/>samples = 2<br/>value = [0, 2]>, fillcolor="#399de5"] ;
758 -> 760 ;
761 [label=<open_acc &le; 4.0<br/>gini = 0.165<br/>samples = 11<br/>value = [1, 10]>, fillcolor="#4da7e8"] ;
757 -> 761 ;
762 [label=<gini = 0.0<br/>samples = 1<br/>value = [1, 0]>, fillcolor="#e58139"] ;
761 -> 762 ;
763 [label=<gini = 0.0<br/>samples = 10<br/>value = [0, 10]>, fillcolor="#399de5"] ;
761 -> 763 ;
764 [label=<inq_last_6mths &le; 2.5<br/>gini = 0.318<br/>samples = 6757<br/>value = [5418, 1339]>, fillcolor="#eba06a"] ;
522 -> 764 ;
765 [label=<purpose_credit_card &le; 0.5<br/>gini = 0.29<br/>samples = 5293<br/>value = [4361, 932]>, fillcolor="#eb9c63"] ;
764 -> 765 ;
766 [label=<int_rate &le; 0.165<br/>gini = 0.302<br/>samples = 4626<br/>value = [3769, 857]>, fillcolor="#eb9e66"] ;
765 -> 766 ;
767 [label=<annual_inc &le; 66150.0<br/>gini = 0.286<br/>samples = 3645<br/>value = [3016, 629]>, fillcolor="#ea9b62"] ;
766 -> 767 ;
768 [label=<addr_state_NV &le; 0.5<br/>gini = 0.311<br/>samples = 2354<br/>value = [1901, 453]>, fillcolor="#eb9f68"] ;
767 -> 768 ;
769 [label=<addr_state_MO &le; 0.5<br/>gini = 0.307<br/>samples = 2319<br/>value = [1880, 439]>, fillcolor="#eb9e67"] ;
768 -> 769 ;
770 [label=<emp_length &le; 9.5<br/>gini = 0.303<br/>samples = 2280<br/>value = [1856, 424]>, fillcolor="#eb9e66"] ;
769 -> 770 ;
771 [label=<annual_inc &le; 22806.36<br/>gini = 0.29<br/>samples = 1961<br/>value = [1616, 345]>, fillcolor="#eb9c63"] ;
770 -> 771 ;
772 [label=<gini = 0.375<br/>samples = 212<br/>value = [159, 53]>, fillcolor="#eeab7b"] ;
771 -> 772 ;
773 [label=<gini = 0.278<br/>samples = 1749<br/>value = [1457, 292]>, fillcolor="#ea9a61"] ;
771 -> 773 ;
774 [label=<annual_inc &le; 39515.0<br/>gini = 0.373<br/>samples = 319<br/>value = [240, 79]>, fillcolor="#eeaa7a"] ;
770 -> 774 ;
775 [label=<gini = 0.461<br/>samples = 72<br/>value = [46, 26]>, fillcolor="#f4c8a9"] ;
774 -> 775 ;
776 [label=<gini = 0.337<br/>samples = 247<br/>value = [194, 53]>, fillcolor="#eca36f"] ;
774 -> 776 ;
777 [label=<total_acc &le; 9.5<br/>gini = 0.473<br/>samples = 39<br/>value = [24, 15]>, fillcolor="#f5d0b5"] ;
769 -> 777 ;
778 [label=<loan_amnt &le; 2300.0<br/>gini = 0.32<br/>samples = 5<br/>value = [1, 4]>, fillcolor="#6ab6ec"] ;
777 -> 778 ;
779 [label=<gini = 0.0<br/>samples = 1<br/>value = [1, 0]>, fillcolor="#e58139"] ;
778 -> 779 ;
780 [label=<gini = 0.0<br/>samples = 4<br/>value = [0, 4]>, fillcolor="#399de5"] ;
778 -> 780 ;
781 [label=<total_acc &le; 20.0<br/>gini = 0.438<br/>samples = 34<br/>value = [23, 11]>, fillcolor="#f1bd98"] ;
777 -> 781 ;
782 [label=<gini = 0.255<br/>samples = 20<br/>value = [17, 3]>, fillcolor="#ea975c"] ;
781 -> 782 ;
783 [label=<gini = 0.49<br/>samples = 14<br/>value = [6, 8]>, fillcolor="#cee6f8"] ;
781 -> 783 ;
784 [label=<grade_C &le; 0.5<br/>gini = 0.48<br/>samples = 35<br/>value = [21, 14]>, fillcolor="#f6d5bd"] ;
768 -> 784 ;
785 [label=<int_rate &le; 0.156<br/>gini = 0.5<br/>samples = 28<br/>value = [14, 14]>, fillcolor="#ffffff"] ;
784 -> 785 ;
786 [label=<dti &le; 11.53<br/>gini = 0.457<br/>samples = 17<br/>value = [6, 11]>, fillcolor="#a5d2f3"] ;
785 -> 786 ;
787 [label=<gini = 0.48<br/>samples = 10<br/>value = [6, 4]>, fillcolor="#f6d5bd"] ;
786 -> 787 ;
788 [label=<gini = 0.0<br/>samples = 7<br/>value = [0, 7]>, fillcolor="#399de5"] ;
786 -> 788 ;
789 [label=<purpose_debt_consolidation &le; 0.5<br/>gini = 0.397<br/>samples = 11<br/>value = [8, 3]>, fillcolor="#efb083"] ;
785 -> 789 ;
790 [label=<gini = 0.5<br/>samples = 6<br/>value = [3, 3]>, fillcolor="#ffffff"] ;
789 -> 790 ;
791 [label=<gini = 0.0<br/>samples = 5<br/>value = [5, 0]>, fillcolor="#e58139"] ;
789 -> 791 ;
792 [label=<gini = 0.0<br/>samples = 7<br/>value = [7, 0]>, fillcolor="#e58139"] ;
784 -> 792 ;
793 [label=<sub_grade_F2 &le; 0.5<br/>gini = 0.235<br/>samples = 1291<br/>value = [1115, 176]>, fillcolor="#e99558"] ;
767 -> 793 ;
794 [label=<purpose_small_business &le; 0.5<br/>gini = 0.232<br/>samples = 1284<br/>value = [1112, 172]>, fillcolor="#e99458"] ;
793 -> 794 ;
795 [label=<purpose_other &le; 0.5<br/>gini = 0.219<br/>samples = 1177<br/>value = [1030, 147]>, fillcolor="#e99355"] ;
794 -> 795 ;
796 [label=<addr_state_TN &le; 0.5<br/>gini = 0.201<br/>samples = 1049<br/>value = [930, 119]>, fillcolor="#e89152"] ;
795 -> 796 ;
797 [label=<gini = 0.2<br/>samples = 1048<br/>value = [930, 118]>, fillcolor="#e89152"] ;
796 -> 797 ;
798 [label=<gini = 0.0<br/>samples = 1<br/>value = [0, 1]>, fillcolor="#399de5"] ;
796 -> 798 ;
799 [label=<sub_grade_E3 &le; 0.5<br/>gini = 0.342<br/>samples = 128<br/>value = [100, 28]>, fillcolor="#eca470"] ;
795 -> 799 ;
800 [label=<gini = 0.314<br/>samples = 123<br/>value = [99, 24]>, fillcolor="#eba069"] ;
799 -> 800 ;
801 [label=<gini = 0.32<br/>samples = 5<br/>value = [1, 4]>, fillcolor="#6ab6ec"] ;
799 -> 801 ;
802 [label=<sub_grade_F1 &le; 0.5<br/>gini = 0.358<br/>samples = 107<br/>value = [82, 25]>, fillcolor="#eda775"] ;
794 -> 802 ;
803 [label=<int_rate &le; 0.16<br/>gini = 0.342<br/>samples = 105<br/>value = [82, 23]>, fillcolor="#eca471"] ;
802 -> 803 ;
804 [label=<gini = 0.283<br/>samples = 88<br/>value = [73, 15]>, fillcolor="#ea9b62"] ;
803 -> 804 ;
805 [label=<gini = 0.498<br/>samples = 17<br/>value = [9, 8]>, fillcolor="#fcf1e9"] ;
803 -> 805 ;
806 [label=<gini = 0.0<br/>samples = 2<br/>value = [0, 2]>, fillcolor="#399de5"] ;
802 -> 806 ;
807 [label=<emp_length &le; 8.0<br/>gini = 0.49<br/>samples = 7<br/>value = [3, 4]>, fillcolor="#cee6f8"] ;
793 -> 807 ;
808 [label=<dti &le; 12.435<br/>gini = 0.375<br/>samples = 4<br/>value = [3, 1]>, fillcolor="#eeab7b"] ;
807 -> 808 ;
809 [label=<gini = 0.0<br/>samples = 1<br/>value = [0, 1]>, fillcolor="#399de5"] ;
808 -> 809 ;
810 [label=<gini = 0.0<br/>samples = 3<br/>value = [3, 0]>, fillcolor="#e58139"] ;
808 -> 810 ;
811 [label=<gini = 0.0<br/>samples = 3<br/>value = [0, 3]>, fillcolor="#399de5"] ;
807 -> 811 ;
812 [label=<annual_inc &le; 39998.0<br/>gini = 0.357<br/>samples = 981<br/>value = [753, 228]>, fillcolor="#eda775"] ;
766 -> 812 ;
813 [label=<sub_grade_D4 &le; 0.5<br/>gini = 0.436<br/>samples = 202<br/>value = [137, 65]>, fillcolor="#f1bd97"] ;
812 -> 813 ;
814 [label=<dti &le; 20.54<br/>gini = 0.413<br/>samples = 182<br/>value = [129, 53]>, fillcolor="#f0b58a"] ;
813 -> 814 ;
815 [label=<emp_length &le; 1.5<br/>gini = 0.442<br/>samples = 158<br/>value = [106, 52]>, fillcolor="#f2bf9a"] ;
814 -> 815 ;
816 [label=<int_rate &le; 0.194<br/>gini = 0.351<br/>samples = 66<br/>value = [51, 15]>, fillcolor="#eda673"] ;
815 -> 816 ;
817 [label=<gini = 0.274<br/>samples = 55<br/>value = [46, 9]>, fillcolor="#ea9a60"] ;
816 -> 817 ;
818 [label=<gini = 0.496<br/>samples = 11<br/>value = [5, 6]>, fillcolor="#deeffb"] ;
816 -> 818 ;
819 [label=<sub_grade_D5 &le; 0.5<br/>gini = 0.481<br/>samples = 92<br/>value = [55, 37]>, fillcolor="#f6d6be"] ;
815 -> 819 ;
820 [label=<gini = 0.463<br/>samples = 85<br/>value = [54, 31]>, fillcolor="#f4c9ab"] ;
819 -> 820 ;
821 [label=<gini = 0.245<br/>samples = 7<br/>value = [1, 6]>, fillcolor="#5aade9"] ;
819 -> 821 ;
822 [label=<loan_amnt &le; 900.0<br/>gini = 0.08<br/>samples = 24<br/>value = [23, 1]>, fillcolor="#e68642"] ;
814 -> 822 ;
823 [label=<gini = 0.0<br/>samples = 1<br/>value = [0, 1]>, fillcolor="#399de5"] ;
822 -> 823 ;
824 [label=<gini = 0.0<br/>samples = 23<br/>value = [23, 0]>, fillcolor="#e58139"] ;
822 -> 824 ;
825 [label=<inq_last_6mths &le; 0.5<br/>gini = 0.48<br/>samples = 20<br/>value = [8, 12]>, fillcolor="#bddef6"] ;
813 -> 825 ;
826 [label=<loan_amnt &le; 3312.5<br/>gini = 0.375<br/>samples = 8<br/>value = [6, 2]>, fillcolor="#eeab7b"] ;
825 -> 826 ;
827 [label=<gini = 0.0<br/>samples = 1<br/>value = [0, 1]>, fillcolor="#399de5"] ;
826 -> 827 ;
828 [label=<addr_state_FL &le; 0.5<br/>gini = 0.245<br/>samples = 7<br/>value = [6, 1]>, fillcolor="#e9965a"] ;
826 -> 828 ;
829 [label=<gini = 0.0<br/>samples = 6<br/>value = [6, 0]>, fillcolor="#e58139"] ;
828 -> 829 ;
830 [label=<gini = 0.0<br/>samples = 1<br/>value = [0, 1]>, fillcolor="#399de5"] ;
828 -> 830 ;
831 [label=<emp_length &le; 1.5<br/>gini = 0.278<br/>samples = 12<br/>value = [2, 10]>, fillcolor="#61b1ea"] ;
825 -> 831 ;
832 [label=<gini = 0.0<br/>samples = 2<br/>value = [2, 0]>, fillcolor="#e58139"] ;
831 -> 832 ;
833 [label=<gini = 0.0<br/>samples = 10<br/>value = [0, 10]>, fillcolor="#399de5"] ;
831 -> 833 ;
834 [label=<purpose_small_business &le; 0.5<br/>gini = 0.331<br/>samples = 779<br/>value = [616, 163]>, fillcolor="#eca26d"] ;
812 -> 834 ;
835 [label=<addr_state_MT &le; 0.5<br/>gini = 0.309<br/>samples = 696<br/>value = [563, 133]>, fillcolor="#eb9f68"] ;
834 -> 835 ;
836 [label=<int_rate &le; 0.202<br/>gini = 0.305<br/>samples = 693<br/>value = [563, 130]>, fillcolor="#eb9e67"] ;
835 -> 836 ;
837 [label=<annual_inc &le; 232500.0<br/>gini = 0.291<br/>samples = 663<br/>value = [546, 117]>, fillcolor="#eb9c63"] ;
836 -> 837 ;
838 [label=<gini = 0.28<br/>samples = 642<br/>value = [534, 108]>, fillcolor="#ea9a61"] ;
837 -> 838 ;
839 [label=<gini = 0.49<br/>samples = 21<br/>value = [12, 9]>, fillcolor="#f8e0ce"] ;
837 -> 839 ;
840 [label=<addr_state_MA &le; 0.5<br/>gini = 0.491<br/>samples = 30<br/>value = [17, 13]>, fillcolor="#f9e1d0"] ;
836 -> 840 ;
841 [label=<gini = 0.466<br/>samples = 27<br/>value = [17, 10]>, fillcolor="#f4cbad"] ;
840 -> 841 ;
842 [label=<gini = 0.0<br/>samples = 3<br/>value = [0, 3]>, fillcolor="#399de5"] ;
840 -> 842 ;
843 [label=<gini = 0.0<br/>samples = 3<br/>value = [0, 3]>, fillcolor="#399de5"] ;
835 -> 843 ;
844 [label=<loan_amnt &le; 15700.0<br/>gini = 0.462<br/>samples = 83<br/>value = [53, 30]>, fillcolor="#f4c8a9"] ;
834 -> 844 ;
845 [label=<dti &le; 14.93<br/>gini = 0.371<br/>samples = 57<br/>value = [43, 14]>, fillcolor="#edaa79"] ;
844 -> 845 ;
846 [label=<dti &le; 7.25<br/>gini = 0.287<br/>samples = 46<br/>value = [38, 8]>, fillcolor="#ea9c63"] ;
845 -> 846 ;
847 [label=<gini = 0.444<br/>samples = 24<br/>value = [16, 8]>, fillcolor="#f2c09c"] ;
846 -> 847 ;
848 [label=<gini = 0.0<br/>samples = 22<br/>value = [22, 0]>, fillcolor="#e58139"] ;
846 -> 848 ;
849 [label=<int_rate &le; 0.186<br/>gini = 0.496<br/>samples = 11<br/>value = [5, 6]>, fillcolor="#deeffb"] ;
845 -> 849 ;
850 [label=<gini = 0.408<br/>samples = 7<br/>value = [5, 2]>, fillcolor="#efb388"] ;
849 -> 850 ;
851 [label=<gini = 0.0<br/>samples = 4<br/>value = [0, 4]>, fillcolor="#399de5"] ;
849 -> 851 ;
852 [label=<emp_length &le; 4.5<br/>gini = 0.473<br/>samples = 26<br/>value = [10, 16]>, fillcolor="#b5daf5"] ;
844 -> 852 ;
853 [label=<int_rate &le; 0.172<br/>gini = 0.32<br/>samples = 15<br/>value = [3, 12]>, fillcolor="#6ab6ec"] ;
852 -> 853 ;
854 [label=<gini = 0.444<br/>samples = 3<br/>value = [2, 1]>, fillcolor="#f2c09c"] ;
853 -> 854 ;
855 [label=<gini = 0.153<br/>samples = 12<br/>value = [1, 11]>, fillcolor="#4ba6e7"] ;
853 -> 855 ;
856 [label=<int_rate &le; 0.172<br/>gini = 0.463<br/>samples = 11<br/>value = [7, 4]>, fillcolor="#f4c9aa"] ;
852 -> 856 ;
857 [label=<gini = 0.0<br/>samples = 3<br/>value = [0, 3]>, fillcolor="#399de5"] ;
856 -> 857 ;
858 [label=<gini = 0.219<br/>samples = 8<br/>value = [7, 1]>, fillcolor="#e99355"] ;
856 -> 858 ;
859 [label=<sub_grade_F4 &le; 0.5<br/>gini = 0.2<br/>samples = 667<br/>value = [592, 75]>, fillcolor="#e89152"] ;
765 -> 859 ;
860 [label=<addr_state_CA &le; 0.5<br/>gini = 0.194<br/>samples = 661<br/>value = [589, 72]>, fillcolor="#e89051"] ;
859 -> 860 ;
861 [label=<pub_rec &le; 1.5<br/>gini = 0.168<br/>samples = 531<br/>value = [482, 49]>, fillcolor="#e88e4d"] ;
860 -> 861 ;
862 [label=<grade_F &le; 0.5<br/>gini = 0.165<br/>samples = 530<br/>value = [482, 48]>, fillcolor="#e88e4d"] ;
861 -> 862 ;
863 [label=<addr_state_MA &le; 0.5<br/>gini = 0.155<br/>samples = 509<br/>value = [466, 43]>, fillcolor="#e78d4b"] ;
862 -> 863 ;
864 [label=<addr_state_GA &le; 0.5<br/>gini = 0.144<br/>samples = 486<br/>value = [448, 38]>, fillcolor="#e78c4a"] ;
863 -> 864 ;
865 [label=<gini = 0.137<br/>samples = 474<br/>value = [439, 35]>, fillcolor="#e78b49"] ;
864 -> 865 ;
866 [label=<gini = 0.375<br/>samples = 12<br/>value = [9, 3]>, fillcolor="#eeab7b"] ;
864 -> 866 ;
867 [label=<emp_length &le; 9.5<br/>gini = 0.34<br/>samples = 23<br/>value = [18, 5]>, fillcolor="#eca470"] ;
863 -> 867 ;
868 [label=<gini = 0.255<br/>samples = 20<br/>value = [17, 3]>, fillcolor="#ea975c"] ;
867 -> 868 ;
869 [label=<gini = 0.444<br/>samples = 3<br/>value = [1, 2]>, fillcolor="#9ccef2"] ;
867 -> 869 ;
870 [label=<emp_length &le; 2.5<br/>gini = 0.363<br/>samples = 21<br/>value = [16, 5]>, fillcolor="#eda877"] ;
862 -> 870 ;
871 [label=<pub_rec &le; 0.5<br/>gini = 0.142<br/>samples = 13<br/>value = [12, 1]>, fillcolor="#e78c49"] ;
870 -> 871 ;
872 [label=<gini = 0.0<br/>samples = 12<br/>value = [12, 0]>, fillcolor="#e58139"] ;
871 -> 872 ;
873 [label=<gini = 0.0<br/>samples = 1<br/>value = [0, 1]>, fillcolor="#399de5"] ;
871 -> 873 ;
874 [label=<int_rate &le; 0.184<br/>gini = 0.5<br/>samples = 8<br/>value = [4, 4]>, fillcolor="#ffffff"] ;
870 -> 874 ;
875 [label=<gini = 0.32<br/>samples = 5<br/>value = [1, 4]>, fillcolor="#6ab6ec"] ;
874 -> 875 ;
876 [label=<gini = 0.0<br/>samples = 3<br/>value = [3, 0]>, fillcolor="#e58139"] ;
874 -> 876 ;
877 [label=<gini = 0.0<br/>samples = 1<br/>value = [0, 1]>, fillcolor="#399de5"] ;
861 -> 877 ;
878 [label=<int_rate &le; 0.151<br/>gini = 0.291<br/>samples = 130<br/>value = [107, 23]>, fillcolor="#eb9c64"] ;
860 -> 878 ;
879 [label=<annual_inc &le; 185000.0<br/>gini = 0.428<br/>samples = 58<br/>value = [40, 18]>, fillcolor="#f1ba92"] ;
878 -> 879 ;
880 [label=<sub_grade_D5 &le; 0.5<br/>gini = 0.408<br/>samples = 56<br/>value = [40, 16]>, fillcolor="#efb388"] ;
879 -> 880 ;
881 [label=<open_acc &le; 4.5<br/>gini = 0.397<br/>samples = 55<br/>value = [40, 15]>, fillcolor="#efb083"] ;
880 -> 881 ;
882 [label=<gini = 0.0<br/>samples = 1<br/>value = [0, 1]>, fillcolor="#399de5"] ;
881 -> 882 ;
883 [label=<gini = 0.384<br/>samples = 54<br/>value = [40, 14]>, fillcolor="#eead7e"] ;
881 -> 883 ;
884 [label=<gini = 0.0<br/>samples = 1<br/>value = [0, 1]>, fillcolor="#399de5"] ;
880 -> 884 ;
885 [label=<gini = 0.0<br/>samples = 2<br/>value = [0, 2]>, fillcolor="#399de5"] ;
879 -> 885 ;
886 [label=<pub_rec_bankruptcies &le; 0.5<br/>gini = 0.129<br/>samples = 72<br/>value = [67, 5]>, fillcolor="#e78a48"] ;
878 -> 886 ;
887 [label=<emp_length &le; 1.5<br/>gini = 0.108<br/>samples = 70<br/>value = [66, 4]>, fillcolor="#e78945"] ;
886 -> 887 ;
888 [label=<sub_grade_C4 &le; 0.5<br/>gini = 0.305<br/>samples = 16<br/>value = [13, 3]>, fillcolor="#eb9e67"] ;
887 -> 888 ;
889 [label=<gini = 0.231<br/>samples = 15<br/>value = [13, 2]>, fillcolor="#e99457"] ;
