digraph Tree {
node [shape=box, style="filled, rounded", color="black", fontname=helvetica] ;
edge [fontname=helvetica] ;
0 [label=<int_rate &le; 0.14<br/>gini = 0.258<br/>samples = 41292<br/>value = [35006, 6286]>, fillcolor="#ea985d"] ;
1 [label=<int_rate &le; 0.093<br/>gini = 0.2<br/>samples = 28907<br/>value = [25648, 3259]>, fillcolor="#e89152"] ;
0 -> 1 [labeldistance=2.5, labelangle=45, headlabel="True"] ;
2 [label=<annual_inc &le; 54036.0<br/>gini = 0.113<br/>samples = 10244<br/>value = [9629, 615]>, fillcolor="#e78946"] ;
1 -> 2 ;
3 [label=<annual_inc &le; 15252.0<br/>gini = 0.154<br/>samples = 4684<br/>value = [4290, 394]>, fillcolor="#e78d4b"] ;
2 -> 3 ;
4 [label=<addr_state_IL &le; 0.5<br/>gini = 0.302<br/>samples = 140<br/>value = [114, 26]>, fillcolor="#eb9e66"] ;
3 -> 4 ;
5 [label=<inq_last_6mths &le; 3.5<br/>gini = 0.268<br/>samples = 132<br/>value = [111, 21]>, fillcolor="#ea995e"] ;
4 -> 5 ;
6 [label=<annual_inc &le; 15087.5<br/>gini = 0.25<br/>samples = 130<br/>value = [111, 19]>, fillcolor="#e9975b"] ;
5 -> 6 ;
7 [label=<dti &le; 1.245<br/>gini = 0.232<br/>samples = 127<br/>value = [110, 17]>, fillcolor="#e99458"] ;
6 -> 7 ;
8 [label=<int_rate &le; 0.075<br/>gini = 0.48<br/>samples = 10<br/>value = [6, 4]>, fillcolor="#f6d5bd"] ;
7 -> 8 ;
9 [label=<gini = 0.0<br/>samples = 3<br/>value = [0, 3]>, fillcolor="#399de5"] ;
8 -> 9 ;
10 [label=<addr_state_TX &le; 0.5<br/>gini = 0.245<br/>samples = 7<br/>value = [6, 1]>, fillcolor="#e9965a"] ;
8 -> 10 ;
11 [label=<gini = 0.0<br/>samples = 6<br/>value = [6, 0]>, fillcolor="#e58139"] ;
10 -> 11 ;
12 [label=<gini = 0.0<br/>samples = 1<br/>value = [0, 1]>, fillcolor="#399de5"] ;
10 -> 12 ;
13 [label=<total_acc &le; 26.5<br/>gini = 0.198<br/>samples = 117<br/>value = [104, 13]>, fillcolor="#e89152"] ;
7 -> 13 ;
14 [label=<loan_amnt &le; 6662.5<br/>gini = 0.168<br/>samples = 108<br/>value = [98, 10]>, fillcolor="#e88e4d"] ;
13 -> 14 ;
15 [label=<int_rate &le; 0.056<br/>gini = 0.145<br/>samples = 102<br/>value = [94, 8]>, fillcolor="#e78c4a"] ;
14 -> 15 ;
16 [label=<gini = 0.0<br/>samples = 1<br/>value = [0, 1]>, fillcolor="#399de5"] ;
15 -> 16 ;
17 [label=<purpose_medical &le; 0.5<br/>gini = 0.129<br/>samples = 101<br/>value = [94, 7]>, fillcolor="#e78a48"] ;
15 -> 17 ;
18 [label=<addr_state_OR &le; 0.5<br/>gini = 0.114<br/>samples = 99<br/>value = [93, 6]>, fillcolor="#e78946"] ;
17 -> 18 ;
19 [label=<addr_state_KY &le; 0.5<br/>gini = 0.098<br/>samples = 97<br/>value = [92, 5]>, fillcolor="#e68844"] ;
18 -> 19 ;
20 [label=<purpose_vacation &le; 0.5<br/>gini = 0.081<br/>samples = 95<br/>value = [91, 4]>, fillcolor="#e68742"] ;
19 -> 20 ;
21 [label=<addr_state_NJ &le; 0.5<br/>gini = 0.062<br/>samples = 93<br/>value = [90, 3]>, fillcolor="#e68540"] ;
20 -> 21 ;
22 [label=<open_acc &le; 12.5<br/>gini = 0.044<br/>samples = 89<br/>value = [87, 2]>, fillcolor="#e6843e"] ;
21 -> 22 ;
23 [label=<emp_length &le; 4.5<br/>gini = 0.024<br/>samples = 82<br/>value = [81, 1]>, fillcolor="#e5833b"] ;
22 -> 23 ;
24 [label=<gini = 0.0<br/>samples = 74<br/>value = [74, 0]>, fillcolor="#e58139"] ;
23 -> 24 ;
25 [label=<addr_state_FL &le; 0.5<br/>gini = 0.219<br/>samples = 8<br/>value = [7, 1]>, fillcolor="#e99355"] ;
23 -> 25 ;
26 [label=<gini = 0.0<br/>samples = 6<br/>value = [6, 0]>, fillcolor="#e58139"] ;
25 -> 26 ;
27 [label=<dti &le; 10.5<br/>gini = 0.5<br/>samples = 2<br/>value = [1, 1]>, fillcolor="#ffffff"] ;
25 -> 27 ;
28 [label=<gini = 0.0<br/>samples = 1<br/>value = [1, 0]>, fillcolor="#e58139"] ;
27 -> 28 ;
29 [label=<gini = 0.0<br/>samples = 1<br/>value = [0, 1]>, fillcolor="#399de5"] ;
27 -> 29 ;
30 [label=<addr_state_CA &le; 0.5<br/>gini = 0.245<br/>samples = 7<br/>value = [6, 1]>, fillcolor="#e9965a"] ;
22 -> 30 ;
31 [label=<gini = 0.0<br/>samples = 6<br/>value = [6, 0]>, fillcolor="#e58139"] ;
30 -> 31 ;
32 [label=<gini = 0.0<br/>samples = 1<br/>value = [0, 1]>, fillcolor="#399de5"] ;
30 -> 32 ;
33 [label=<inq_last_6mths &le; 0.5<br/>gini = 0.375<br/>samples = 4<br/>value = [3, 1]>, fillcolor="#eeab7b"] ;
21 -> 33 ;
34 [label=<gini = 0.0<br/>samples = 3<br/>value = [3, 0]>, fillcolor="#e58139"] ;
33 -> 34 ;
35 [label=<gini = 0.0<br/>samples = 1<br/>value = [0, 1]>, fillcolor="#399de5"] ;
33 -> 35 ;
36 [label=<int_rate &le; 0.077<br/>gini = 0.5<br/>samples = 2<br/>value = [1, 1]>, fillcolor="#ffffff"] ;
20 -> 36 ;
37 [label=<gini = 0.0<br/>samples = 1<br/>value = [1, 0]>, fillcolor="#e58139"] ;
36 -> 37 ;
38 [label=<gini = 0.0<br/>samples = 1<br/>value = [0, 1]>, fillcolor="#399de5"] ;
36 -> 38 ;
39 [label=<sub_grade_A2 &le; 0.5<br/>gini = 0.5<br/>samples = 2<br/>value = [1, 1]>, fillcolor="#ffffff"] ;
19 -> 39 ;
40 [label=<gini = 0.0<br/>samples = 1<br/>value = [1, 0]>, fillcolor="#e58139"] ;
39 -> 40 ;
41 [label=<gini = 0.0<br/>samples = 1<br/>value = [0, 1]>, fillcolor="#399de5"] ;
39 -> 41 ;
42 [label=<annual_inc &le; 12504.0<br/>gini = 0.5<br/>samples = 2<br/>value = [1, 1]>, fillcolor="#ffffff"] ;
18 -> 42 ;
43 [label=<gini = 0.0<br/>samples = 1<br/>value = [1, 0]>, fillcolor="#e58139"] ;
42 -> 43 ;
44 [label=<gini = 0.0<br/>samples = 1<br/>value = [0, 1]>, fillcolor="#399de5"] ;
42 -> 44 ;
45 [label=<emp_length &le; 6.0<br/>gini = 0.5<br/>samples = 2<br/>value = [1, 1]>, fillcolor="#ffffff"] ;
17 -> 45 ;
46 [label=<gini = 0.0<br/>samples = 1<br/>value = [0, 1]>, fillcolor="#399de5"] ;
45 -> 46 ;
47 [label=<gini = 0.0<br/>samples = 1<br/>value = [1, 0]>, fillcolor="#e58139"] ;
45 -> 47 ;
48 [label=<int_rate &le; 0.074<br/>gini = 0.444<br/>samples = 6<br/>value = [4, 2]>, fillcolor="#f2c09c"] ;
14 -> 48 ;
49 [label=<gini = 0.0<br/>samples = 4<br/>value = [4, 0]>, fillcolor="#e58139"] ;
48 -> 49 ;
50 [label=<gini = 0.0<br/>samples = 2<br/>value = [0, 2]>, fillcolor="#399de5"] ;
48 -> 50 ;
51 [label=<inq_last_6mths &le; 1.5<br/>gini = 0.444<br/>samples = 9<br/>value = [6, 3]>, fillcolor="#f2c09c"] ;
13 -> 51 ;
52 [label=<gini = 0.0<br/>samples = 6<br/>value = [6, 0]>, fillcolor="#e58139"] ;
51 -> 52 ;
53 [label=<gini = 0.0<br/>samples = 3<br/>value = [0, 3]>, fillcolor="#399de5"] ;
51 -> 53 ;
54 [label=<loan_amnt &le; 1737.5<br/>gini = 0.444<br/>samples = 3<br/>value = [1, 2]>, fillcolor="#9ccef2"] ;
6 -> 54 ;
55 [label=<gini = 0.0<br/>samples = 1<br/>value = [1, 0]>, fillcolor="#e58139"] ;
54 -> 55 ;
56 [label=<gini = 0.0<br/>samples = 2<br/>value = [0, 2]>, fillcolor="#399de5"] ;
54 -> 56 ;
57 [label=<gini = 0.0<br/>samples = 2<br/>value = [0, 2]>, fillcolor="#399de5"] ;
5 -> 57 ;
58 [label=<dti &le; 7.69<br/>gini = 0.469<br/>samples = 8<br/>value = [3, 5]>, fillcolor="#b0d8f5"] ;
4 -> 58 ;
59 [label=<gini = 0.0<br/>samples = 2<br/>value = [2, 0]>, fillcolor="#e58139"] ;
58 -> 59 ;
60 [label=<sub_grade_A5 &le; 0.5<br/>gini = 0.278<br/>samples = 6<br/>value = [1, 5]>, fillcolor="#61b1ea"] ;
58 -> 60 ;
61 [label=<purpose_other &le; 0.5<br/>gini = 0.5<br/>samples = 2<br/>value = [1, 1]>, fillcolor="#ffffff"] ;
60 -> 61 ;
62 [label=<gini = 0.0<br/>samples = 1<br/>value = [0, 1]>, fillcolor="#399de5"] ;
61 -> 62 ;
63 [label=<gini = 0.0<br/>samples = 1<br/>value = [1, 0]>, fillcolor="#e58139"] ;
61 -> 63 ;
64 [label=<gini = 0.0<br/>samples = 4<br/>value = [0, 4]>, fillcolor="#399de5"] ;
60 -> 64 ;
65 [label=<int_rate &le; 0.065<br/>gini = 0.149<br/>samples = 4544<br/>value = [4176, 368]>, fillcolor="#e78c4a"] ;
3 -> 65 ;
66 [label=<inq_last_6mths &le; 1.5<br/>gini = 0.096<br/>samples = 886<br/>value = [841, 45]>, fillcolor="#e68844"] ;
65 -> 66 ;
67 [label=<addr_state_WA &le; 0.5<br/>gini = 0.078<br/>samples = 788<br/>value = [756, 32]>, fillcolor="#e68641"] ;
66 -> 67 ;
68 [label=<int_rate &le; 0.06<br/>gini = 0.07<br/>samples = 772<br/>value = [744, 28]>, fillcolor="#e68640"] ;
67 -> 68 ;
69 [label=<loan_amnt &le; 11750.0<br/>gini = 0.095<br/>samples = 501<br/>value = [476, 25]>, fillcolor="#e68843"] ;
68 -> 69 ;
70 [label=<purpose_small_business &le; 0.5<br/>gini = 0.082<br/>samples = 464<br/>value = [444, 20]>, fillcolor="#e68742"] ;
69 -> 70 ;
71 [label=<addr_state_FL &le; 0.5<br/>gini = 0.076<br/>samples = 452<br/>value = [434, 18]>, fillcolor="#e68641"] ;
70 -> 71 ;
72 [label=<annual_inc &le; 19600.0<br/>gini = 0.065<br/>samples = 416<br/>value = [402, 14]>, fillcolor="#e68540"] ;
71 -> 72 ;
73 [label=<addr_state_MO &le; 0.5<br/>gini = 0.278<br/>samples = 12<br/>value = [10, 2]>, fillcolor="#ea9a61"] ;
72 -> 73 ;
74 [label=<addr_state_AR &le; 0.5<br/>gini = 0.165<br/>samples = 11<br/>value = [10, 1]>, fillcolor="#e88e4d"] ;
73 -> 74 ;
75 [label=<gini = 0.0<br/>samples = 10<br/>value = [10, 0]>, fillcolor="#e58139"] ;
74 -> 75 ;
76 [label=<gini = 0.0<br/>samples = 1<br/>value = [0, 1]>, fillcolor="#399de5"] ;
74 -> 76 ;
77 [label=<gini = 0.0<br/>samples = 1<br/>value = [0, 1]>, fillcolor="#399de5"] ;
73 -> 77 ;
78 [label=<purpose_moving &le; 0.5<br/>gini = 0.058<br/>samples = 404<br/>value = [392, 12]>, fillcolor="#e6853f"] ;
72 -> 78 ;
79 [label=<total_acc &le; 47.5<br/>gini = 0.053<br/>samples = 400<br/>value = [389, 11]>, fillcolor="#e6853f"] ;
78 -> 79 ;
80 [label=<addr_state_AL &le; 0.5<br/>gini = 0.049<br/>samples = 394<br/>value = [384, 10]>, fillcolor="#e6843e"] ;
79 -> 80 ;
81 [label=<int_rate &le; 0.059<br/>gini = 0.045<br/>samples = 388<br/>value = [379, 9]>, fillcolor="#e6843e"] ;
80 -> 81 ;
82 [label=<purpose_vacation &le; 0.5<br/>gini = 0.026<br/>samples = 300<br/>value = [296, 4]>, fillcolor="#e5833c"] ;
81 -> 82 ;
83 [label=<addr_state_CA &le; 0.5<br/>gini = 0.02<br/>samples = 293<br/>value = [290, 3]>, fillcolor="#e5823b"] ;
82 -> 83 ;
84 [label=<open_acc &le; 15.5<br/>gini = 0.008<br/>samples = 243<br/>value = [242, 1]>, fillcolor="#e5823a"] ;
83 -> 84 ;
85 [label=<gini = 0.0<br/>samples = 228<br/>value = [228, 0]>, fillcolor="#e58139"] ;
84 -> 85 ;
86 [label=<total_acc &le; 26.0<br/>gini = 0.124<br/>samples = 15<br/>value = [14, 1]>, fillcolor="#e78a47"] ;
84 -> 86 ;
87 [label=<gini = 0.0<br/>samples = 1<br/>value = [0, 1]>, fillcolor="#399de5"] ;
86 -> 87 ;
88 [label=<gini = 0.0<br/>samples = 14<br/>value = [14, 0]>, fillcolor="#e58139"] ;
86 -> 88 ;
89 [label=<open_acc &le; 5.5<br/>gini = 0.077<br/>samples = 50<br/>value = [48, 2]>, fillcolor="#e68641"] ;
83 -> 89 ;
90 [label=<gini = 0.0<br/>samples = 1<br/>value = [0, 1]>, fillcolor="#399de5"] ;
89 -> 90 ;
91 [label=<total_acc &le; 13.5<br/>gini = 0.04<br/>samples = 49<br/>value = [48, 1]>, fillcolor="#e6843d"] ;
89 -> 91 ;
92 [label=<purpose_credit_card &le; 0.5<br/>gini = 0.153<br/>samples = 12<br/>value = [11, 1]>, fillcolor="#e78c4b"] ;
91 -> 92 ;
93 [label=<gini = 0.0<br/>samples = 10<br/>value = [10, 0]>, fillcolor="#e58139"] ;
92 -> 93 ;
94 [label=<annual_inc &le; 47500.0<br/>gini = 0.5<br/>samples = 2<br/>value = [1, 1]>, fillcolor="#ffffff"] ;
92 -> 94 ;
95 [label=<gini = 0.0<br/>samples = 1<br/>value = [0, 1]>, fillcolor="#399de5"] ;
94 -> 95 ;
96 [label=<gini = 0.0<br/>samples = 1<br/>value = [1, 0]>, fillcolor="#e58139"] ;
94 -> 96 ;
97 [label=<gini = 0.0<br/>samples = 37<br/>value = [37, 0]>, fillcolor="#e58139"] ;
91 -> 97 ;
98 [label=<emp_length &le; 1.0<br/>gini = 0.245<br/>samples = 7<br/>value = [6, 1]>, fillcolor="#e9965a"] ;
82 -> 98 ;
99 [label=<gini = 0.0<br/>samples = 1<br/>value = [0, 1]>, fillcolor="#399de5"] ;
98 -> 99 ;
100 [label=<gini = 0.0<br/>samples = 6<br/>value = [6, 0]>, fillcolor="#e58139"] ;
98 -> 100 ;
101 [label=<addr_state_NY &le; 0.5<br/>gini = 0.107<br/>samples = 88<br/>value = [83, 5]>, fillcolor="#e78945"] ;
81 -> 101 ;
102 [label=<emp_length &le; 7.5<br/>gini = 0.071<br/>samples = 81<br/>value = [78, 3]>, fillcolor="#e68641"] ;
101 -> 102 ;
103 [label=<addr_state_MO &le; 0.5<br/>gini = 0.03<br/>samples = 65<br/>value = [64, 1]>, fillcolor="#e5833c"] ;
102 -> 103 ;
104 [label=<gini = 0.0<br/>samples = 59<br/>value = [59, 0]>, fillcolor="#e58139"] ;
103 -> 104 ;
105 [label=<inq_last_6mths &le; 0.5<br/>gini = 0.278<br/>samples = 6<br/>value = [5, 1]>, fillcolor="#ea9a61"] ;
103 -> 105 ;
106 [label=<gini = 0.0<br/>samples = 1<br/>value = [0, 1]>, fillcolor="#399de5"] ;
105 -> 106 ;
107 [label=<gini = 0.0<br/>samples = 5<br/>value = [5, 0]>, fillcolor="#e58139"] ;
105 -> 107 ;
108 [label=<open_acc &le; 5.5<br/>gini = 0.219<br/>samples = 16<br/>value = [14, 2]>, fillcolor="#e99355"] ;
102 -> 108 ;
109 [label=<gini = 0.0<br/>samples = 1<br/>value = [0, 1]>, fillcolor="#399de5"] ;
108 -> 109 ;
110 [label=<annual_inc &le; 31000.0<br/>gini = 0.124<br/>samples = 15<br/>value = [14, 1]>, fillcolor="#e78a47"] ;
108 -> 110 ;
111 [label=<emp_length &le; 9.0<br/>gini = 0.5<br/>samples = 2<br/>value = [1, 1]>, fillcolor="#ffffff"] ;
110 -> 111 ;
112 [label=<gini = 0.0<br/>samples = 1<br/>value = [0, 1]>, fillcolor="#399de5"] ;
111 -> 112 ;
113 [label=<gini = 0.0<br/>samples = 1<br/>value = [1, 0]>, fillcolor="#e58139"] ;
111 -> 113 ;
114 [label=<gini = 0.0<br/>samples = 13<br/>value = [13, 0]>, fillcolor="#e58139"] ;
110 -> 114 ;
115 [label=<dti &le; 11.095<br/>gini = 0.408<br/>samples = 7<br/>value = [5, 2]>, fillcolor="#efb388"] ;
101 -> 115 ;
116 [label=<annual_inc &le; 30000.0<br/>gini = 0.444<br/>samples = 3<br/>value = [1, 2]>, fillcolor="#9ccef2"] ;
115 -> 116 ;
117 [label=<gini = 0.0<br/>samples = 1<br/>value = [1, 0]>, fillcolor="#e58139"] ;
116 -> 117 ;
118 [label=<gini = 0.0<br/>samples = 2<br/>value = [0, 2]>, fillcolor="#399de5"] ;
116 -> 118 ;
119 [label=<gini = 0.0<br/>samples = 4<br/>value = [4, 0]>, fillcolor="#e58139"] ;
115 -> 119 ;
120 [label=<loan_amnt &le; 2775.0<br/>gini = 0.278<br/>samples = 6<br/>value = [5, 1]>, fillcolor="#ea9a61"] ;
80 -> 120 ;
121 [label=<gini = 0.0<br/>samples = 1<br/>value = [0, 1]>, fillcolor="#399de5"] ;
120 -> 121 ;
122 [label=<gini = 0.0<br/>samples = 5<br/>value = [5, 0]>, fillcolor="#e58139"] ;
120 -> 122 ;
123 [label=<open_acc &le; 13.0<br/>gini = 0.278<br/>samples = 6<br/>value = [5, 1]>, fillcolor="#ea9a61"] ;
79 -> 123 ;
124 [label=<gini = 0.0<br/>samples = 1<br/>value = [0, 1]>, fillcolor="#399de5"] ;
123 -> 124 ;
125 [label=<gini = 0.0<br/>samples = 5<br/>value = [5, 0]>, fillcolor="#e58139"] ;
123 -> 125 ;
126 [label=<open_acc &le; 12.0<br/>gini = 0.375<br/>samples = 4<br/>value = [3, 1]>, fillcolor="#eeab7b"] ;
78 -> 126 ;
127 [label=<gini = 0.0<br/>samples = 3<br/>value = [3, 0]>, fillcolor="#e58139"] ;
126 -> 127 ;
128 [label=<gini = 0.0<br/>samples = 1<br/>value = [0, 1]>, fillcolor="#399de5"] ;
126 -> 128 ;
129 [label=<dti &le; 26.555<br/>gini = 0.198<br/>samples = 36<br/>value = [32, 4]>, fillcolor="#e89152"] ;
71 -> 129 ;
130 [label=<inq_last_6mths &le; 0.5<br/>gini = 0.157<br/>samples = 35<br/>value = [32, 3]>, fillcolor="#e78d4c"] ;
129 -> 130 ;
131 [label=<gini = 0.0<br/>samples = 23<br/>value = [23, 0]>, fillcolor="#e58139"] ;
130 -> 131 ;
132 [label=<emp_length &le; 7.5<br/>gini = 0.375<br/>samples = 12<br/>value = [9, 3]>, fillcolor="#eeab7b"] ;
130 -> 132 ;
133 [label=<dti &le; 18.71<br/>gini = 0.18<br/>samples = 10<br/>value = [9, 1]>, fillcolor="#e88f4f"] ;
132 -> 133 ;
134 [label=<gini = 0.0<br/>samples = 9<br/>value = [9, 0]>, fillcolor="#e58139"] ;
133 -> 134 ;
135 [label=<gini = 0.0<br/>samples = 1<br/>value = [0, 1]>, fillcolor="#399de5"] ;
133 -> 135 ;
136 [label=<gini = 0.0<br/>samples = 2<br/>value = [0, 2]>, fillcolor="#399de5"] ;
132 -> 136 ;
137 [label=<gini = 0.0<br/>samples = 1<br/>value = [0, 1]>, fillcolor="#399de5"] ;
129 -> 137 ;
138 [label=<addr_state_GA &le; 0.5<br/>gini = 0.278<br/>samples = 12<br/>value = [10, 2]>, fillcolor="#ea9a61"] ;
70 -> 138 ;
139 [label=<addr_state_MA &le; 0.5<br/>gini = 0.165<br/>samples = 11<br/>value = [10, 1]>, fillcolor="#e88e4d"] ;
138 -> 139 ;
140 [label=<gini = 0.0<br/>samples = 10<br/>value = [10, 0]>, fillcolor="#e58139"] ;
139 -> 140 ;
141 [label=<gini = 0.0<br/>samples = 1<br/>value = [0, 1]>, fillcolor="#399de5"] ;
139 -> 141 ;
142 [label=<gini = 0.0<br/>samples = 1<br/>value = [0, 1]>, fillcolor="#399de5"] ;
138 -> 142 ;
143 [label=<total_acc &le; 12.5<br/>gini = 0.234<br/>samples = 37<br/>value = [32, 5]>, fillcolor="#e99558"] ;
69 -> 143 ;
144 [label=<int_rate &le; 0.057<br/>gini = 0.5<br/>samples = 4<br/>value = [2, 2]>, fillcolor="#ffffff"] ;
143 -> 144 ;
145 [label=<gini = 0.0<br/>samples = 2<br/>value = [0, 2]>, fillcolor="#399de5"] ;
144 -> 145 ;
146 [label=<gini = 0.0<br/>samples = 2<br/>value = [2, 0]>, fillcolor="#e58139"] ;
144 -> 146 ;
147 [label=<addr_state_CA &le; 0.5<br/>gini = 0.165<br/>samples = 33<br/>value = [30, 3]>, fillcolor="#e88e4d"] ;
143 -> 147 ;
148 [label=<addr_state_MD &le; 0.5<br/>gini = 0.121<br/>samples = 31<br/>value = [29, 2]>, fillcolor="#e78a47"] ;
147 -> 148 ;
149 [label=<addr_state_CT &le; 0.5<br/>gini = 0.067<br/>samples = 29<br/>value = [28, 1]>, fillcolor="#e68640"] ;
148 -> 149 ;
150 [label=<gini = 0.0<br/>samples = 26<br/>value = [26, 0]>, fillcolor="#e58139"] ;
149 -> 150 ;
151 [label=<inq_last_6mths &le; 0.5<br/>gini = 0.444<br/>samples = 3<br/>value = [2, 1]>, fillcolor="#f2c09c"] ;
149 -> 151 ;
152 [label=<gini = 0.0<br/>samples = 2<br/>value = [2, 0]>, fillcolor="#e58139"] ;
151 -> 152 ;
153 [label=<gini = 0.0<br/>samples = 1<br/>value = [0, 1]>, fillcolor="#399de5"] ;
151 -> 153 ;
154 [label=<emp_length &le; 6.0<br/>gini = 0.5<br/>samples = 2<br/>value = [1, 1]>, fillcolor="#ffffff"] ;
148 -> 154 ;
155 [label=<gini = 0.0<br/>samples = 1<br/>value = [0, 1]>, fillcolor="#399de5"] ;
154 -> 155 ;
156 [label=<gini = 0.0<br/>samples = 1<br/>value = [1, 0]>, fillcolor="#e58139"] ;
154 -> 156 ;
157 [label=<inq_last_6mths &le; 0.5<br/>gini = 0.5<br/>samples = 2<br/>value = [1, 1]>, fillcolor="#ffffff"] ;
147 -> 157 ;
158 [label=<gini = 0.0<br/>samples = 1<br/>value = [0, 1]>, fillcolor="#399de5"] ;
157 -> 158 ;
159 [label=<gini = 0.0<br/>samples = 1<br/>value = [1, 0]>, fillcolor="#e58139"] ;
157 -> 159 ;
160 [label=<addr_state_NM &le; 0.5<br/>gini = 0.022<br/>samples = 271<br/>value = [268, 3]>, fillcolor="#e5823b"] ;
68 -> 160 ;
161 [label=<total_acc &le; 44.5<br/>gini = 0.015<br/>samples = 269<br/>value = [267, 2]>, fillcolor="#e5823a"] ;
160 -> 161 ;
162 [label=<purpose_medical &le; 0.5<br/>gini = 0.008<br/>samples = 263<br/>value = [262, 1]>, fillcolor="#e5813a"] ;
161 -> 162 ;
163 [label=<gini = 0.0<br/>samples = 255<br/>value = [255, 0]>, fillcolor="#e58139"] ;
162 -> 163 ;
164 [label=<total_acc &le; 13.5<br/>gini = 0.219<br/>samples = 8<br/>value = [7, 1]>, fillcolor="#e99355"] ;
162 -> 164 ;
165 [label=<gini = 0.0<br/>samples = 1<br/>value = [0, 1]>, fillcolor="#399de5"] ;
164 -> 165 ;
166 [label=<gini = 0.0<br/>samples = 7<br/>value = [7, 0]>, fillcolor="#e58139"] ;
164 -> 166 ;
167 [label=<loan_amnt &le; 3700.0<br/>gini = 0.278<br/>samples = 6<br/>value = [5, 1]>, fillcolor="#ea9a61"] ;
161 -> 167 ;
168 [label=<gini = 0.0<br/>samples = 1<br/>value = [0, 1]>, fillcolor="#399de5"] ;
167 -> 168 ;
169 [label=<gini = 0.0<br/>samples = 5<br/>value = [5, 0]>, fillcolor="#e58139"] ;
167 -> 169 ;
170 [label=<dti &le; 9.81<br/>gini = 0.5<br/>samples = 2<br/>value = [1, 1]>, fillcolor="#ffffff"] ;
160 -> 170 ;
171 [label=<gini = 0.0<br/>samples = 1<br/>value = [0, 1]>, fillcolor="#399de5"] ;
170 -> 171 ;
172 [label=<gini = 0.0<br/>samples = 1<br/>value = [1, 0]>, fillcolor="#e58139"] ;
170 -> 172 ;
173 [label=<total_acc &le; 15.0<br/>gini = 0.375<br/>samples = 16<br/>value = [12, 4]>, fillcolor="#eeab7b"] ;
67 -> 173 ;
174 [label=<int_rate &le; 0.056<br/>gini = 0.444<br/>samples = 6<br/>value = [2, 4]>, fillcolor="#9ccef2"] ;
173 -> 174 ;
175 [label=<gini = 0.0<br/>samples = 2<br/>value = [2, 0]>, fillcolor="#e58139"] ;
174 -> 175 ;
176 [label=<gini = 0.0<br/>samples = 4<br/>value = [0, 4]>, fillcolor="#399de5"] ;
174 -> 176 ;
177 [label=<gini = 0.0<br/>samples = 10<br/>value = [10, 0]>, fillcolor="#e58139"] ;
173 -> 177 ;
178 [label=<annual_inc &le; 53700.0<br/>gini = 0.23<br/>samples = 98<br/>value = [85, 13]>, fillcolor="#e99457"] ;
66 -> 178 ;
179 [label=<addr_state_WV &le; 0.5<br/>gini = 0.203<br/>samples = 96<br/>value = [85, 11]>, fillcolor="#e89153"] ;
178 -> 179 ;
180 [label=<addr_state_LA &le; 0.5<br/>gini = 0.188<br/>samples = 95<br/>value = [85, 10]>, fillcolor="#e89050"] ;
179 -> 180 ;
181 [label=<addr_state_CO &le; 0.5<br/>gini = 0.173<br/>samples = 94<br/>value = [85, 9]>, fillcolor="#e88e4e"] ;
180 -> 181 ;
182 [label=<addr_state_MA &le; 0.5<br/>gini = 0.143<br/>samples = 90<br/>value = [83, 7]>, fillcolor="#e78c4a"] ;
181 -> 182 ;
183 [label=<emp_length &le; 1.5<br/>gini = 0.11<br/>samples = 86<br/>value = [81, 5]>, fillcolor="#e78945"] ;
182 -> 183 ;
184 [label=<addr_state_OH &le; 0.5<br/>gini = 0.337<br/>samples = 14<br/>value = [11, 3]>, fillcolor="#eca36f"] ;
183 -> 184 ;
185 [label=<total_acc &le; 38.0<br/>gini = 0.26<br/>samples = 13<br/>value = [11, 2]>, fillcolor="#ea985d"] ;
184 -> 185 ;
186 [label=<addr_state_CA &le; 0.5<br/>gini = 0.153<br/>samples = 12<br/>value = [11, 1]>, fillcolor="#e78c4b"] ;
185 -> 186 ;
187 [label=<gini = 0.0<br/>samples = 10<br/>value = [10, 0]>, fillcolor="#e58139"] ;
186 -> 187 ;
188 [label=<dti &le; 16.17<br/>gini = 0.5<br/>samples = 2<br/>value = [1, 1]>, fillcolor="#ffffff"] ;
186 -> 188 ;
189 [label=<gini = 0.0<br/>samples = 1<br/>value = [1, 0]>, fillcolor="#e58139"] ;
188 -> 189 ;
190 [label=<gini = 0.0<br/>samples = 1<br/>value = [0, 1]>, fillcolor="#399de5"] ;
188 -> 190 ;
191 [label=<gini = 0.0<br/>samples = 1<br/>value = [0, 1]>, fillcolor="#399de5"] ;
185 -> 191 ;
192 [label=<gini = 0.0<br/>samples = 1<br/>value = [0, 1]>, fillcolor="#399de5"] ;
184 -> 192 ;
193 [label=<int_rate &le; 0.063<br/>gini = 0.054<br/>samples = 72<br/>value = [70, 2]>, fillcolor="#e6853f"] ;
183 -> 193 ;
194 [label=<addr_state_NJ &le; 0.5<br/>gini = 0.028<br/>samples = 71<br/>value = [70, 1]>, fillcolor="#e5833c"] ;
193 -> 194 ;
195 [label=<gini = 0.0<br/>samples = 66<br/>value = [66, 0]>, fillcolor="#e58139"] ;
194 -> 195 ;
196 [label=<emp_length &le; 7.0<br/>gini = 0.32<br/>samples = 5<br/>value = [4, 1]>, fillcolor="#eca06a"] ;
194 -> 196 ;
197 [label=<int_rate &le; 0.057<br/>gini = 0.5<br/>samples = 2<br/>value = [1, 1]>, fillcolor="#ffffff"] ;
196 -> 197 ;
198 [label=<gini = 0.0<br/>samples = 1<br/>value = [0, 1]>, fillcolor="#399de5"] ;
197 -> 198 ;
199 [label=<gini = 0.0<br/>samples = 1<br/>value = [1, 0]>, fillcolor="#e58139"] ;
197 -> 199 ;
200 [label=<gini = 0.0<br/>samples = 3<br/>value = [3, 0]>, fillcolor="#e58139"] ;
196 -> 200 ;
201 [label=<gini = 0.0<br/>samples = 1<br/>value = [0, 1]>, fillcolor="#399de5"] ;
193 -> 201 ;
202 [label=<total_acc &le; 19.5<br/>gini = 0.5<br/>samples = 4<br/>value = [2, 2]>, fillcolor="#ffffff"] ;
182 -> 202 ;
203 [label=<gini = 0.0<br/>samples = 2<br/>value = [0, 2]>, fillcolor="#399de5"] ;
202 -> 203 ;
204 [label=<gini = 0.0<br/>samples = 2<br/>value = [2, 0]>, fillcolor="#e58139"] ;
202 -> 204 ;
205 [label=<annual_inc &le; 37002.0<br/>gini = 0.5<br/>samples = 4<br/>value = [2, 2]>, fillcolor="#ffffff"] ;
181 -> 205 ;
206 [label=<gini = 0.0<br/>samples = 2<br/>value = [2, 0]>, fillcolor="#e58139"] ;
205 -> 206 ;
207 [label=<gini = 0.0<br/>samples = 2<br/>value = [0, 2]>, fillcolor="#399de5"] ;
205 -> 207 ;
208 [label=<gini = 0.0<br/>samples = 1<br/>value = [0, 1]>, fillcolor="#399de5"] ;
180 -> 208 ;
209 [label=<gini = 0.0<br/>samples = 1<br/>value = [0, 1]>, fillcolor="#399de5"] ;
179 -> 209 ;
210 [label=<gini = 0.0<br/>samples = 2<br/>value = [0, 2]>, fillcolor="#399de5"] ;
178 -> 210 ;
211 [label=<dti &le; 15.065<br/>gini = 0.161<br/>samples = 3658<br/>value = [3335, 323]>, fillcolor="#e88d4c"] ;
65 -> 211 ;
212 [label=<loan_amnt &le; 21750.0<br/>gini = 0.138<br/>samples = 2148<br/>value = [1988, 160]>, fillcolor="#e78b49"] ;
211 -> 212 ;
213 [label=<inq_last_6mths &le; 3.5<br/>gini = 0.136<br/>samples = 2142<br/>value = [1985, 157]>, fillcolor="#e78b49"] ;
212 -> 213 ;
214 [label=<addr_state_FL &le; 0.5<br/>gini = 0.131<br/>samples = 2098<br/>value = [1950, 148]>, fillcolor="#e78b48"] ;
213 -> 214 ;
215 [label=<sub_grade_A5 &le; 0.5<br/>gini = 0.122<br/>samples = 1903<br/>value = [1779, 124]>, fillcolor="#e78a47"] ;
214 -> 215 ;
216 [label=<term_is_36 &le; 0.5<br/>gini = 0.099<br/>samples = 1336<br/>value = [1266, 70]>, fillcolor="#e68844"] ;
215 -> 216 ;
217 [label=<open_acc &le; 6.5<br/>gini = 0.292<br/>samples = 45<br/>value = [37, 8]>, fillcolor="#eb9c64"] ;
216 -> 217 ;
218 [label=<dti &le; 13.15<br/>gini = 0.484<br/>samples = 17<br/>value = [10, 7]>, fillcolor="#f7d9c4"] ;
217 -> 218 ;
219 [label=<loan_amnt &le; 8250.0<br/>gini = 0.486<br/>samples = 12<br/>value = [5, 7]>, fillcolor="#c6e3f8"] ;
218 -> 219 ;
220 [label=<gini = 0.0<br/>samples = 5<br/>value = [0, 5]>, fillcolor="#399de5"] ;
219 -> 220 ;
221 [label=<inq_last_6mths &le; 1.0<br/>gini = 0.408<br/>samples = 7<br/>value = [5, 2]>, fillcolor="#efb388"] ;
219 -> 221 ;
222 [label=<gini = 0.0<br/>samples = 5<br/>value = [5, 0]>, fillcolor="#e58139"] ;
221 -> 222 ;
223 [label=<gini = 0.0<br/>samples = 2<br/>value = [0, 2]>, fillcolor="#399de5"] ;
221 -> 223 ;
224 [label=<gini = 0.0<br/>samples = 5<br/>value = [5, 0]>, fillcolor="#e58139"] ;
218 -> 224 ;
225 [label=<inq_last_6mths &le; 2.5<br/>gini = 0.069<br/>samples = 28<br/>value = [27, 1]>, fillcolor="#e68640"] ;
217 -> 225 ;
226 [label=<gini = 0.0<br/>samples = 26<br/>value = [26, 0]>, fillcolor="#e58139"] ;
225 -> 226 ;
227 [label=<total_acc &le; 37.0<br/>gini = 0.5<br/>samples = 2<br/>value = [1, 1]>, fillcolor="#ffffff"] ;
225 -> 227 ;
228 [label=<gini = 0.0<br/>samples = 1<br/>value = [0, 1]>, fillcolor="#399de5"] ;
227 -> 228 ;
229 [label=<gini = 0.0<br/>samples = 1<br/>value = [1, 0]>, fillcolor="#e58139"] ;
227 -> 229 ;
230 [label=<emp_length &le; 3.5<br/>gini = 0.091<br/>samples = 1291<br/>value = [1229, 62]>, fillcolor="#e68743"] ;
216 -> 230 ;
231 [label=<dti &le; 0.405<br/>gini = 0.05<br/>samples = 623<br/>value = [607, 16]>, fillcolor="#e6843e"] ;
230 -> 231 ;
232 [label=<addr_state_CA &le; 0.5<br/>gini = 0.346<br/>samples = 9<br/>value = [7, 2]>, fillcolor="#eca572"] ;
231 -> 232 ;
233 [label=<gini = 0.0<br/>samples = 7<br/>value = [7, 0]>, fillcolor="#e58139"] ;
232 -> 233 ;
234 [label=<gini = 0.0<br/>samples = 2<br/>value = [0, 2]>, fillcolor="#399de5"] ;
232 -> 234 ;
235 [label=<purpose_renewable_energy &le; 0.5<br/>gini = 0.045<br/>samples = 614<br/>value = [600, 14]>, fillcolor="#e6843e"] ;
231 -> 235 ;
236 [label=<addr_state_NV &le; 0.5<br/>gini = 0.042<br/>samples = 611<br/>value = [598, 13]>, fillcolor="#e6843d"] ;
235 -> 236 ;
237 [label=<purpose_home_improvement &le; 0.5<br/>gini = 0.039<br/>samples = 607<br/>value = [595, 12]>, fillcolor="#e6843d"] ;
236 -> 237 ;
238 [label=<annual_inc &le; 32002.0<br/>gini = 0.031<br/>samples = 571<br/>value = [562, 9]>, fillcolor="#e5833c"] ;
237 -> 238 ;
239 [label=<sub_grade_B1 &le; 0.5<br/>gini = 0.07<br/>samples = 192<br/>value = [185, 7]>, fillcolor="#e68640"] ;
238 -> 239 ;
240 [label=<addr_state_MD &le; 0.5<br/>gini = 0.061<br/>samples = 191<br/>value = [185, 6]>, fillcolor="#e6853f"] ;
239 -> 240 ;
241 [label=<open_acc &le; 16.5<br/>gini = 0.052<br/>samples = 189<br/>value = [184, 5]>, fillcolor="#e6843e"] ;
240 -> 241 ;
242 [label=<annual_inc &le; 31985.0<br/>gini = 0.042<br/>samples = 186<br/>value = [182, 4]>, fillcolor="#e6843d"] ;
241 -> 242 ;
243 [label=<addr_state_CO &le; 0.5<br/>gini = 0.033<br/>samples = 178<br/>value = [175, 3]>, fillcolor="#e5833c"] ;
242 -> 243 ;
244 [label=<addr_state_NJ &le; 0.5<br/>gini = 0.023<br/>samples = 169<br/>value = [167, 2]>, fillcolor="#e5833b"] ;
243 -> 244 ;
245 [label=<purpose_credit_card &le; 0.5<br/>gini = 0.012<br/>samples = 160<br/>value = [159, 1]>, fillcolor="#e5823a"] ;
244 -> 245 ;
246 [label=<gini = 0.0<br/>samples = 141<br/>value = [141, 0]>, fillcolor="#e58139"] ;
245 -> 246 ;
247 [label=<addr_state_CA &le; 0.5<br/>gini = 0.1<br/>samples = 19<br/>value = [18, 1]>, fillcolor="#e68844"] ;
245 -> 247 ;
248 [label=<gini = 0.0<br/>samples = 17<br/>value = [17, 0]>, fillcolor="#e58139"] ;
247 -> 248 ;
249 [label=<loan_amnt &le; 4500.0<br/>gini = 0.5<br/>samples = 2<br/>value = [1, 1]>, fillcolor="#ffffff"] ;
247 -> 249 ;
250 [label=<gini = 0.0<br/>samples = 1<br/>value = [1, 0]>, fillcolor="#e58139"] ;
249 -> 250 ;
251 [label=<gini = 0.0<br/>samples = 1<br/>value = [0, 1]>, fillcolor="#399de5"] ;
249 -> 251 ;
252 [label=<int_rate &le; 0.073<br/>gini = 0.198<br/>samples = 9<br/>value = [8, 1]>, fillcolor="#e89152"] ;
244 -> 252 ;
253 [label=<dti &le; 4.18<br/>gini = 0.5<br/>samples = 2<br/>value = [1, 1]>, fillcolor="#ffffff"] ;
252 -> 253 ;
254 [label=<gini = 0.0<br/>samples = 1<br/>value = [0, 1]>, fillcolor="#399de5"] ;
253 -> 254 ;
255 [label=<gini = 0.0<br/>samples = 1<br/>value = [1, 0]>, fillcolor="#e58139"] ;
253 -> 255 ;
256 [label=<gini = 0.0<br/>samples = 7<br/>value = [7, 0]>, fillcolor="#e58139"] ;
252 -> 256 ;
257 [label=<annual_inc &le; 29640.0<br/>gini = 0.198<br/>samples = 9<br/>value = [8, 1]>, fillcolor="#e89152"] ;
243 -> 257 ;
258 [label=<gini = 0.0<br/>samples = 7<br/>value = [7, 0]>, fillcolor="#e58139"] ;
257 -> 258 ;
259 [label=<purpose_debt_consolidation &le; 0.5<br/>gini = 0.5<br/>samples = 2<br/>value = [1, 1]>, fillcolor="#ffffff"] ;
257 -> 259 ;
260 [label=<gini = 0.0<br/>samples = 1<br/>value = [1, 0]>, fillcolor="#e58139"] ;
259 -> 260 ;
261 [label=<gini = 0.0<br/>samples = 1<br/>value = [0, 1]>, fillcolor="#399de5"] ;
259 -> 261 ;
262 [label=<addr_state_CA &le; 0.5<br/>gini = 0.219<br/>samples = 8<br/>value = [7, 1]>, fillcolor="#e99355"] ;
242 -> 262 ;
263 [label=<gini = 0.0<br/>samples = 6<br/>value = [6, 0]>, fillcolor="#e58139"] ;
262 -> 263 ;
264 [label=<purpose_major_purchase &le; 0.5<br/>gini = 0.5<br/>samples = 2<br/>value = [1, 1]>, fillcolor="#ffffff"] ;
262 -> 264 ;
265 [label=<gini = 0.0<br/>samples = 1<br/>value = [0, 1]>, fillcolor="#399de5"] ;
264 -> 265 ;
266 [label=<gini = 0.0<br/>samples = 1<br/>value = [1, 0]>, fillcolor="#e58139"] ;
264 -> 266 ;
267 [label=<emp_length &le; 1.5<br/>gini = 0.444<br/>samples = 3<br/>value = [2, 1]>, fillcolor="#f2c09c"] ;
241 -> 267 ;
268 [label=<gini = 0.0<br/>samples = 1<br/>value = [0, 1]>, fillcolor="#399de5"] ;
267 -> 268 ;
269 [label=<gini = 0.0<br/>samples = 2<br/>value = [2, 0]>, fillcolor="#e58139"] ;
267 -> 269 ;
270 [label=<int_rate &le; 0.072<br/>gini = 0.5<br/>samples = 2<br/>value = [1, 1]>, fillcolor="#ffffff"] ;
240 -> 270 ;
271 [label=<gini = 0.0<br/>samples = 1<br/>value = [1, 0]>, fillcolor="#e58139"] ;
270 -> 271 ;
272 [label=<gini = 0.0<br/>samples = 1<br/>value = [0, 1]>, fillcolor="#399de5"] ;
270 -> 272 ;
273 [label=<gini = 0.0<br/>samples = 1<br/>value = [0, 1]>, fillcolor="#399de5"] ;
239 -> 273 ;
274 [label=<addr_state_OH &le; 0.5<br/>gini = 0.01<br/>samples = 379<br/>value = [377, 2]>, fillcolor="#e5823a"] ;
238 -> 274 ;
275 [label=<open_acc &le; 4.5<br/>gini = 0.005<br/>samples = 363<br/>value = [362, 1]>, fillcolor="#e5813a"] ;
274 -> 275 ;
276 [label=<sub_grade_A3 &le; 0.5<br/>gini = 0.05<br/>samples = 39<br/>value = [38, 1]>, fillcolor="#e6843e"] ;
275 -> 276 ;
277 [label=<gini = 0.0<br/>samples = 37<br/>value = [37, 0]>, fillcolor="#e58139"] ;
276 -> 277 ;
278 [label=<total_acc &le; 9.5<br/>gini = 0.5<br/>samples = 2<br/>value = [1, 1]>, fillcolor="#ffffff"] ;
276 -> 278 ;
279 [label=<gini = 0.0<br/>samples = 1<br/>value = [0, 1]>, fillcolor="#399de5"] ;
278 -> 279 ;
280 [label=<gini = 0.0<br/>samples = 1<br/>value = [1, 0]>, fillcolor="#e58139"] ;
278 -> 280 ;
281 [label=<gini = 0.0<br/>samples = 324<br/>value = [324, 0]>, fillcolor="#e58139"] ;
275 -> 281 ;
282 [label=<purpose_credit_card &le; 0.5<br/>gini = 0.117<br/>samples = 16<br/>value = [15, 1]>, fillcolor="#e78946"] ;
274 -> 282 ;
283 [label=<gini = 0.0<br/>samples = 14<br/>value = [14, 0]>, fillcolor="#e58139"] ;
282 -> 283 ;
284 [label=<annual_inc &le; 38500.0<br/>gini = 0.5<br/>samples = 2<br/>value = [1, 1]>, fillcolor="#ffffff"] ;
282 -> 284 ;
285 [label=<gini = 0.0<br/>samples = 1<br/>value = [1, 0]>, fillcolor="#e58139"] ;
284 -> 285 ;
286 [label=<gini = 0.0<br/>samples = 1<br/>value = [0, 1]>, fillcolor="#399de5"] ;
284 -> 286 ;
287 [label=<addr_state_CO &le; 0.5<br/>gini = 0.153<br/>samples = 36<br/>value = [33, 3]>, fillcolor="#e78c4b"] ;
237 -> 287 ;
288 [label=<total_acc &le; 15.0<br/>gini = 0.111<br/>samples = 34<br/>value = [32, 2]>, fillcolor="#e78945"] ;
287 -> 288 ;
289 [label=<total_acc &le; 13.5<br/>gini = 0.278<br/>samples = 12<br/>value = [10, 2]>, fillcolor="#ea9a61"] ;
288 -> 289 ;
290 [label=<sub_grade_A2 &le; 0.5<br/>gini = 0.165<br/>samples = 11<br/>value = [10, 1]>, fillcolor="#e88e4d"] ;
289 -> 290 ;
291 [label=<gini = 0.0<br/>samples = 9<br/>value = [9, 0]>, fillcolor="#e58139"] ;
290 -> 291 ;
292 [label=<total_acc &le; 10.5<br/>gini = 0.5<br/>samples = 2<br/>value = [1, 1]>, fillcolor="#ffffff"] ;
290 -> 292 ;
293 [label=<gini = 0.0<br/>samples = 1<br/>value = [0, 1]>, fillcolor="#399de5"] ;
292 -> 293 ;
294 [label=<gini = 0.0<br/>samples = 1<br/>value = [1, 0]>, fillcolor="#e58139"] ;
292 -> 294 ;
295 [label=<gini = 0.0<br/>samples = 1<br/>value = [0, 1]>, fillcolor="#399de5"] ;
289 -> 295 ;
296 [label=<gini = 0.0<br/>samples = 22<br/>value = [22, 0]>, fillcolor="#e58139"] ;
288 -> 296 ;
297 [label=<annual_inc &le; 40250.0<br/>gini = 0.5<br/>samples = 2<br/>value = [1, 1]>, fillcolor="#ffffff"] ;
287 -> 297 ;
298 [label=<gini = 0.0<br/>samples = 1<br/>value = [1, 0]>, fillcolor="#e58139"] ;
297 -> 298 ;
299 [label=<gini = 0.0<br/>samples = 1<br/>value = [0, 1]>, fillcolor="#399de5"] ;
297 -> 299 ;
300 [label=<dti &le; 8.9<br/>gini = 0.375<br/>samples = 4<br/>value = [3, 1]>, fillcolor="#eeab7b"] ;
236 -> 300 ;
301 [label=<gini = 0.0<br/>samples = 3<br/>value = [3, 0]>, fillcolor="#e58139"] ;
300 -> 301 ;
302 [label=<gini = 0.0<br/>samples = 1<br/>value = [0, 1]>, fillcolor="#399de5"] ;
300 -> 302 ;
303 [label=<sub_grade_A3 &le; 0.5<br/>gini = 0.444<br/>samples = 3<br/>value = [2, 1]>, fillcolor="#f2c09c"] ;
235 -> 303 ;
304 [label=<gini = 0.0<br/>samples = 2<br/>value = [2, 0]>, fillcolor="#e58139"] ;
303 -> 304 ;
305 [label=<gini = 0.0<br/>samples = 1<br/>value = [0, 1]>, fillcolor="#399de5"] ;
303 -> 305 ;
306 [label=<addr_state_NC &le; 0.5<br/>gini = 0.128<br/>samples = 668<br/>value = [622, 46]>, fillcolor="#e78a48"] ;
230 -> 306 ;
307 [label=<addr_state_CA &le; 0.5<br/>gini = 0.118<br/>samples = 649<br/>value = [608, 41]>, fillcolor="#e78946"] ;
306 -> 307 ;
308 [label=<loan_amnt &le; 18750.0<br/>gini = 0.095<br/>samples = 543<br/>value = [516, 27]>, fillcolor="#e68843"] ;
307 -> 308 ;
309 [label=<purpose_small_business &le; 0.5<br/>gini = 0.089<br/>samples = 537<br/>value = [512, 25]>, fillcolor="#e68743"] ;
308 -> 309 ;
310 [label=<addr_state_RI &le; 0.5<br/>gini = 0.078<br/>samples = 517<br/>value = [496, 21]>, fillcolor="#e68641"] ;
309 -> 310 ;
311 [label=<addr_state_KS &le; 0.5<br/>gini = 0.072<br/>samples = 509<br/>value = [490, 19]>, fillcolor="#e68641"] ;
310 -> 311 ;
312 [label=<annual_inc &le; 43250.0<br/>gini = 0.066<br/>samples = 500<br/>value = [483, 17]>, fillcolor="#e68540"] ;
311 -> 312 ;
313 [label=<annual_inc &le; 43100.0<br/>gini = 0.1<br/>samples = 284<br/>value = [269, 15]>, fillcolor="#e68844"] ;
312 -> 313 ;
314 [label=<int_rate &le; 0.067<br/>gini = 0.089<br/>samples = 279<br/>value = [266, 13]>, fillcolor="#e68743"] ;
313 -> 314 ;
315 [label=<addr_state_NY &le; 0.5<br/>gini = 0.255<br/>samples = 20<br/>value = [17, 3]>, fillcolor="#ea975c"] ;
314 -> 315 ;
316 [label=<addr_state_PA &le; 0.5<br/>gini = 0.111<br/>samples = 17<br/>value = [16, 1]>, fillcolor="#e78945"] ;
315 -> 316 ;
317 [label=<gini = 0.0<br/>samples = 16<br/>value = [16, 0]>, fillcolor="#e58139"] ;
316 -> 317 ;
318 [label=<gini = 0.0<br/>samples = 1<br/>value = [0, 1]>, fillcolor="#399de5"] ;
316 -> 318 ;
319 [label=<inq_last_6mths &le; 0.5<br/>gini = 0.444<br/>samples = 3<br/>value = [1, 2]>, fillcolor="#9ccef2"] ;
315 -> 319 ;
320 [label=<gini = 0.0<br/>samples = 1<br/>value = [1, 0]>, fillcolor="#e58139"] ;
319 -> 320 ;
321 [label=<gini = 0.0<br/>samples = 2<br/>value = [0, 2]>, fillcolor="#399de5"] ;
319 -> 321 ;
322 [label=<addr_state_MD &le; 0.5<br/>gini = 0.074<br/>samples = 259<br/>value = [249, 10]>, fillcolor="#e68641"] ;
314 -> 322 ;
323 [label=<addr_state_NJ &le; 0.5<br/>gini = 0.068<br/>samples = 256<br/>value = [247, 9]>, fillcolor="#e68640"] ;
322 -> 323 ;
324 [label=<addr_state_NM &le; 0.5<br/>gini = 0.056<br/>samples = 245<br/>value = [238, 7]>, fillcolor="#e6853f"] ;
323 -> 324 ;
325 [label=<purpose_moving &le; 0.5<br/>gini = 0.049<br/>samples = 241<br/>value = [235, 6]>, fillcolor="#e6843e"] ;
324 -> 325 ;
326 [label=<addr_state_OR &le; 0.5<br/>gini = 0.041<br/>samples = 236<br/>value = [231, 5]>, fillcolor="#e6843d"] ;
325 -> 326 ;
327 [label=<addr_state_NY &le; 0.5<br/>gini = 0.034<br/>samples = 230<br/>value = [226, 4]>, fillcolor="#e5833d"] ;
326 -> 327 ;
328 [label=<addr_state_TX &le; 0.5<br/>gini = 0.02<br/>samples = 202<br/>value = [200, 2]>, fillcolor="#e5823b"] ;
327 -> 328 ;
329 [label=<addr_state_PA &le; 0.5<br/>gini = 0.011<br/>samples = 182<br/>value = [181, 1]>, fillcolor="#e5823a"] ;
328 -> 329 ;
330 [label=<gini = 0.0<br/>samples = 160<br/>value = [160, 0]>, fillcolor="#e58139"] ;
329 -> 330 ;
331 [label=<annual_inc &le; 25000.0<br/>gini = 0.087<br/>samples = 22<br/>value = [21, 1]>, fillcolor="#e68742"] ;
329 -> 331 ;
332 [label=<emp_length &le; 6.0<br/>gini = 0.444<br/>samples = 3<br/>value = [2, 1]>, fillcolor="#f2c09c"] ;
331 -> 332 ;
333 [label=<gini = 0.0<br/>samples = 2<br/>value = [2, 0]>, fillcolor="#e58139"] ;
332 -> 333 ;
334 [label=<gini = 0.0<br/>samples = 1<br/>value = [0, 1]>, fillcolor="#399de5"] ;
332 -> 334 ;
335 [label=<gini = 0.0<br/>samples = 19<br/>value = [19, 0]>, fillcolor="#e58139"] ;
331 -> 335 ;
336 [label=<int_rate &le; 0.08<br/>gini = 0.095<br/>samples = 20<br/>value = [19, 1]>, fillcolor="#e68843"] ;
328 -> 336 ;
337 [label=<gini = 0.0<br/>samples = 18<br/>value = [18, 0]>, fillcolor="#e58139"] ;
336 -> 337 ;
338 [label=<total_acc &le; 15.5<br/>gini = 0.5<br/>samples = 2<br/>value = [1, 1]>, fillcolor="#ffffff"] ;
336 -> 338 ;
339 [label=<gini = 0.0<br/>samples = 1<br/>value = [1, 0]>, fillcolor="#e58139"] ;
338 -> 339 ;
340 [label=<gini = 0.0<br/>samples = 1<br/>value = [0, 1]>, fillcolor="#399de5"] ;
338 -> 340 ;
341 [label=<open_acc &le; 9.5<br/>gini = 0.133<br/>samples = 28<br/>value = [26, 2]>, fillcolor="#e78b48"] ;
327 -> 341 ;
342 [label=<gini = 0.0<br/>samples = 22<br/>value = [22, 0]>, fillcolor="#e58139"] ;
341 -> 342 ;
343 [label=<loan_amnt &le; 6500.0<br/>gini = 0.444<br/>samples = 6<br/>value = [4, 2]>, fillcolor="#f2c09c"] ;
341 -> 343 ;
344 [label=<inq_last_6mths &le; 0.5<br/>gini = 0.444<br/>samples = 3<br/>value = [1, 2]>, fillcolor="#9ccef2"] ;
343 -> 344 ;
345 [label=<gini = 0.0<br/>samples = 2<br/>value = [0, 2]>, fillcolor="#399de5"] ;
344 -> 345 ;
346 [label=<gini = 0.0<br/>samples = 1<br/>value = [1, 0]>, fillcolor="#e58139"] ;
344 -> 346 ;
347 [label=<gini = 0.0<br/>samples = 3<br/>value = [3, 0]>, fillcolor="#e58139"] ;
343 -> 347 ;
348 [label=<sub_grade_A3 &le; 0.5<br/>gini = 0.278<br/>samples = 6<br/>value = [5, 1]>, fillcolor="#ea9a61"] ;
326 -> 348 ;
349 [label=<gini = 0.0<br/>samples = 5<br/>value = [5, 0]>, fillcolor="#e58139"] ;
348 -> 349 ;
350 [label=<gini = 0.0<br/>samples = 1<br/>value = [0, 1]>, fillcolor="#399de5"] ;
348 -> 350 ;
351 [label=<int_rate &le; 0.078<br/>gini = 0.32<br/>samples = 5<br/>value = [4, 1]>, fillcolor="#eca06a"] ;
325 -> 351 ;
352 [label=<gini = 0.0<br/>samples = 4<br/>value = [4, 0]>, fillcolor="#e58139"] ;
351 -> 352 ;
353 [label=<gini = 0.0<br/>samples = 1<br/>value = [0, 1]>, fillcolor="#399de5"] ;
351 -> 353 ;
354 [label=<dti &le; 3.935<br/>gini = 0.375<br/>samples = 4<br/>value = [3, 1]>, fillcolor="#eeab7b"] ;
324 -> 354 ;
355 [label=<gini = 0.0<br/>samples = 1<br/>value = [0, 1]>, fillcolor="#399de5"] ;
354 -> 355 ;
356 [label=<gini = 0.0<br/>samples = 3<br/>value = [3, 0]>, fillcolor="#e58139"] ;
354 -> 356 ;
357 [label=<open_acc &le; 15.5<br/>gini = 0.298<br/>samples = 11<br/>value = [9, 2]>, fillcolor="#eb9d65"] ;
323 -> 357 ;
358 [label=<gini = 0.0<br/>samples = 9<br/>value = [9, 0]>, fillcolor="#e58139"] ;
357 -> 358 ;
359 [label=<gini = 0.0<br/>samples = 2<br/>value = [0, 2]>, fillcolor="#399de5"] ;
357 -> 359 ;
360 [label=<emp_length &le; 4.5<br/>gini = 0.444<br/>samples = 3<br/>value = [2, 1]>, fillcolor="#f2c09c"] ;
322 -> 360 ;
361 [label=<gini = 0.0<br/>samples = 1<br/>value = [0, 1]>, fillcolor="#399de5"] ;
360 -> 361 ;
362 [label=<gini = 0.0<br/>samples = 2<br/>value = [2, 0]>, fillcolor="#e58139"] ;
360 -> 362 ;
363 [label=<loan_amnt &le; 7487.5<br/>gini = 0.48<br/>samples = 5<br/>value = [3, 2]>, fillcolor="#f6d5bd"] ;
313 -> 363 ;
364 [label=<gini = 0.0<br/>samples = 2<br/>value = [0, 2]>, fillcolor="#399de5"] ;
363 -> 364 ;
365 [label=<gini = 0.0<br/>samples = 3<br/>value = [3, 0]>, fillcolor="#e58139"] ;
363 -> 365 ;
366 [label=<sub_grade_B2 &le; 0.5<br/>gini = 0.018<br/>samples = 216<br/>value = [214, 2]>, fillcolor="#e5823b"] ;
312 -> 366 ;
367 [label=<addr_state_OH &le; 0.5<br/>gini = 0.009<br/>samples = 213<br/>value = [212, 1]>, fillcolor="#e5823a"] ;
366 -> 367 ;
368 [label=<gini = 0.0<br/>samples = 201<br/>value = [201, 0]>, fillcolor="#e58139"] ;
367 -> 368 ;
369 [label=<loan_amnt &le; 9700.0<br/>gini = 0.153<br/>samples = 12<br/>value = [11, 1]>, fillcolor="#e78c4b"] ;
367 -> 369 ;
370 [label=<gini = 0.0<br/>samples = 11<br/>value = [11, 0]>, fillcolor="#e58139"] ;
369 -> 370 ;
371 [label=<gini = 0.0<br/>samples = 1<br/>value = [0, 1]>, fillcolor="#399de5"] ;
369 -> 371 ;
372 [label=<dti &le; 9.565<br/>gini = 0.444<br/>samples = 3<br/>value = [2, 1]>, fillcolor="#f2c09c"] ;
366 -> 372 ;
373 [label=<gini = 0.0<br/>samples = 2<br/>value = [2, 0]>, fillcolor="#e58139"] ;
372 -> 373 ;
374 [label=<gini = 0.0<br/>samples = 1<br/>value = [0, 1]>, fillcolor="#399de5"] ;
372 -> 374 ;
375 [label=<total_acc &le; 12.0<br/>gini = 0.346<br/>samples = 9<br/>value = [7, 2]>, fillcolor="#eca572"] ;
311 -> 375 ;
376 [label=<gini = 0.0<br/>samples = 2<br/>value = [0, 2]>, fillcolor="#399de5"] ;
375 -> 376 ;
377 [label=<gini = 0.0<br/>samples = 7<br/>value = [7, 0]>, fillcolor="#e58139"] ;
375 -> 377 ;
378 [label=<annual_inc &le; 40002.0<br/>gini = 0.375<br/>samples = 8<br/>value = [6, 2]>, fillcolor="#eeab7b"] ;
310 -> 378 ;
379 [label=<gini = 0.0<br/>samples = 2<br/>value = [0, 2]>, fillcolor="#399de5"] ;
378 -> 379 ;
380 [label=<gini = 0.0<br/>samples = 6<br/>value = [6, 0]>, fillcolor="#e58139"] ;
378 -> 380 ;
381 [label=<total_acc &le; 47.5<br/>gini = 0.32<br/>samples = 20<br/>value = [16, 4]>, fillcolor="#eca06a"] ;
309 -> 381 ;
382 [label=<open_acc &le; 2.5<br/>gini = 0.266<br/>samples = 19<br/>value = [16, 3]>, fillcolor="#ea995e"] ;
381 -> 382 ;
383 [label=<gini = 0.0<br/>samples = 1<br/>value = [0, 1]>, fillcolor="#399de5"] ;
382 -> 383 ;
384 [label=<addr_state_OH &le; 0.5<br/>gini = 0.198<br/>samples = 18<br/>value = [16, 2]>, fillcolor="#e89152"] ;
382 -> 384 ;
385 [label=<addr_state_IL &le; 0.5<br/>gini = 0.111<br/>samples = 17<br/>value = [16, 1]>, fillcolor="#e78945"] ;
384 -> 385 ;
386 [label=<gini = 0.0<br/>samples = 15<br/>value = [15, 0]>, fillcolor="#e58139"] ;
385 -> 386 ;
387 [label=<annual_inc &le; 42051.5<br/>gini = 0.5<br/>samples = 2<br/>value = [1, 1]>, fillcolor="#ffffff"] ;
385 -> 387 ;
388 [label=<gini = 0.0<br/>samples = 1<br/>value = [1, 0]>, fillcolor="#e58139"] ;
387 -> 388 ;
389 [label=<gini = 0.0<br/>samples = 1<br/>value = [0, 1]>, fillcolor="#399de5"] ;
387 -> 389 ;
390 [label=<gini = 0.0<br/>samples = 1<br/>value = [0, 1]>, fillcolor="#399de5"] ;
384 -> 390 ;
391 [label=<gini = 0.0<br/>samples = 1<br/>value = [0, 1]>, fillcolor="#399de5"] ;
381 -> 391 ;
392 [label=<sub_grade_A4 &le; 0.5<br/>gini = 0.444<br/>samples = 6<br/>value = [4, 2]>, fillcolor="#f2c09c"] ;
308 -> 392 ;
393 [label=<int_rate &le; 0.07<br/>gini = 0.444<br/>samples = 3<br/>value = [1, 2]>, fillcolor="#9ccef2"] ;
392 -> 393 ;
394 [label=<gini = 0.0<br/>samples = 1<br/>value = [1, 0]>, fillcolor="#e58139"] ;
393 -> 394 ;
395 [label=<gini = 0.0<br/>samples = 2<br/>value = [0, 2]>, fillcolor="#399de5"] ;
393 -> 395 ;
396 [label=<gini = 0.0<br/>samples = 3<br/>value = [3, 0]>, fillcolor="#e58139"] ;
392 -> 396 ;
397 [label=<dti &le; 14.35<br/>gini = 0.229<br/>samples = 106<br/>value = [92, 14]>, fillcolor="#e99457"] ;
307 -> 397 ;
398 [label=<int_rate &le; 0.073<br/>gini = 0.208<br/>samples = 102<br/>value = [90, 12]>, fillcolor="#e89253"] ;
397 -> 398 ;
399 [label=<annual_inc &le; 43000.0<br/>gini = 0.355<br/>samples = 39<br/>value = [30, 9]>, fillcolor="#eda774"] ;
398 -> 399 ;
400 [label=<annual_inc &le; 40400.0<br/>gini = 0.454<br/>samples = 23<br/>value = [15, 8]>, fillcolor="#f3c4a3"] ;
399 -> 400 ;
401 [label=<open_acc &le; 9.0<br/>gini = 0.375<br/>samples = 20<br/>value = [15, 5]>, fillcolor="#eeab7b"] ;
400 -> 401 ;
402 [label=<loan_amnt &le; 3625.0<br/>gini = 0.473<br/>samples = 13<br/>value = [8, 5]>, fillcolor="#f5d0b5"] ;
401 -> 402 ;
403 [label=<gini = 0.0<br/>samples = 2<br/>value = [0, 2]>, fillcolor="#399de5"] ;
402 -> 403 ;
404 [label=<annual_inc &le; 28300.0<br/>gini = 0.397<br/>samples = 11<br/>value = [8, 3]>, fillcolor="#efb083"] ;
402 -> 404 ;
405 [label=<gini = 0.0<br/>samples = 5<br/>value = [5, 0]>, fillcolor="#e58139"] ;
404 -> 405 ;
406 [label=<loan_amnt &le; 4900.0<br/>gini = 0.5<br/>samples = 6<br/>value = [3, 3]>, fillcolor="#ffffff"] ;
404 -> 406 ;
407 [label=<gini = 0.0<br/>samples = 2<br/>value = [2, 0]>, fillcolor="#e58139"] ;
406 -> 407 ;
408 [label=<loan_amnt &le; 11000.0<br/>gini = 0.375<br/>samples = 4<br/>value = [1, 3]>, fillcolor="#7bbeee"] ;
406 -> 408 ;
409 [label=<gini = 0.0<br/>samples = 3<br/>value = [0, 3]>, fillcolor="#399de5"] ;
408 -> 409 ;
410 [label=<gini = 0.0<br/>samples = 1<br/>value = [1, 0]>, fillcolor="#e58139"] ;
408 -> 410 ;
411 [label=<gini = 0.0<br/>samples = 7<br/>value = [7, 0]>, fillcolor="#e58139"] ;
401 -> 411 ;
412 [label=<gini = 0.0<br/>samples = 3<br/>value = [0, 3]>, fillcolor="#399de5"] ;
400 -> 412 ;
413 [label=<annual_inc &le; 53000.0<br/>gini = 0.117<br/>samples = 16<br/>value = [15, 1]>, fillcolor="#e78946"] ;
399 -> 413 ;
414 [label=<gini = 0.0<br/>samples = 15<br/>value = [15, 0]>, fillcolor="#e58139"] ;
413 -> 414 ;
415 [label=<gini = 0.0<br/>samples = 1<br/>value = [0, 1]>, fillcolor="#399de5"] ;
413 -> 415 ;
416 [label=<loan_amnt &le; 13250.0<br/>gini = 0.091<br/>samples = 63<br/>value = [60, 3]>, fillcolor="#e68743"] ;
398 -> 416 ;
417 [label=<dti &le; 13.625<br/>gini = 0.063<br/>samples = 61<br/>value = [59, 2]>, fillcolor="#e68540"] ;
416 -> 417 ;
418 [label=<pub_rec_bankruptcies &le; 0.5<br/>gini = 0.033<br/>samples = 59<br/>value = [58, 1]>, fillcolor="#e5833c"] ;
417 -> 418 ;
419 [label=<gini = 0.0<br/>samples = 53<br/>value = [53, 0]>, fillcolor="#e58139"] ;
418 -> 419 ;
420 [label=<loan_amnt &le; 2425.0<br/>gini = 0.278<br/>samples = 6<br/>value = [5, 1]>, fillcolor="#ea9a61"] ;
418 -> 420 ;
421 [label=<gini = 0.0<br/>samples = 1<br/>value = [0, 1]>, fillcolor="#399de5"] ;
420 -> 421 ;
422 [label=<gini = 0.0<br/>samples = 5<br/>value = [5, 0]>, fillcolor="#e58139"] ;
420 -> 422 ;
423 [label=<total_acc &le; 22.5<br/>gini = 0.5<br/>samples = 2<br/>value = [1, 1]>, fillcolor="#ffffff"] ;
417 -> 423 ;
424 [label=<gini = 0.0<br/>samples = 1<br/>value = [0, 1]>, fillcolor="#399de5"] ;
423 -> 424 ;
425 [label=<gini = 0.0<br/>samples = 1<br/>value = [1, 0]>, fillcolor="#e58139"] ;
423 -> 425 ;
426 [label=<dti &le; 7.275<br/>gini = 0.5<br/>samples = 2<br/>value = [1, 1]>, fillcolor="#ffffff"] ;
416 -> 426 ;
427 [label=<gini = 0.0<br/>samples = 1<br/>value = [1, 0]>, fillcolor="#e58139"] ;
426 -> 427 ;
428 [label=<gini = 0.0<br/>samples = 1<br/>value = [0, 1]>, fillcolor="#399de5"] ;
426 -> 428 ;
429 [label=<dti &le; 14.545<br/>gini = 0.5<br/>samples = 4<br/>value = [2, 2]>, fillcolor="#ffffff"] ;
397 -> 429 ;
430 [label=<gini = 0.0<br/>samples = 2<br/>value = [0, 2]>, fillcolor="#399de5"] ;
429 -> 430 ;
431 [label=<gini = 0.0<br/>samples = 2<br/>value = [2, 0]>, fillcolor="#e58139"] ;
429 -> 431 ;
432 [label=<loan_amnt &le; 3375.0<br/>gini = 0.388<br/>samples = 19<br/>value = [14, 5]>, fillcolor="#eeae80"] ;
306 -> 432 ;
433 [label=<gini = 0.0<br/>samples = 3<br/>value = [0, 3]>, fillcolor="#399de5"] ;
432 -> 433 ;
434 [label=<annual_inc &le; 50200.0<br/>gini = 0.219<br/>samples = 16<br/>value = [14, 2]>, fillcolor="#e99355"] ;
432 -> 434 ;
435 [label=<inq_last_6mths &le; 1.5<br/>gini = 0.124<br/>samples = 15<br/>value = [14, 1]>, fillcolor="#e78a47"] ;
434 -> 435 ;
436 [label=<gini = 0.0<br/>samples = 13<br/>value = [13, 0]>, fillcolor="#e58139"] ;
435 -> 436 ;
437 [label=<dti &le; 12.565<br/>gini = 0.5<br/>samples = 2<br/>value = [1, 1]>, fillcolor="#ffffff"] ;
435 -> 437 ;
438 [label=<gini = 0.0<br/>samples = 1<br/>value = [0, 1]>, fillcolor="#399de5"] ;
437 -> 438 ;
439 [label=<gini = 0.0<br/>samples = 1<br/>value = [1, 0]>, fillcolor="#e58139"] ;
437 -> 439 ;
440 [label=<gini = 0.0<br/>samples = 1<br/>value = [0, 1]>, fillcolor="#399de5"] ;
434 -> 440 ;
441 [label=<annual_inc &le; 27012.0<br/>gini = 0.172<br/>samples = 567<br/>value = [513, 54]>, fillcolor="#e88e4e"] ;
215 -> 441 ;
442 [label=<purpose_small_business &le; 0.5<br/>gini = 0.307<br/>samples = 95<br/>value = [77, 18]>, fillcolor="#eb9e67"] ;
441 -> 442 ;
443 [label=<int_rate &le; 0.078<br/>gini = 0.275<br/>samples = 91<br/>value = [76, 15]>, fillcolor="#ea9a60"] ;
442 -> 443 ;
444 [label=<inq_last_6mths &le; 1.5<br/>gini = 0.444<br/>samples = 21<br/>value = [14, 7]>, fillcolor="#f2c09c"] ;
443 -> 444 ;
445 [label=<addr_state_NY &le; 0.5<br/>gini = 0.346<br/>samples = 18<br/>value = [14, 4]>, fillcolor="#eca572"] ;
444 -> 445 ;
446 [label=<annual_inc &le; 26640.0<br/>gini = 0.291<br/>samples = 17<br/>value = [14, 3]>, fillcolor="#eb9c63"] ;
445 -> 446 ;
447 [label=<addr_state_AZ &le; 0.5<br/>gini = 0.219<br/>samples = 16<br/>value = [14, 2]>, fillcolor="#e99355"] ;
446 -> 447 ;
448 [label=<emp_length &le; 5.5<br/>gini = 0.124<br/>samples = 15<br/>value = [14, 1]>, fillcolor="#e78a47"] ;
447 -> 448 ;
449 [label=<gini = 0.0<br/>samples = 13<br/>value = [13, 0]>, fillcolor="#e58139"] ;
448 -> 449 ;
450 [label=<purpose_debt_consolidation &le; 0.5<br/>gini = 0.5<br/>samples = 2<br/>value = [1, 1]>, fillcolor="#ffffff"] ;
448 -> 450 ;
451 [label=<gini = 0.0<br/>samples = 1<br/>value = [1, 0]>, fillcolor="#e58139"] ;
450 -> 451 ;
452 [label=<gini = 0.0<br/>samples = 1<br/>value = [0, 1]>, fillcolor="#399de5"] ;
450 -> 452 ;
453 [label=<gini = 0.0<br/>samples = 1<br/>value = [0, 1]>, fillcolor="#399de5"] ;
447 -> 453 ;
454 [label=<gini = 0.0<br/>samples = 1<br/>value = [0, 1]>, fillcolor="#399de5"] ;
446 -> 454 ;
455 [label=<gini = 0.0<br/>samples = 1<br/>value = [0, 1]>, fillcolor="#399de5"] ;
445 -> 455 ;
456 [label=<gini = 0.0<br/>samples = 3<br/>value = [0, 3]>, fillcolor="#399de5"] ;
444 -> 456 ;
457 [label=<addr_state_UT &le; 0.5<br/>gini = 0.202<br/>samples = 70<br/>value = [62, 8]>, fillcolor="#e89153"] ;
443 -> 457 ;
458 [label=<purpose_vacation &le; 0.5<br/>gini = 0.182<br/>samples = 69<br/>value = [62, 7]>, fillcolor="#e88f4f"] ;
457 -> 458 ;
459 [label=<addr_state_DE &le; 0.5<br/>gini = 0.161<br/>samples = 68<br/>value = [62, 6]>, fillcolor="#e88d4c"] ;
458 -> 459 ;
460 [label=<addr_state_WA &le; 0.5<br/>gini = 0.138<br/>samples = 67<br/>value = [62, 5]>, fillcolor="#e78b49"] ;
459 -> 460 ;
461 [label=<open_acc &le; 2.5<br/>gini = 0.091<br/>samples = 63<br/>value = [60, 3]>, fillcolor="#e68743"] ;
460 -> 461 ;
462 [label=<total_acc &le; 6.0<br/>gini = 0.444<br/>samples = 6<br/>value = [4, 2]>, fillcolor="#f2c09c"] ;
461 -> 462 ;
463 [label=<gini = 0.0<br/>samples = 4<br/>value = [4, 0]>, fillcolor="#e58139"] ;
462 -> 463 ;
464 [label=<gini = 0.0<br/>samples = 2<br/>value = [0, 2]>, fillcolor="#399de5"] ;
462 -> 464 ;
465 [label=<addr_state_MA &le; 0.5<br/>gini = 0.034<br/>samples = 57<br/>value = [56, 1]>, fillcolor="#e5833d"] ;
461 -> 465 ;
466 [label=<gini = 0.0<br/>samples = 55<br/>value = [55, 0]>, fillcolor="#e58139"] ;
465 -> 466 ;
467 [label=<open_acc &le; 6.5<br/>gini = 0.5<br/>samples = 2<br/>value = [1, 1]>, fillcolor="#ffffff"] ;
465 -> 467 ;
468 [label=<gini = 0.0<br/>samples = 1<br/>value = [0, 1]>, fillcolor="#399de5"] ;
467 -> 468 ;
469 [label=<gini = 0.0<br/>samples = 1<br/>value = [1, 0]>, fillcolor="#e58139"] ;
467 -> 469 ;
470 [label=<loan_amnt &le; 4400.0<br/>gini = 0.5<br/>samples = 4<br/>value = [2, 2]>, fillcolor="#ffffff"] ;
460 -> 470 ;
471 [label=<gini = 0.0<br/>samples = 2<br/>value = [0, 2]>, fillcolor="#399de5"] ;
470 -> 471 ;
472 [label=<gini = 0.0<br/>samples = 2<br/>value = [2, 0]>, fillcolor="#e58139"] ;
470 -> 472 ;
473 [label=<gini = 0.0<br/>samples = 1<br/>value = [0, 1]>, fillcolor="#399de5"] ;
459 -> 473 ;
474 [label=<gini = 0.0<br/>samples = 1<br/>value = [0, 1]>, fillcolor="#399de5"] ;
458 -> 474 ;
475 [label=<gini = 0.0<br/>samples = 1<br/>value = [0, 1]>, fillcolor="#399de5"] ;
457 -> 475 ;
476 [label=<emp_length &le; 3.5<br/>gini = 0.375<br/>samples = 4<br/>value = [1, 3]>, fillcolor="#7bbeee"] ;
442 -> 476 ;
477 [label=<gini = 0.0<br/>samples = 3<br/>value = [0, 3]>, fillcolor="#399de5"] ;
476 -> 477 ;
478 [label=<gini = 0.0<br/>samples = 1<br/>value = [1, 0]>, fillcolor="#e58139"] ;
476 -> 478 ;
479 [label=<addr_state_LA &le; 0.5<br/>gini = 0.141<br/>samples = 472<br/>value = [436, 36]>, fillcolor="#e78b49"] ;
441 -> 479 ;
480 [label=<pub_rec &le; 0.5<br/>gini = 0.131<br/>samples = 467<br/>value = [434, 33]>, fillcolor="#e78b48"] ;
479 -> 480 ;
481 [label=<open_acc &le; 5.5<br/>gini = 0.123<br/>samples = 456<br/>value = [426, 30]>, fillcolor="#e78a47"] ;
480 -> 481 ;
482 [label=<addr_state_TX &le; 0.5<br/>gini = 0.044<br/>samples = 134<br/>value = [131, 3]>, fillcolor="#e6843e"] ;
481 -> 482 ;
483 [label=<purpose_major_purchase &le; 0.5<br/>gini = 0.031<br/>samples = 125<br/>value = [123, 2]>, fillcolor="#e5833c"] ;
482 -> 483 ;
484 [label=<emp_length &le; 9.5<br/>gini = 0.017<br/>samples = 114<br/>value = [113, 1]>, fillcolor="#e5823b"] ;
483 -> 484 ;
485 [label=<gini = 0.0<br/>samples = 101<br/>value = [101, 0]>, fillcolor="#e58139"] ;
484 -> 485 ;
486 [label=<loan_amnt &le; 10500.0<br/>gini = 0.142<br/>samples = 13<br/>value = [12, 1]>, fillcolor="#e78c49"] ;
484 -> 486 ;
487 [label=<gini = 0.0<br/>samples = 11<br/>value = [11, 0]>, fillcolor="#e58139"] ;
486 -> 487 ;
488 [label=<addr_state_MI &le; 0.5<br/>gini = 0.5<br/>samples = 2<br/>value = [1, 1]>, fillcolor="#ffffff"] ;
486 -> 488 ;
489 [label=<gini = 0.0<br/>samples = 1<br/>value = [0, 1]>, fillcolor="#399de5"] ;
488 -> 489 ;
490 [label=<gini = 0.0<br/>samples = 1<br/>value = [1, 0]>, fillcolor="#e58139"] ;
488 -> 490 ;
491 [label=<addr_state_NY &le; 0.5<br/>gini = 0.165<br/>samples = 11<br/>value = [10, 1]>, fillcolor="#e88e4d"] ;
483 -> 491 ;
492 [label=<gini = 0.0<br/>samples = 10<br/>value = [10, 0]>, fillcolor="#e58139"] ;
491 -> 492 ;
493 [label=<gini = 0.0<br/>samples = 1<br/>value = [0, 1]>, fillcolor="#399de5"] ;
491 -> 493 ;
494 [label=<purpose_other &le; 0.5<br/>gini = 0.198<br/>samples = 9<br/>value = [8, 1]>, fillcolor="#e89152"] ;
482 -> 494 ;
495 [label=<gini = 0.0<br/>samples = 8<br/>value = [8, 0]>, fillcolor="#e58139"] ;
494 -> 495 ;
496 [label=<gini = 0.0<br/>samples = 1<br/>value = [0, 1]>, fillcolor="#399de5"] ;
494 -> 496 ;
497 [label=<total_acc &le; 7.5<br/>gini = 0.154<br/>samples = 322<br/>value = [295, 27]>, fillcolor="#e78d4b"] ;
481 -> 497 ;
498 [label=<inq_last_6mths &le; 0.5<br/>gini = 0.5<br/>samples = 6<br/>value = [3, 3]>, fillcolor="#ffffff"] ;
497 -> 498 ;
499 [label=<gini = 0.0<br/>samples = 3<br/>value = [3, 0]>, fillcolor="#e58139"] ;
498 -> 499 ;
500 [label=<gini = 0.0<br/>samples = 3<br/>value = [0, 3]>, fillcolor="#399de5"] ;
498 -> 500 ;
501 [label=<addr_state_SC &le; 0.5<br/>gini = 0.14<br/>samples = 316<br/>value = [292, 24]>, fillcolor="#e78b49"] ;
497 -> 501 ;
502 [label=<addr_state_OR &le; 0.5<br/>gini = 0.131<br/>samples = 311<br/>value = [289, 22]>, fillcolor="#e78b48"] ;
501 -> 502 ;
503 [label=<total_acc &le; 23.5<br/>gini = 0.123<br/>samples = 305<br/>value = [285, 20]>, fillcolor="#e78a47"] ;
502 -> 503 ;
504 [label=<open_acc &le; 15.5<br/>gini = 0.086<br/>samples = 221<br/>value = [211, 10]>, fillcolor="#e68742"] ;
503 -> 504 ;
505 [label=<addr_state_IL &le; 0.5<br/>gini = 0.079<br/>samples = 219<br/>value = [210, 9]>, fillcolor="#e68641"] ;
504 -> 505 ;
506 [label=<purpose_moving &le; 0.5<br/>gini = 0.064<br/>samples = 211<br/>value = [204, 7]>, fillcolor="#e68540"] ;
505 -> 506 ;
507 [label=<purpose_vacation &le; 0.5<br/>gini = 0.056<br/>samples = 208<br/>value = [202, 6]>, fillcolor="#e6853f"] ;
506 -> 507 ;
508 [label=<addr_state_CT &le; 0.5<br/>gini = 0.048<br/>samples = 205<br/>value = [200, 5]>, fillcolor="#e6843e"] ;
507 -> 508 ;
509 [label=<loan_amnt &le; 1550.0<br/>gini = 0.039<br/>samples = 201<br/>value = [197, 4]>, fillcolor="#e6843d"] ;
508 -> 509 ;
510 [label=<dti &le; 8.655<br/>gini = 0.375<br/>samples = 4<br/>value = [3, 1]>, fillcolor="#eeab7b"] ;
509 -> 510 ;
511 [label=<gini = 0.0<br/>samples = 3<br/>value = [3, 0]>, fillcolor="#e58139"] ;
510 -> 511 ;
512 [label=<gini = 0.0<br/>samples = 1<br/>value = [0, 1]>, fillcolor="#399de5"] ;
510 -> 512 ;
513 [label=<addr_state_TX &le; 0.5<br/>gini = 0.03<br/>samples = 197<br/>value = [194, 3]>, fillcolor="#e5833c"] ;
509 -> 513 ;
514 [label=<emp_length &le; 0.5<br/>gini = 0.021<br/>samples = 187<br/>value = [185, 2]>, fillcolor="#e5823b"] ;
513 -> 514 ;
515 [label=<addr_state_NJ &le; 0.5<br/>gini = 0.114<br/>samples = 33<br/>value = [31, 2]>, fillcolor="#e78946"] ;
514 -> 515 ;
516 [label=<addr_state_CA &le; 0.5<br/>gini = 0.064<br/>samples = 30<br/>value = [29, 1]>, fillcolor="#e68540"] ;
515 -> 516 ;
517 [label=<gini = 0.0<br/>samples = 25<br/>value = [25, 0]>, fillcolor="#e58139"] ;
516 -> 517 ;
518 [label=<total_acc &le; 12.5<br/>gini = 0.32<br/>samples = 5<br/>value = [4, 1]>, fillcolor="#eca06a"] ;
516 -> 518 ;
519 [label=<gini = 0.0<br/>samples = 4<br/>value = [4, 0]>, fillcolor="#e58139"] ;
518 -> 519 ;
520 [label=<gini = 0.0<br/>samples = 1<br/>value = [0, 1]>, fillcolor="#399de5"] ;
518 -> 520 ;
521 [label=<loan_amnt &le; 7200.0<br/>gini = 0.444<br/>samples = 3<br/>value = [2, 1]>, fillcolor="#f2c09c"] ;
515 -> 521 ;
522 [label=<gini = 0.0<br/>samples = 1<br/>value = [0, 1]>, fillcolor="#399de5"] ;
521 -> 522 ;
523 [label=<gini = 0.0<br/>samples = 2<br/>value = [2, 0]>, fillcolor="#e58139"] ;
521 -> 523 ;
524 [label=<gini = 0.0<br/>samples = 154<br/>value = [154, 0]>, fillcolor="#e58139"] ;
514 -> 524 ;
525 [label=<int_rate &le; 0.073<br/>gini = 0.18<br/>samples = 10<br/>value = [9, 1]>, fillcolor="#e88f4f"] ;
513 -> 525 ;
526 [label=<gini = 0.0<br/>samples = 1<br/>value = [0, 1]>, fillcolor="#399de5"] ;
525 -> 526 ;
527 [label=<gini = 0.0<br/>samples = 9<br/>value = [9, 0]>, fillcolor="#e58139"] ;
525 -> 527 ;
528 [label=<inq_last_6mths &le; 1.5<br/>gini = 0.375<br/>samples = 4<br/>value = [3, 1]>, fillcolor="#eeab7b"] ;
508 -> 528 ;
529 [label=<gini = 0.0<br/>samples = 3<br/>value = [3, 0]>, fillcolor="#e58139"] ;
528 -> 529 ;
530 [label=<gini = 0.0<br/>samples = 1<br/>value = [0, 1]>, fillcolor="#399de5"] ;
528 -> 530 ;
531 [label=<emp_length &le; 7.0<br/>gini = 0.444<br/>samples = 3<br/>value = [2, 1]>, fillcolor="#f2c09c"] ;
507 -> 531 ;
532 [label=<gini = 0.0<br/>samples = 1<br/>value = [0, 1]>, fillcolor="#399de5"] ;
531 -> 532 ;
533 [label=<gini = 0.0<br/>samples = 2<br/>value = [2, 0]>, fillcolor="#e58139"] ;
531 -> 533 ;
534 [label=<dti &le; 9.17<br/>gini = 0.444<br/>samples = 3<br/>value = [2, 1]>, fillcolor="#f2c09c"] ;
506 -> 534 ;
535 [label=<gini = 0.0<br/>samples = 1<br/>value = [0, 1]>, fillcolor="#399de5"] ;
534 -> 535 ;
536 [label=<gini = 0.0<br/>samples = 2<br/>value = [2, 0]>, fillcolor="#e58139"] ;
534 -> 536 ;
537 [label=<annual_inc &le; 40500.0<br/>gini = 0.375<br/>samples = 8<br/>value = [6, 2]>, fillcolor="#eeab7b"] ;
505 -> 537 ;
538 [label=<int_rate &le; 0.087<br/>gini = 0.444<br/>samples = 3<br/>value = [1, 2]>, fillcolor="#9ccef2"] ;
537 -> 538 ;
539 [label=<gini = 0.0<br/>samples = 1<br/>value = [1, 0]>, fillcolor="#e58139"] ;
538 -> 539 ;
540 [label=<gini = 0.0<br/>samples = 2<br/>value = [0, 2]>, fillcolor="#399de5"] ;
538 -> 540 ;
541 [label=<gini = 0.0<br/>samples = 5<br/>value = [5, 0]>, fillcolor="#e58139"] ;
537 -> 541 ;
542 [label=<term_is_36 &le; 0.5<br/>gini = 0.5<br/>samples = 2<br/>value = [1, 1]>, fillcolor="#ffffff"] ;
504 -> 542 ;
543 [label=<gini = 0.0<br/>samples = 1<br/>value = [0, 1]>, fillcolor="#399de5"] ;
542 -> 543 ;
544 [label=<gini = 0.0<br/>samples = 1<br/>value = [1, 0]>, fillcolor="#e58139"] ;
542 -> 544 ;
545 [label=<addr_state_AL &le; 0.5<br/>gini = 0.21<br/>samples = 84<br/>value = [74, 10]>, fillcolor="#e99254"] ;
503 -> 545 ;
546 [label=<annual_inc &le; 50200.0<br/>gini = 0.193<br/>samples = 83<br/>value = [74, 9]>, fillcolor="#e89051"] ;
545 -> 546 ;
547 [label=<inq_last_6mths &le; 2.5<br/>gini = 0.133<br/>samples = 70<br/>value = [65, 5]>, fillcolor="#e78b48"] ;
546 -> 547 ;
548 [label=<addr_state_AZ &le; 0.5<br/>gini = 0.089<br/>samples = 64<br/>value = [61, 3]>, fillcolor="#e68743"] ;
547 -> 548 ;
549 [label=<purpose_small_business &le; 0.5<br/>gini = 0.063<br/>samples = 61<br/>value = [59, 2]>, fillcolor="#e68540"] ;
548 -> 549 ;
550 [label=<int_rate &le; 0.089<br/>gini = 0.034<br/>samples = 58<br/>value = [57, 1]>, fillcolor="#e5833c"] ;
549 -> 550 ;
551 [label=<gini = 0.0<br/>samples = 54<br/>value = [54, 0]>, fillcolor="#e58139"] ;
550 -> 551 ;
552 [label=<total_acc &le; 30.5<br/>gini = 0.375<br/>samples = 4<br/>value = [3, 1]>, fillcolor="#eeab7b"] ;
550 -> 552 ;
553 [label=<gini = 0.0<br/>samples = 1<br/>value = [0, 1]>, fillcolor="#399de5"] ;
552 -> 553 ;
554 [label=<gini = 0.0<br/>samples = 3<br/>value = [3, 0]>, fillcolor="#e58139"] ;
552 -> 554 ;
555 [label=<total_acc &le; 31.0<br/>gini = 0.444<br/>samples = 3<br/>value = [2, 1]>, fillcolor="#f2c09c"] ;
549 -> 555 ;
556 [label=<gini = 0.0<br/>samples = 1<br/>value = [0, 1]>, fillcolor="#399de5"] ;
555 -> 556 ;
557 [label=<gini = 0.0<br/>samples = 2<br/>value = [2, 0]>, fillcolor="#e58139"] ;
555 -> 557 ;
558 [label=<dti &le; 11.59<br/>gini = 0.444<br/>samples = 3<br/>value = [2, 1]>, fillcolor="#f2c09c"] ;
548 -> 558 ;
559 [label=<gini = 0.0<br/>samples = 2<br/>value = [2, 0]>, fillcolor="#e58139"] ;
558 -> 559 ;
560 [label=<gini = 0.0<br/>samples = 1<br/>value = [0, 1]>, fillcolor="#399de5"] ;
558 -> 560 ;
561 [label=<open_acc &le; 10.0<br/>gini = 0.444<br/>samples = 6<br/>value = [4, 2]>, fillcolor="#f2c09c"] ;
547 -> 561 ;
562 [label=<gini = 0.0<br/>samples = 3<br/>value = [3, 0]>, fillcolor="#e58139"] ;
561 -> 562 ;
563 [label=<addr_state_CA &le; 0.5<br/>gini = 0.444<br/>samples = 3<br/>value = [1, 2]>, fillcolor="#9ccef2"] ;
561 -> 563 ;
564 [label=<gini = 0.0<br/>samples = 2<br/>value = [0, 2]>, fillcolor="#399de5"] ;
563 -> 564 ;
565 [label=<gini = 0.0<br/>samples = 1<br/>value = [1, 0]>, fillcolor="#e58139"] ;
563 -> 565 ;
566 [label=<annual_inc &le; 50700.0<br/>gini = 0.426<br/>samples = 13<br/>value = [9, 4]>, fillcolor="#f1b991"] ;
546 -> 566 ;
567 [label=<gini = 0.0<br/>samples = 2<br/>value = [0, 2]>, fillcolor="#399de5"] ;
566 -> 567 ;
568 [label=<addr_state_GA &le; 0.5<br/>gini = 0.298<br/>samples = 11<br/>value = [9, 2]>, fillcolor="#eb9d65"] ;
566 -> 568 ;
569 [label=<addr_state_MI &le; 0.5<br/>gini = 0.18<br/>samples = 10<br/>value = [9, 1]>, fillcolor="#e88f4f"] ;
568 -> 569 ;
570 [label=<gini = 0.0<br/>samples = 9<br/>value = [9, 0]>, fillcolor="#e58139"] ;
569 -> 570 ;
571 [label=<gini = 0.0<br/>samples = 1<br/>value = [0, 1]>, fillcolor="#399de5"] ;
569 -> 571 ;
572 [label=<gini = 0.0<br/>samples = 1<br/>value = [0, 1]>, fillcolor="#399de5"] ;
568 -> 572 ;
573 [label=<gini = 0.0<br/>samples = 1<br/>value = [0, 1]>, fillcolor="#399de5"] ;
545 -> 573 ;
574 [label=<dti &le; 8.83<br/>gini = 0.444<br/>samples = 6<br/>value = [4, 2]>, fillcolor="#f2c09c"] ;
502 -> 574 ;
575 [label=<gini = 0.0<br/>samples = 2<br/>value = [0, 2]>, fillcolor="#399de5"] ;
574 -> 575 ;
576 [label=<gini = 0.0<br/>samples = 4<br/>value = [4, 0]>, fillcolor="#e58139"] ;
574 -> 576 ;
577 [label=<annual_inc &le; 37498.0<br/>gini = 0.48<br/>samples = 5<br/>value = [3, 2]>, fillcolor="#f6d5bd"] ;
501 -> 577 ;
578 [label=<gini = 0.0<br/>samples = 3<br/>value = [3, 0]>, fillcolor="#e58139"] ;
577 -> 578 ;
579 [label=<gini = 0.0<br/>samples = 2<br/>value = [0, 2]>, fillcolor="#399de5"] ;
577 -> 579 ;
580 [label=<loan_amnt &le; 8500.0<br/>gini = 0.397<br/>samples = 11<br/>value = [8, 3]>, fillcolor="#efb083"] ;
480 -> 580 ;
581 [label=<dti &le; 4.5<br/>gini = 0.198<br/>samples = 9<br/>value = [8, 1]>, fillcolor="#e89152"] ;
580 -> 581 ;
582 [label=<gini = 0.0<br/>samples = 1<br/>value = [0, 1]>, fillcolor="#399de5"] ;
581 -> 582 ;
583 [label=<gini = 0.0<br/>samples = 8<br/>value = [8, 0]>, fillcolor="#e58139"] ;
581 -> 583 ;
584 [label=<gini = 0.0<br/>samples = 2<br/>value = [0, 2]>, fillcolor="#399de5"] ;
580 -> 584 ;
585 [label=<purpose_debt_consolidation &le; 0.5<br/>gini = 0.48<br/>samples = 5<br/>value = [2, 3]>, fillcolor="#bddef6"] ;
479 -> 585 ;
586 [label=<purpose_other &le; 0.5<br/>gini = 0.444<br/>samples = 3<br/>value = [2, 1]>, fillcolor="#f2c09c"] ;
585 -> 586 ;
587 [label=<gini = 0.0<br/>samples = 2<br/>value = [2, 0]>, fillcolor="#e58139"] ;
586 -> 587 ;
588 [label=<gini = 0.0<br/>samples = 1<br/>value = [0, 1]>, fillcolor="#399de5"] ;
586 -> 588 ;
589 [label=<gini = 0.0<br/>samples = 2<br/>value = [0, 2]>, fillcolor="#399de5"] ;
585 -> 589 ;
590 [label=<int_rate &le; 0.067<br/>gini = 0.216<br/>samples = 195<br/>value = [171, 24]>, fillcolor="#e99355"] ;
214 -> 590 ;
591 [label=<purpose_credit_card &le; 0.5<br/>gini = 0.459<br/>samples = 14<br/>value = [9, 5]>, fillcolor="#f3c7a7"] ;
590 -> 591 ;
592 [label=<total_acc &le; 20.0<br/>gini = 0.375<br/>samples = 12<br/>value = [9, 3]>, fillcolor="#eeab7b"] ;
591 -> 592 ;
593 [label=<loan_amnt &le; 7500.0<br/>gini = 0.5<br/>samples = 6<br/>value = [3, 3]>, fillcolor="#ffffff"] ;
592 -> 593 ;
594 [label=<total_acc &le; 18.0<br/>gini = 0.375<br/>samples = 4<br/>value = [3, 1]>, fillcolor="#eeab7b"] ;
593 -> 594 ;
595 [label=<gini = 0.0<br/>samples = 3<br/>value = [3, 0]>, fillcolor="#e58139"] ;
594 -> 595 ;
596 [label=<gini = 0.0<br/>samples = 1<br/>value = [0, 1]>, fillcolor="#399de5"] ;
594 -> 596 ;
597 [label=<gini = 0.0<br/>samples = 2<br/>value = [0, 2]>, fillcolor="#399de5"] ;
593 -> 597 ;
598 [label=<gini = 0.0<br/>samples = 6<br/>value = [6, 0]>, fillcolor="#e58139"] ;
592 -> 598 ;
599 [label=<gini = 0.0<br/>samples = 2<br/>value = [0, 2]>, fillcolor="#399de5"] ;
591 -> 599 ;
600 [label=<int_rate &le; 0.093<br/>gini = 0.188<br/>samples = 181<br/>value = [162, 19]>, fillcolor="#e89050"] ;
590 -> 600 ;
601 [label=<emp_length &le; 4.5<br/>gini = 0.174<br/>samples = 177<br/>value = [160, 17]>, fillcolor="#e88e4e"] ;
600 -> 601 ;
602 [label=<open_acc &le; 15.5<br/>gini = 0.098<br/>samples = 97<br/>value = [92, 5]>, fillcolor="#e68844"] ;
601 -> 602 ;
603 [label=<total_acc &le; 2.5<br/>gini = 0.081<br/>samples = 95<br/>value = [91, 4]>, fillcolor="#e68742"] ;
602 -> 603 ;
604 [label=<total_acc &le; 1.5<br/>gini = 0.5<br/>samples = 2<br/>value = [1, 1]>, fillcolor="#ffffff"] ;
603 -> 604 ;
605 [label=<gini = 0.0<br/>samples = 1<br/>value = [1, 0]>, fillcolor="#e58139"] ;
604 -> 605 ;
606 [label=<gini = 0.0<br/>samples = 1<br/>value = [0, 1]>, fillcolor="#399de5"] ;
604 -> 606 ;
607 [label=<sub_grade_A4 &le; 0.5<br/>gini = 0.062<br/>samples = 93<br/>value = [90, 3]>, fillcolor="#e68540"] ;
603 -> 607 ;
608 [label=<gini = 0.0<br/>samples = 59<br/>value = [59, 0]>, fillcolor="#e58139"] ;
607 -> 608 ;
609 [label=<purpose_major_purchase &le; 0.5<br/>gini = 0.161<br/>samples = 34<br/>value = [31, 3]>, fillcolor="#e88d4c"] ;
607 -> 609 ;
610 [label=<total_acc &le; 34.0<br/>gini = 0.114<br/>samples = 33<br/>value = [31, 2]>, fillcolor="#e78946"] ;
609 -> 610 ;
611 [label=<annual_inc &le; 20373.5<br/>gini = 0.062<br/>samples = 31<br/>value = [30, 1]>, fillcolor="#e68540"] ;
610 -> 611 ;
612 [label=<loan_amnt &le; 3500.0<br/>gini = 0.444<br/>samples = 3<br/>value = [2, 1]>, fillcolor="#f2c09c"] ;
611 -> 612 ;
613 [label=<gini = 0.0<br/>samples = 1<br/>value = [0, 1]>, fillcolor="#399de5"] ;
612 -> 613 ;
614 [label=<gini = 0.0<br/>samples = 2<br/>value = [2, 0]>, fillcolor="#e58139"] ;
612 -> 614 ;
615 [label=<gini = 0.0<br/>samples = 28<br/>value = [28, 0]>, fillcolor="#e58139"] ;
611 -> 615 ;
616 [label=<open_acc &le; 12.0<br/>gini = 0.5<br/>samples = 2<br/>value = [1, 1]>, fillcolor="#ffffff"] ;
610 -> 616 ;
617 [label=<gini = 0.0<br/>samples = 1<br/>value = [0, 1]>, fillcolor="#399de5"] ;
616 -> 617 ;
618 [label=<gini = 0.0<br/>samples = 1<br/>value = [1, 0]>, fillcolor="#e58139"] ;
616 -> 618 ;
619 [label=<gini = 0.0<br/>samples = 1<br/>value = [0, 1]>, fillcolor="#399de5"] ;
609 -> 619 ;
620 [label=<sub_grade_A5 &le; 0.5<br/>gini = 0.5<br/>samples = 2<br/>value = [1, 1]>, fillcolor="#ffffff"] ;
602 -> 620 ;
621 [label=<gini = 0.0<br/>samples = 1<br/>value = [0, 1]>, fillcolor="#399de5"] ;
620 -> 621 ;
622 [label=<gini = 0.0<br/>samples = 1<br/>value = [1, 0]>, fillcolor="#e58139"] ;
620 -> 622 ;
623 [label=<dti &le; 14.93<br/>gini = 0.255<br/>samples = 80<br/>value = [68, 12]>, fillcolor="#ea975c"] ;
601 -> 623 ;
624 [label=<purpose_debt_consolidation &le; 0.5<br/>gini = 0.24<br/>samples = 79<br/>value = [68, 11]>, fillcolor="#e99559"] ;
623 -> 624 ;
625 [label=<total_acc &le; 27.0<br/>gini = 0.136<br/>samples = 41<br/>value = [38, 3]>, fillcolor="#e78b49"] ;
624 -> 625 ;
626 [label=<total_acc &le; 5.0<br/>gini = 0.056<br/>samples = 35<br/>value = [34, 1]>, fillcolor="#e6853f"] ;
625 -> 626 ;
627 [label=<emp_length &le; 8.0<br/>gini = 0.5<br/>samples = 2<br/>value = [1, 1]>, fillcolor="#ffffff"] ;
626 -> 627 ;
628 [label=<gini = 0.0<br/>samples = 1<br/>value = [0, 1]>, fillcolor="#399de5"] ;
627 -> 628 ;
629 [label=<gini = 0.0<br/>samples = 1<br/>value = [1, 0]>, fillcolor="#e58139"] ;
627 -> 629 ;
630 [label=<gini = 0.0<br/>samples = 33<br/>value = [33, 0]>, fillcolor="#e58139"] ;
626 -> 630 ;
631 [label=<purpose_credit_card &le; 0.5<br/>gini = 0.444<br/>samples = 6<br/>value = [4, 2]>, fillcolor="#f2c09c"] ;
625 -> 631 ;
632 [label=<annual_inc &le; 47500.0<br/>gini = 0.444<br/>samples = 3<br/>value = [1, 2]>, fillcolor="#9ccef2"] ;
631 -> 632 ;
633 [label=<gini = 0.0<br/>samples = 1<br/>value = [1, 0]>, fillcolor="#e58139"] ;
632 -> 633 ;
634 [label=<gini = 0.0<br/>samples = 2<br/>value = [0, 2]>, fillcolor="#399de5"] ;
632 -> 634 ;
635 [label=<gini = 0.0<br/>samples = 3<br/>value = [3, 0]>, fillcolor="#e58139"] ;
631 -> 635 ;
636 [label=<total_acc &le; 16.5<br/>gini = 0.332<br/>samples = 38<br/>value = [30, 8]>, fillcolor="#eca36e"] ;
624 -> 636 ;
637 [label=<total_acc &le; 7.5<br/>gini = 0.444<br/>samples = 21<br/>value = [14, 7]>, fillcolor="#f2c09c"] ;
636 -> 637 ;
638 [label=<gini = 0.0<br/>samples = 6<br/>value = [6, 0]>, fillcolor="#e58139"] ;
637 -> 638 ;
639 [label=<sub_grade_A5 &le; 0.5<br/>gini = 0.498<br/>samples = 15<br/>value = [8, 7]>, fillcolor="#fcefe6"] ;
637 -> 639 ;
640 [label=<dti &le; 3.885<br/>gini = 0.42<br/>samples = 10<br/>value = [7, 3]>, fillcolor="#f0b78e"] ;
639 -> 640 ;
641 [label=<gini = 0.0<br/>samples = 2<br/>value = [0, 2]>, fillcolor="#399de5"] ;
640 -> 641 ;
642 [label=<loan_amnt &le; 12500.0<br/>gini = 0.219<br/>samples = 8<br/>value = [7, 1]>, fillcolor="#e99355"] ;
640 -> 642 ;
643 [label=<gini = 0.0<br/>samples = 7<br/>value = [7, 0]>, fillcolor="#e58139"] ;
642 -> 643 ;
644 [label=<gini = 0.0<br/>samples = 1<br/>value = [0, 1]>, fillcolor="#399de5"] ;
642 -> 644 ;
645 [label=<term_is_36 &le; 0.5<br/>gini = 0.32<br/>samples = 5<br/>value = [1, 4]>, fillcolor="#6ab6ec"] ;
639 -> 645 ;
646 [label=<gini = 0.0<br/>samples = 1<br/>value = [1, 0]>, fillcolor="#e58139"] ;
645 -> 646 ;
647 [label=<gini = 0.0<br/>samples = 4<br/>value = [0, 4]>, fillcolor="#399de5"] ;
645 -> 647 ;
648 [label=<int_rate &le; 0.069<br/>gini = 0.111<br/>samples = 17<br/>value = [16, 1]>, fillcolor="#e78945"] ;
636 -> 648 ;
649 [label=<gini = 0.0<br/>samples = 1<br/>value = [0, 1]>, fillcolor="#399de5"] ;
648 -> 649 ;
650 [label=<gini = 0.0<br/>samples = 16<br/>value = [16, 0]>, fillcolor="#e58139"] ;
648 -> 650 ;
651 [label=<gini = 0.0<br/>samples = 1<br/>value = [0, 1]>, fillcolor="#399de5"] ;
623 -> 651 ;
652 [label=<total_acc &le; 11.0<br/>gini = 0.5<br/>samples = 4<br/>value = [2, 2]>, fillcolor="#ffffff"] ;
600 -> 652 ;
653 [label=<gini = 0.0<br/>samples = 2<br/>value = [2, 0]>, fillcolor="#e58139"] ;
652 -> 653 ;
654 [label=<gini = 0.0<br/>samples = 2<br/>value = [0, 2]>, fillcolor="#399de5"] ;
652 -> 654 ;
655 [label=<purpose_moving &le; 0.5<br/>gini = 0.325<br/>samples = 44<br/>value = [35, 9]>, fillcolor="#eca16c"] ;
213 -> 655 ;
656 [label=<term_is_36 &le; 0.5<br/>gini = 0.278<br/>samples = 42<br/>value = [35, 7]>, fillcolor="#ea9a61"] ;
655 -> 656 ;
657 [label=<gini = 0.0<br/>samples = 2<br/>value = [0, 2]>, fillcolor="#399de5"] ;
656 -> 657 ;
658 [label=<addr_state_FL &le; 0.5<br/>gini = 0.219<br/>samples = 40<br/>value = [35, 5]>, fillcolor="#e99355"] ;
656 -> 658 ;
659 [label=<open_acc &le; 2.5<br/>gini = 0.149<br/>samples = 37<br/>value = [34, 3]>, fillcolor="#e78c4a"] ;
658 -> 659 ;
660 [label=<gini = 0.0<br/>samples = 1<br/>value = [0, 1]>, fillcolor="#399de5"] ;
659 -> 660 ;
661 [label=<addr_state_AR &le; 0.5<br/>gini = 0.105<br/>samples = 36<br/>value = [34, 2]>, fillcolor="#e78845"] ;
659 -> 661 ;
662 [label=<purpose_home_improvement &le; 0.5<br/>gini = 0.056<br/>samples = 35<br/>value = [34, 1]>, fillcolor="#e6853f"] ;
661 -> 662 ;
663 [label=<gini = 0.0<br/>samples = 33<br/>value = [33, 0]>, fillcolor="#e58139"] ;
662 -> 663 ;
664 [label=<addr_state_IL &le; 0.5<br/>gini = 0.5<br/>samples = 2<br/>value = [1, 1]>, fillcolor="#ffffff"] ;
662 -> 664 ;
665 [label=<gini = 0.0<br/>samples = 1<br/>value = [1, 0]>, fillcolor="#e58139"] ;
664 -> 665 ;
666 [label=<gini = 0.0<br/>samples = 1<br/>value = [0, 1]>, fillcolor="#399de5"] ;
664 -> 666 ;
667 [label=<gini = 0.0<br/>samples = 1<br/>value = [0, 1]>, fillcolor="#399de5"] ;
661 -> 667 ;
668 [label=<purpose_home_improvement &le; 0.5<br/>gini = 0.444<br/>samples = 3<br/>value = [1, 2]>, fillcolor="#9ccef2"] ;
658 -> 668 ;
669 [label=<gini = 0.0<br/>samples = 2<br/>value = [0, 2]>, fillcolor="#399de5"] ;
668 -> 669 ;
670 [label=<gini = 0.0<br/>samples = 1<br/>value = [1, 0]>, fillcolor="#e58139"] ;
668 -> 670 ;
671 [label=<gini = 0.0<br/>samples = 2<br/>value = [0, 2]>, fillcolor="#399de5"] ;
655 -> 671 ;
672 [label=<annual_inc &le; 51400.0<br/>gini = 0.5<br/>samples = 6<br/>value = [3, 3]>, fillcolor="#ffffff"] ;
212 -> 672 ;
673 [label=<addr_state_PA &le; 0.5<br/>gini = 0.375<br/>samples = 4<br/>value = [1, 3]>, fillcolor="#7bbeee"] ;
672 -> 673 ;
674 [label=<gini = 0.0<br/>samples = 3<br/>value = [0, 3]>, fillcolor="#399de5"] ;
673 -> 674 ;
675 [label=<gini = 0.0<br/>samples = 1<br/>value = [1, 0]>, fillcolor="#e58139"] ;
673 -> 675 ;
676 [label=<gini = 0.0<br/>samples = 2<br/>value = [2, 0]>, fillcolor="#e58139"] ;
672 -> 676 ;
677 [label=<loan_amnt &le; 2625.0<br/>gini = 0.193<br/>samples = 1510<br/>value = [1347, 163]>, fillcolor="#e89051"] ;
211 -> 677 ;
678 [label=<total_acc &le; 44.0<br/>gini = 0.32<br/>samples = 150<br/>value = [120, 30]>, fillcolor="#eca06a"] ;
677 -> 678 ;
679 [label=<annual_inc &le; 29502.0<br/>gini = 0.307<br/>samples = 148<br/>value = [120, 28]>, fillcolor="#eb9e67"] ;
678 -> 679 ;
680 [label=<dti &le; 24.615<br/>gini = 0.168<br/>samples = 54<br/>value = [49, 5]>, fillcolor="#e88e4d"] ;
679 -> 680 ;
681 [label=<addr_state_FL &le; 0.5<br/>gini = 0.044<br/>samples = 44<br/>value = [43, 1]>, fillcolor="#e6843e"] ;
680 -> 681 ;
682 [label=<gini = 0.0<br/>samples = 42<br/>value = [42, 0]>, fillcolor="#e58139"] ;
681 -> 682 ;
683 [label=<dti &le; 22.285<br/>gini = 0.5<br/>samples = 2<br/>value = [1, 1]>, fillcolor="#ffffff"] ;
681 -> 683 ;
684 [label=<gini = 0.0<br/>samples = 1<br/>value = [1, 0]>, fillcolor="#e58139"] ;
683 -> 684 ;
685 [label=<gini = 0.0<br/>samples = 1<br/>value = [0, 1]>, fillcolor="#399de5"] ;
683 -> 685 ;
686 [label=<dti &le; 26.175<br/>gini = 0.48<br/>samples = 10<br/>value = [6, 4]>, fillcolor="#f6d5bd"] ;
680 -> 686 ;
687 [label=<open_acc &le; 6.0<br/>gini = 0.32<br/>samples = 5<br/>value = [1, 4]>, fillcolor="#6ab6ec"] ;
686 -> 687 ;
688 [label=<gini = 0.0<br/>samples = 1<br/>value = [1, 0]>, fillcolor="#e58139"] ;
687 -> 688 ;
689 [label=<gini = 0.0<br/>samples = 4<br/>value = [0, 4]>, fillcolor="#399de5"] ;
687 -> 689 ;
690 [label=<gini = 0.0<br/>samples = 5<br/>value = [5, 0]>, fillcolor="#e58139"] ;
686 -> 690 ;
691 [label=<annual_inc &le; 38652.0<br/>gini = 0.37<br/>samples = 94<br/>value = [71, 23]>, fillcolor="#edaa79"] ;
679 -> 691 ;
692 [label=<open_acc &le; 5.5<br/>gini = 0.473<br/>samples = 39<br/>value = [24, 15]>, fillcolor="#f5d0b5"] ;
691 -> 692 ;
693 [label=<int_rate &le; 0.075<br/>gini = 0.408<br/>samples = 7<br/>value = [2, 5]>, fillcolor="#88c4ef"] ;
692 -> 693 ;
694 [label=<annual_inc &le; 31000.0<br/>gini = 0.444<br/>samples = 3<br/>value = [2, 1]>, fillcolor="#f2c09c"] ;
693 -> 694 ;
695 [label=<gini = 0.0<br/>samples = 1<br/>value = [0, 1]>, fillcolor="#399de5"] ;
694 -> 695 ;
696 [label=<gini = 0.0<br/>samples = 2<br/>value = [2, 0]>, fillcolor="#e58139"] ;
694 -> 696 ;
697 [label=<gini = 0.0<br/>samples = 4<br/>value = [0, 4]>, fillcolor="#399de5"] ;
693 -> 697 ;
698 [label=<int_rate &le; 0.068<br/>gini = 0.43<br/>samples = 32<br/>value = [22, 10]>, fillcolor="#f1ba93"] ;
692 -> 698 ;
699 [label=<gini = 0.0<br/>samples = 2<br/>value = [0, 2]>, fillcolor="#399de5"] ;
698 -> 699 ;
700 [label=<addr_state_GA &le; 0.5<br/>gini = 0.391<br/>samples = 30<br/>value = [22, 8]>, fillcolor="#eeaf81"] ;
698 -> 700 ;
701 [label=<total_acc &le; 31.0<br/>gini = 0.337<br/>samples = 28<br/>value = [22, 6]>, fillcolor="#eca36f"] ;
700 -> 701 ;
702 [label=<annual_inc &le; 37650.0<br/>gini = 0.219<br/>samples = 24<br/>value = [21, 3]>, fillcolor="#e99355"] ;
701 -> 702 ;
703 [label=<addr_state_AZ &le; 0.5<br/>gini = 0.159<br/>samples = 23<br/>value = [21, 2]>, fillcolor="#e78d4c"] ;
702 -> 703 ;
704 [label=<total_acc &le; 11.0<br/>gini = 0.091<br/>samples = 21<br/>value = [20, 1]>, fillcolor="#e68743"] ;
703 -> 704 ;
705 [label=<term_is_36 &le; 0.5<br/>gini = 0.5<br/>samples = 2<br/>value = [1, 1]>, fillcolor="#ffffff"] ;
704 -> 705 ;
706 [label=<gini = 0.0<br/>samples = 1<br/>value = [1, 0]>, fillcolor="#e58139"] ;
705 -> 706 ;
707 [label=<gini = 0.0<br/>samples = 1<br/>value = [0, 1]>, fillcolor="#399de5"] ;
705 -> 707 ;
708 [label=<gini = 0.0<br/>samples = 19<br/>value = [19, 0]>, fillcolor="#e58139"] ;
704 -> 708 ;
709 [label=<annual_inc &le; 34688.0<br/>gini = 0.5<br/>samples = 2<br/>value = [1, 1]>, fillcolor="#ffffff"] ;
703 -> 709 ;
710 [label=<gini = 0.0<br/>samples = 1<br/>value = [0, 1]>, fillcolor="#399de5"] ;
709 -> 710 ;
711 [label=<gini = 0.0<br/>samples = 1<br/>value = [1, 0]>, fillcolor="#e58139"] ;
709 -> 711 ;
712 [label=<gini = 0.0<br/>samples = 1<br/>value = [0, 1]>, fillcolor="#399de5"] ;
702 -> 712 ;
713 [label=<pub_rec_bankruptcies &le; 0.5<br/>gini = 0.375<br/>samples = 4<br/>value = [1, 3]>, fillcolor="#7bbeee"] ;
701 -> 713 ;
714 [label=<gini = 0.0<br/>samples = 3<br/>value = [0, 3]>, fillcolor="#399de5"] ;
713 -> 714 ;
715 [label=<gini = 0.0<br/>samples = 1<br/>value = [1, 0]>, fillcolor="#e58139"] ;
713 -> 715 ;
716 [label=<gini = 0.0<br/>samples = 2<br/>value = [0, 2]>, fillcolor="#399de5"] ;
700 -> 716 ;
717 [label=<pub_rec_bankruptcies &le; 0.5<br/>gini = 0.249<br/>samples = 55<br/>value = [47, 8]>, fillcolor="#e9965b"] ;
691 -> 717 ;
718 [label=<loan_amnt &le; 2550.0<br/>gini = 0.226<br/>samples = 54<br/>value = [47, 7]>, fillcolor="#e99456"] ;
717 -> 718 ;
719 [label=<annual_inc &le; 49894.0<br/>gini = 0.201<br/>samples = 53<br/>value = [47, 6]>, fillcolor="#e89152"] ;
718 -> 719 ;
720 [label=<total_acc &le; 11.5<br/>gini = 0.1<br/>samples = 38<br/>value = [36, 2]>, fillcolor="#e68844"] ;
719 -> 720 ;
721 [label=<sub_grade_A3 &le; 0.5<br/>gini = 0.48<br/>samples = 5<br/>value = [3, 2]>, fillcolor="#f6d5bd"] ;
720 -> 721 ;
722 [label=<int_rate &le; 0.078<br/>gini = 0.444<br/>samples = 3<br/>value = [1, 2]>, fillcolor="#9ccef2"] ;
721 -> 722 ;
723 [label=<gini = 0.0<br/>samples = 2<br/>value = [0, 2]>, fillcolor="#399de5"] ;
722 -> 723 ;
724 [label=<gini = 0.0<br/>samples = 1<br/>value = [1, 0]>, fillcolor="#e58139"] ;
722 -> 724 ;
725 [label=<gini = 0.0<br/>samples = 2<br/>value = [2, 0]>, fillcolor="#e58139"] ;
721 -> 725 ;
726 [label=<gini = 0.0<br/>samples = 33<br/>value = [33, 0]>, fillcolor="#e58139"] ;
720 -> 726 ;
727 [label=<loan_amnt &le; 2150.0<br/>gini = 0.391<br/>samples = 15<br/>value = [11, 4]>, fillcolor="#eeaf81"] ;
719 -> 727 ;
728 [label=<addr_state_OR &le; 0.5<br/>gini = 0.165<br/>samples = 11<br/>value = [10, 1]>, fillcolor="#e88e4d"] ;
727 -> 728 ;
729 [label=<gini = 0.0<br/>samples = 10<br/>value = [10, 0]>, fillcolor="#e58139"] ;
728 -> 729 ;
730 [label=<gini = 0.0<br/>samples = 1<br/>value = [0, 1]>, fillcolor="#399de5"] ;
728 -> 730 ;
731 [label=<inq_last_6mths &le; 3.5<br/>gini = 0.375<br/>samples = 4<br/>value = [1, 3]>, fillcolor="#7bbeee"] ;
727 -> 731 ;
732 [label=<gini = 0.0<br/>samples = 3<br/>value = [0, 3]>, fillcolor="#399de5"] ;
731 -> 732 ;
733 [label=<gini = 0.0<br/>samples = 1<br/>value = [1, 0]>, fillcolor="#e58139"] ;
731 -> 733 ;
734 [label=<gini = 0.0<br/>samples = 1<br/>value = [0, 1]>, fillcolor="#399de5"] ;
718 -> 734 ;
735 [label=<gini = 0.0<br/>samples = 1<br/>value = [0, 1]>, fillcolor="#399de5"] ;
717 -> 735 ;
736 [label=<gini = 0.0<br/>samples = 2<br/>value = [0, 2]>, fillcolor="#399de5"] ;
678 -> 736 ;
737 [label=<total_acc &le; 37.5<br/>gini = 0.176<br/>samples = 1360<br/>value = [1227, 133]>, fillcolor="#e88f4e"] ;
677 -> 737 ;
738 [label=<addr_state_HI &le; 0.5<br/>gini = 0.163<br/>samples = 1242<br/>value = [1131, 111]>, fillcolor="#e88d4c"] ;
737 -> 738 ;
739 [label=<emp_length &le; 1.5<br/>gini = 0.159<br/>samples = 1236<br/>value = [1128, 108]>, fillcolor="#e78d4c"] ;
738 -> 739 ;
740 [label=<dti &le; 15.35<br/>gini = 0.089<br/>samples = 258<br/>value = [246, 12]>, fillcolor="#e68743"] ;
739 -> 740 ;
741 [label=<int_rate &le; 0.067<br/>gini = 0.444<br/>samples = 9<br/>value = [6, 3]>, fillcolor="#f2c09c"] ;
740 -> 741 ;
742 [label=<gini = 0.0<br/>samples = 2<br/>value = [0, 2]>, fillcolor="#399de5"] ;
741 -> 742 ;
743 [label=<addr_state_MD &le; 0.5<br/>gini = 0.245<br/>samples = 7<br/>value = [6, 1]>, fillcolor="#e9965a"] ;
741 -> 743 ;
744 [label=<gini = 0.0<br/>samples = 6<br/>value = [6, 0]>, fillcolor="#e58139"] ;
743 -> 744 ;
745 [label=<gini = 0.0<br/>samples = 1<br/>value = [0, 1]>, fillcolor="#399de5"] ;
743 -> 745 ;
746 [label=<annual_inc &le; 21512.0<br/>gini = 0.07<br/>samples = 249<br/>value = [240, 9]>, fillcolor="#e68640"] ;
740 -> 746 ;
747 [label=<annual_inc &le; 21212.0<br/>gini = 0.305<br/>samples = 16<br/>value = [13, 3]>, fillcolor="#eb9e67"] ;
746 -> 747 ;
748 [label=<addr_state_NC &le; 0.5<br/>gini = 0.231<br/>samples = 15<br/>value = [13, 2]>, fillcolor="#e99457"] ;
747 -> 748 ;
749 [label=<addr_state_GA &le; 0.5<br/>gini = 0.142<br/>samples = 13<br/>value = [12, 1]>, fillcolor="#e78c49"] ;
748 -> 749 ;
750 [label=<gini = 0.0<br/>samples = 11<br/>value = [11, 0]>, fillcolor="#e58139"] ;
749 -> 750 ;
751 [label=<int_rate &le; 0.077<br/>gini = 0.5<br/>samples = 2<br/>value = [1, 1]>, fillcolor="#ffffff"] ;
749 -> 751 ;
752 [label=<gini = 0.0<br/>samples = 1<br/>value = [1, 0]>, fillcolor="#e58139"] ;
751 -> 752 ;
753 [label=<gini = 0.0<br/>samples = 1<br/>value = [0, 1]>, fillcolor="#399de5"] ;
751 -> 753 ;
754 [label=<dti &le; 17.435<br/>gini = 0.5<br/>samples = 2<br/>value = [1, 1]>, fillcolor="#ffffff"] ;
748 -> 754 ;
755 [label=<gini = 0.0<br/>samples = 1<br/>value = [0, 1]>, fillcolor="#399de5"] ;
754 -> 755 ;
756 [label=<gini = 0.0<br/>samples = 1<br/>value = [1, 0]>, fillcolor="#e58139"] ;
754 -> 756 ;
757 [label=<gini = 0.0<br/>samples = 1<br/>value = [0, 1]>, fillcolor="#399de5"] ;
747 -> 757 ;
758 [label=<total_acc &le; 27.5<br/>gini = 0.05<br/>samples = 233<br/>value = [227, 6]>, fillcolor="#e6843e"] ;
746 -> 758 ;
759 [label=<addr_state_MO &le; 0.5<br/>gini = 0.02<br/>samples = 201<br/>value = [199, 2]>, fillcolor="#e5823b"] ;
758 -> 759 ;
760 [label=<loan_amnt &le; 3025.0<br/>gini = 0.01<br/>samples = 197<br/>value = [196, 1]>, fillcolor="#e5823a"] ;
759 -> 760 ;
761 [label=<addr_state_CA &le; 0.5<br/>gini = 0.18<br/>samples = 10<br/>value = [9, 1]>, fillcolor="#e88f4f"] ;
760 -> 761 ;
762 [label=<gini = 0.0<br/>samples = 9<br/>value = [9, 0]>, fillcolor="#e58139"] ;
761 -> 762 ;
763 [label=<gini = 0.0<br/>samples = 1<br/>value = [0, 1]>, fillcolor="#399de5"] ;
761 -> 763 ;
764 [label=<gini = 0.0<br/>samples = 187<br/>value = [187, 0]>, fillcolor="#e58139"] ;
760 -> 764 ;
765 [label=<purpose_debt_consolidation &le; 0.5<br/>gini = 0.375<br/>samples = 4<br/>value = [3, 1]>, fillcolor="#eeab7b"] ;
759 -> 765 ;
766 [label=<gini = 0.0<br/>samples = 3<br/>value = [3, 0]>, fillcolor="#e58139"] ;
765 -> 766 ;
767 [label=<gini = 0.0<br/>samples = 1<br/>value = [0, 1]>, fillcolor="#399de5"] ;
765 -> 767 ;
768 [label=<loan_amnt &le; 12500.0<br/>gini = 0.219<br/>samples = 32<br/>value = [28, 4]>, fillcolor="#e99355"] ;
758 -> 768 ;
769 [label=<addr_state_CO &le; 0.5<br/>gini = 0.128<br/>samples = 29<br/>value = [27, 2]>, fillcolor="#e78a48"] ;
768 -> 769 ;
770 [label=<inq_last_6mths &le; 2.5<br/>gini = 0.071<br/>samples = 27<br/>value = [26, 1]>, fillcolor="#e68641"] ;
769 -> 770 ;
771 [label=<gini = 0.0<br/>samples = 25<br/>value = [25, 0]>, fillcolor="#e58139"] ;
770 -> 771 ;
772 [label=<purpose_debt_consolidation &le; 0.5<br/>gini = 0.5<br/>samples = 2<br/>value = [1, 1]>, fillcolor="#ffffff"] ;
770 -> 772 ;
773 [label=<gini = 0.0<br/>samples = 1<br/>value = [1, 0]>, fillcolor="#e58139"] ;
772 -> 773 ;
774 [label=<gini = 0.0<br/>samples = 1<br/>value = [0, 1]>, fillcolor="#399de5"] ;
772 -> 774 ;
775 [label=<annual_inc &le; 44200.0<br/>gini = 0.5<br/>samples = 2<br/>value = [1, 1]>, fillcolor="#ffffff"] ;
769 -> 775 ;
776 [label=<gini = 0.0<br/>samples = 1<br/>value = [1, 0]>, fillcolor="#e58139"] ;
775 -> 776 ;
777 [label=<gini = 0.0<br/>samples = 1<br/>value = [0, 1]>, fillcolor="#399de5"] ;
775 -> 777 ;
778 [label=<addr_state_SC &le; 0.5<br/>gini = 0.444<br/>samples = 3<br/>value = [1, 2]>, fillcolor="#9ccef2"] ;
768 -> 778 ;
779 [label=<gini = 0.0<br/>samples = 2<br/>value = [0, 2]>, fillcolor="#399de5"] ;
778 -> 779 ;
780 [label=<gini = 0.0<br/>samples = 1<br/>value = [1, 0]>, fillcolor="#e58139"] ;
778 -> 780 ;
781 [label=<addr_state_NM &le; 0.5<br/>gini = 0.177<br/>samples = 978<br/>value = [882, 96]>, fillcolor="#e88f4f"] ;
739 -> 781 ;
782 [label=<addr_state_DE &le; 0.5<br/>gini = 0.176<br/>samples = 977<br/>value = [882, 95]>, fillcolor="#e88f4e"] ;
781 -> 782 ;
783 [label=<purpose_moving &le; 0.5<br/>gini = 0.174<br/>samples = 976<br/>value = [882, 94]>, fillcolor="#e88e4e"] ;
782 -> 783 ;
784 [label=<int_rate &le; 0.079<br/>gini = 0.17<br/>samples = 969<br/>value = [878, 91]>, fillcolor="#e88e4e"] ;
783 -> 784 ;
785 [label=<addr_state_KS &le; 0.5<br/>gini = 0.141<br/>samples = 655<br/>value = [605, 50]>, fillcolor="#e78b49"] ;
784 -> 785 ;
786 [label=<addr_state_MN &le; 0.5<br/>gini = 0.137<br/>samples = 650<br/>value = [602, 48]>, fillcolor="#e78b49"] ;
785 -> 786 ;
787 [label=<addr_state_GA &le; 0.5<br/>gini = 0.131<br/>samples = 639<br/>value = [594, 45]>, fillcolor="#e78b48"] ;
786 -> 787 ;
788 [label=<int_rate &le; 0.067<br/>gini = 0.122<br/>samples = 613<br/>value = [573, 40]>, fillcolor="#e78a47"] ;
787 -> 788 ;
789 [label=<addr_state_NC &le; 0.5<br/>gini = 0.236<br/>samples = 88<br/>value = [76, 12]>, fillcolor="#e99558"] ;
788 -> 789 ;
790 [label=<total_acc &le; 28.5<br/>gini = 0.195<br/>samples = 82<br/>value = [73, 9]>, fillcolor="#e89151"] ;
789 -> 790 ;
791 [label=<dti &le; 29.73<br/>gini = 0.112<br/>samples = 67<br/>value = [63, 4]>, fillcolor="#e78946"] ;
790 -> 791 ;
792 [label=<addr_state_WA &le; 0.5<br/>gini = 0.087<br/>samples = 66<br/>value = [63, 3]>, fillcolor="#e68742"] ;
791 -> 792 ;
793 [label=<purpose_major_purchase &le; 0.5<br/>gini = 0.061<br/>samples = 63<br/>value = [61, 2]>, fillcolor="#e6853f"] ;
792 -> 793 ;
794 [label=<addr_state_NY &le; 0.5<br/>gini = 0.033<br/>samples = 59<br/>value = [58, 1]>, fillcolor="#e5833c"] ;
793 -> 794 ;
795 [label=<gini = 0.0<br/>samples = 54<br/>value = [54, 0]>, fillcolor="#e58139"] ;
794 -> 795 ;
796 [label=<open_acc &le; 7.0<br/>gini = 0.32<br/>samples = 5<br/>value = [4, 1]>, fillcolor="#eca06a"] ;
794 -> 796 ;
797 [label=<gini = 0.0<br/>samples = 1<br/>value = [0, 1]>, fillcolor="#399de5"] ;
796 -> 797 ;
798 [label=<gini = 0.0<br/>samples = 4<br/>value = [4, 0]>, fillcolor="#e58139"] ;
796 -> 798 ;
799 [label=<dti &le; 25.095<br/>gini = 0.375<br/>samples = 4<br/>value = [3, 1]>, fillcolor="#eeab7b"] ;
793 -> 799 ;
800 [label=<gini = 0.0<br/>samples = 3<br/>value = [3, 0]>, fillcolor="#e58139"] ;
799 -> 800 ;
801 [label=<gini = 0.0<br/>samples = 1<br/>value = [0, 1]>, fillcolor="#399de5"] ;
799 -> 801 ;
802 [label=<purpose_other &le; 0.5<br/>gini = 0.444<br/>samples = 3<br/>value = [2, 1]>, fillcolor="#f2c09c"] ;
792 -> 802 ;
803 [label=<gini = 0.0<br/>samples = 2<br/>value = [2, 0]>, fillcolor="#e58139"] ;
802 -> 803 ;
804 [label=<gini = 0.0<br/>samples = 1<br/>value = [0, 1]>, fillcolor="#399de5"] ;
802 -> 804 ;
805 [label=<gini = 0.0<br/>samples = 1<br/>value = [0, 1]>, fillcolor="#399de5"] ;
791 -> 805 ;
806 [label=<loan_amnt &le; 4875.0<br/>gini = 0.444<br/>samples = 15<br/>value = [10, 5]>, fillcolor="#f2c09c"] ;
790 -> 806 ;
807 [label=<gini = 0.0<br/>samples = 4<br/>value = [4, 0]>, fillcolor="#e58139"] ;
806 -> 807 ;
808 [label=<annual_inc &le; 44039.0<br/>gini = 0.496<br/>samples = 11<br/>value = [6, 5]>, fillcolor="#fbeade"] ;
806 -> 808 ;
809 [label=<open_acc &le; 8.0<br/>gini = 0.32<br/>samples = 5<br/>value = [1, 4]>, fillcolor="#6ab6ec"] ;
808 -> 809 ;
810 [label=<gini = 0.0<br/>samples = 1<br/>value = [1, 0]>, fillcolor="#e58139"] ;
809 -> 810 ;
811 [label=<gini = 0.0<br/>samples = 4<br/>value = [0, 4]>, fillcolor="#399de5"] ;
809 -> 811 ;
812 [label=<purpose_credit_card &le; 0.5<br/>gini = 0.278<br/>samples = 6<br/>value = [5, 1]>, fillcolor="#ea9a61"] ;
808 -> 812 ;
813 [label=<gini = 0.0<br/>samples = 4<br/>value = [4, 0]>, fillcolor="#e58139"] ;
812 -> 813 ;
814 [label=<loan_amnt &le; 10250.0<br/>gini = 0.5<br/>samples = 2<br/>value = [1, 1]>, fillcolor="#ffffff"] ;
812 -> 814 ;
815 [label=<gini = 0.0<br/>samples = 1<br/>value = [1, 0]>, fillcolor="#e58139"] ;
814 -> 815 ;
816 [label=<gini = 0.0<br/>samples = 1<br/>value = [0, 1]>, fillcolor="#399de5"] ;
814 -> 816 ;
817 [label=<annual_inc &le; 30994.0<br/>gini = 0.5<br/>samples = 6<br/>value = [3, 3]>, fillcolor="#ffffff"] ;
789 -> 817 ;
818 [label=<gini = 0.0<br/>samples = 2<br/>value = [0, 2]>, fillcolor="#399de5"] ;
817 -> 818 ;
819 [label=<annual_inc &le; 42300.0<br/>gini = 0.375<br/>samples = 4<br/>value = [3, 1]>, fillcolor="#eeab7b"] ;
817 -> 819 ;
820 [label=<gini = 0.0<br/>samples = 3<br/>value = [3, 0]>, fillcolor="#e58139"] ;
819 -> 820 ;
821 [label=<gini = 0.0<br/>samples = 1<br/>value = [0, 1]>, fillcolor="#399de5"] ;
819 -> 821 ;
822 [label=<int_rate &le; 0.075<br/>gini = 0.101<br/>samples = 525<br/>value = [497, 28]>, fillcolor="#e68844"] ;
788 -> 822 ;
823 [label=<total_acc &le; 7.5<br/>gini = 0.038<br/>samples = 208<br/>value = [204, 4]>, fillcolor="#e6833d"] ;
822 -> 823 ;
824 [label=<loan_amnt &le; 4300.0<br/>gini = 0.32<br/>samples = 5<br/>value = [4, 1]>, fillcolor="#eca06a"] ;
823 -> 824 ;
825 [label=<gini = 0.0<br/>samples = 1<br/>value = [0, 1]>, fillcolor="#399de5"] ;
824 -> 825 ;
826 [label=<gini = 0.0<br/>samples = 4<br/>value = [4, 0]>, fillcolor="#e58139"] ;
824 -> 826 ;
827 [label=<addr_state_OH &le; 0.5<br/>gini = 0.029<br/>samples = 203<br/>value = [200, 3]>, fillcolor="#e5833c"] ;
823 -> 827 ;
828 [label=<dti &le; 15.67<br/>gini = 0.02<br/>samples = 194<br/>value = [192, 2]>, fillcolor="#e5823b"] ;
827 -> 828 ;
829 [label=<dti &le; 15.565<br/>gini = 0.18<br/>samples = 10<br/>value = [9, 1]>, fillcolor="#e88f4f"] ;
828 -> 829 ;
830 [label=<gini = 0.0<br/>samples = 9<br/>value = [9, 0]>, fillcolor="#e58139"] ;
829 -> 830 ;
831 [label=<gini = 0.0<br/>samples = 1<br/>value = [0, 1]>, fillcolor="#399de5"] ;
829 -> 831 ;
832 [label=<loan_amnt &le; 3100.0<br/>gini = 0.011<br/>samples = 184<br/>value = [183, 1]>, fillcolor="#e5823a"] ;
828 -> 832 ;
833 [label=<purpose_other &le; 0.5<br/>gini = 0.153<br/>samples = 12<br/>value = [11, 1]>, fillcolor="#e78c4b"] ;
832 -> 833 ;
834 [label=<gini = 0.0<br/>samples = 11<br/>value = [11, 0]>, fillcolor="#e58139"] ;
833 -> 834 ;
835 [label=<gini = 0.0<br/>samples = 1<br/>value = [0, 1]>, fillcolor="#399de5"] ;
833 -> 835 ;
836 [label=<gini = 0.0<br/>samples = 172<br/>value = [172, 0]>, fillcolor="#e58139"] ;
832 -> 836 ;
837 [label=<total_acc &le; 22.5<br/>gini = 0.198<br/>samples = 9<br/>value = [8, 1]>, fillcolor="#e89152"] ;
827 -> 837 ;
838 [label=<gini = 0.0<br/>samples = 6<br/>value = [6, 0]>, fillcolor="#e58139"] ;
837 -> 838 ;
839 [label=<sub_grade_A3 &le; 0.5<br/>gini = 0.444<br/>samples = 3<br/>value = [2, 1]>, fillcolor="#f2c09c"] ;
837 -> 839 ;
840 [label=<gini = 0.0<br/>samples = 2<br/>value = [2, 0]>, fillcolor="#e58139"] ;
839 -> 840 ;
841 [label=<gini = 0.0<br/>samples = 1<br/>value = [0, 1]>, fillcolor="#399de5"] ;
839 -> 841 ;
842 [label=<dti &le; 25.79<br/>gini = 0.14<br/>samples = 317<br/>value = [293, 24]>, fillcolor="#e78b49"] ;
822 -> 842 ;
843 [label=<sub_grade_A3 &le; 0.5<br/>gini = 0.111<br/>samples = 288<br/>value = [271, 17]>, fillcolor="#e78945"] ;
842 -> 843 ;
844 [label=<addr_state_SD &le; 0.5<br/>gini = 0.074<br/>samples = 235<br/>value = [226, 9]>, fillcolor="#e68641"] ;
843 -> 844 ;
845 [label=<total_acc &le; 35.5<br/>gini = 0.066<br/>samples = 233<br/>value = [225, 8]>, fillcolor="#e68540"] ;
844 -> 845 ;
846 [label=<dti &le; 15.25<br/>gini = 0.052<br/>samples = 225<br/>value = [219, 6]>, fillcolor="#e6843e"] ;
845 -> 846 ;
847 [label=<total_acc &le; 22.0<br/>gini = 0.32<br/>samples = 5<br/>value = [4, 1]>, fillcolor="#eca06a"] ;
846 -> 847 ;
848 [label=<gini = 0.0<br/>samples = 4<br/>value = [4, 0]>, fillcolor="#e58139"] ;
847 -> 848 ;
849 [label=<gini = 0.0<br/>samples = 1<br/>value = [0, 1]>, fillcolor="#399de5"] ;
847 -> 849 ;
850 [label=<addr_state_WA &le; 0.5<br/>gini = 0.044<br/>samples = 220<br/>value = [215, 5]>, fillcolor="#e6843e"] ;
846 -> 850 ;
851 [label=<emp_length &le; 9.5<br/>gini = 0.037<br/>samples = 215<br/>value = [211, 4]>, fillcolor="#e5833d"] ;
850 -> 851 ;
852 [label=<addr_state_IL &le; 0.5<br/>gini = 0.012<br/>samples = 172<br/>value = [171, 1]>, fillcolor="#e5823a"] ;
851 -> 852 ;
853 [label=<gini = 0.0<br/>samples = 167<br/>value = [167, 0]>, fillcolor="#e58139"] ;
852 -> 853 ;
854 [label=<open_acc &le; 6.5<br/>gini = 0.32<br/>samples = 5<br/>value = [4, 1]>, fillcolor="#eca06a"] ;
852 -> 854 ;
855 [label=<gini = 0.0<br/>samples = 1<br/>value = [0, 1]>, fillcolor="#399de5"] ;
854 -> 855 ;
856 [label=<gini = 0.0<br/>samples = 4<br/>value = [4, 0]>, fillcolor="#e58139"] ;
854 -> 856 ;
857 [label=<dti &le; 20.055<br/>gini = 0.13<br/>samples = 43<br/>value = [40, 3]>, fillcolor="#e78a48"] ;
851 -> 857 ;
858 [label=<gini = 0.0<br/>samples = 23<br/>value = [23, 0]>, fillcolor="#e58139"] ;
857 -> 858 ;
859 [label=<dti &le; 21.575<br/>gini = 0.255<br/>samples = 20<br/>value = [17, 3]>, fillcolor="#ea975c"] ;
857 -> 859 ;
860 [label=<total_acc &le; 17.0<br/>gini = 0.49<br/>samples = 7<br/>value = [4, 3]>, fillcolor="#f8e0ce"] ;
859 -> 860 ;
861 [label=<gini = 0.0<br/>samples = 2<br/>value = [0, 2]>, fillcolor="#399de5"] ;
860 -> 861 ;
862 [label=<int_rate &le; 0.078<br/>gini = 0.32<br/>samples = 5<br/>value = [4, 1]>, fillcolor="#eca06a"] ;
860 -> 862 ;
863 [label=<gini = 0.0<br/>samples = 4<br/>value = [4, 0]>, fillcolor="#e58139"] ;
862 -> 863 ;
864 [label=<gini = 0.0<br/>samples = 1<br/>value = [0, 1]>, fillcolor="#399de5"] ;
862 -> 864 ;
865 [label=<gini = 0.0<br/>samples = 13<br/>value = [13, 0]>, fillcolor="#e58139"] ;
859 -> 865 ;
866 [label=<loan_amnt &le; 8000.0<br/>gini = 0.32<br/>samples = 5<br/>value = [4, 1]>, fillcolor="#eca06a"] ;
850 -> 866 ;
867 [label=<gini = 0.0<br/>samples = 4<br/>value = [4, 0]>, fillcolor="#e58139"] ;
866 -> 867 ;
868 [label=<gini = 0.0<br/>samples = 1<br/>value = [0, 1]>, fillcolor="#399de5"] ;
866 -> 868 ;
869 [label=<loan_amnt &le; 11500.0<br/>gini = 0.375<br/>samples = 8<br/>value = [6, 2]>, fillcolor="#eeab7b"] ;
845 -> 869 ;
870 [label=<gini = 0.0<br/>samples = 5<br/>value = [5, 0]>, fillcolor="#e58139"] ;
869 -> 870 ;
871 [label=<open_acc &le; 17.5<br/>gini = 0.444<br/>samples = 3<br/>value = [1, 2]>, fillcolor="#9ccef2"] ;
869 -> 871 ;
872 [label=<gini = 0.0<br/>samples = 2<br/>value = [0, 2]>, fillcolor="#399de5"] ;
871 -> 872 ;
873 [label=<gini = 0.0<br/>samples = 1<br/>value = [1, 0]>, fillcolor="#e58139"] ;
871 -> 873 ;
874 [label=<purpose_debt_consolidation &le; 0.5<br/>gini = 0.5<br/>samples = 2<br/>value = [1, 1]>, fillcolor="#ffffff"] ;
844 -> 874 ;
875 [label=<gini = 0.0<br/>samples = 1<br/>value = [0, 1]>, fillcolor="#399de5"] ;
874 -> 875 ;
876 [label=<gini = 0.0<br/>samples = 1<br/>value = [1, 0]>, fillcolor="#e58139"] ;
874 -> 876 ;
877 [label=<loan_amnt &le; 3550.0<br/>gini = 0.256<br/>samples = 53<br/>value = [45, 8]>, fillcolor="#ea975c"] ;
843 -> 877 ;
878 [label=<gini = 0.0<br/>samples = 2<br/>value = [0, 2]>, fillcolor="#399de5"] ;
877 -> 878 ;
879 [label=<addr_state_FL &le; 0.5<br/>gini = 0.208<br/>samples = 51<br/>value = [45, 6]>, fillcolor="#e89253"] ;
877 -> 879 ;
880 [label=<open_acc &le; 17.5<br/>gini = 0.124<br/>samples = 45<br/>value = [42, 3]>, fillcolor="#e78a47"] ;
879 -> 880 ;
881 [label=<addr_state_NY &le; 0.5<br/>gini = 0.087<br/>samples = 44<br/>value = [42, 2]>, fillcolor="#e68742"] ;
880 -> 881 ;
882 [label=<addr_state_TX &le; 0.5<br/>gini = 0.046<br/>samples = 42<br/>value = [41, 1]>, fillcolor="#e6843e"] ;
881 -> 882 ;
883 [label=<gini = 0.0<br/>samples = 38<br/>value = [38, 0]>, fillcolor="#e58139"] ;
882 -> 883 ;
884 [label=<loan_amnt &le; 9875.0<br/>gini = 0.375<br/>samples = 4<br/>value = [3, 1]>, fillcolor="#eeab7b"] ;
882 -> 884 ;
885 [label=<gini = 0.0<br/>samples = 3<br/>value = [3, 0]>, fillcolor="#e58139"] ;
884 -> 885 ;
886 [label=<gini = 0.0<br/>samples = 1<br/>value = [0, 1]>, fillcolor="#399de5"] ;
884 -> 886 ;
887 [label=<loan_amnt &le; 4937.5<br/>gini = 0.5<br/>samples = 2<br/>value = [1, 1]>, fillcolor="#ffffff"] ;
881 -> 887 ;
888 [label=<gini = 0.0<br/>samples = 1<br/>value = [1, 0]>, fillcolor="#e58139"] ;
887 -> 888 ;
889 [label=<gini = 0.0<br/>samples = 1<br/>value = [0, 1]>, fillcolor="#399de5"] ;
887 -> 889 ;
890 [label=<gini = 0.0<br/>samples = 1<br/>value = [0, 1]>, fillcolor="#399de5"] ;
880 -> 890 ;
891 [label=<purpose_debt_consolidation &le; 0.5<br/>gini = 0.5<br/>samples = 6<br/>value = [3, 3]>, fillcolor="#ffffff"] ;
879 -> 891 ;
892 [label=<gini = 0.0<br/>samples = 2<br/>value = [0, 2]>, fillcolor="#399de5"] ;
891 -> 892 ;
893 [label=<open_acc &le; 6.5<br/>gini = 0.375<br/>samples = 4<br/>value = [3, 1]>, fillcolor="#eeab7b"] ;
891 -> 893 ;
894 [label=<gini = 0.0<br/>samples = 1<br/>value = [0, 1]>, fillcolor="#399de5"] ;
893 -> 894 ;
895 [label=<gini = 0.0<br/>samples = 3<br/>value = [3, 0]>, fillcolor="#e58139"] ;
893 -> 895 ;
896 [label=<addr_state_CA &le; 0.5<br/>gini = 0.366<br/>samples = 29<br/>value = [22, 7]>, fillcolor="#eda978"] ;
842 -> 896 ;
897 [label=<annual_inc &le; 30500.0<br/>gini = 0.172<br/>samples = 21<br/>value = [19, 2]>, fillcolor="#e88e4e"] ;
896 -> 897 ;
898 [label=<gini = 0.0<br/>samples = 2<br/>value = [0, 2]>, fillcolor="#399de5"] ;
897 -> 898 ;
899 [label=<gini = 0.0<br/>samples = 19<br/>value = [19, 0]>, fillcolor="#e58139"] ;
897 -> 899 ;
900 [label=<annual_inc &le; 29160.0<br/>gini = 0.469<br/>samples = 8<br/>value = [3, 5]>, fillcolor="#b0d8f5"] ;
